solver_type L2R_L2LOSS_SVC_DUAL
nr_class 5
label 1 2 3 4 5
nr_feature 174800
bias -1.000000000000000
w
0 0 0 0 0 
-0.02118963263701779 0.006248165402593071 -0.01790529483288312 -0.02009899277805387 0.004932146760424841 
0 0 0 0 0 
0 0 0 0 0 
0 0 0 0 0 
0 0 0 0 0 
-0.03317758088531573 0.003349027679476435 0.01244076255316783 -0.03105910432431032 -0.02846497697829141 
0 0 0 0 0 
0 0 0 0 0 
0 0 0 0 0 
0 0 0 0 0 
0 0 0 0 0 
0 0 0 0 0 
0 0 0 0 0 
-0.01300303101112633 -0.01098360225477081 0.01798807453360522 -0.01078003849837783 -0.01130147689219707 
0 0 0 0 0 
0 0 0 0 0 
-0.01780023285936752 -0.01229409936891586 -0.03352266618930370 -0.01380788751744386 -0.01357579623774254 
0 0 0 0 0 
0 0 0 0 0 
0 0 0 0 0 
0 0 0 0 0 
0 0 0 0 0 
0 0 0 0 0 
-0.05629516302517819 -0.04900655579436231 0.009066699780805206 0.01293564191216956 -0.05100745055707869 
-0.006722067309558683 -0.03004396582656136 -0.03329616125063317 0.02213135832602243 -0.03022818479529960 
0 0 0 0 0 
0.0006196890670772758 -0.02361677434578138 0.01099909654655665 -0.02568091195075512 -0.02439051374508573 
0 0 0 0 0 
0 0 0 0 0 
0 0 0 0 0 
0 0 0 0 0 
0 0 0 0 0 
0 0 0 0 0 
0.05127186839920753 -0.1160272953864193 -0.1247379638303675 -0.1037320428690683 -0.09122811324784910 
0 0 0 0 0 
0 0 0 0 0 
0 0 0 0 0 
0 0 0 0 0 
0 0 0 0 0 
0 0 0 0 0 
0 0 0 0 0 
0 0 0 0 0 
0 0 0 0 0 
-0.04007575652217937 -0.03379196845261373 -0.03795863923567348 0.01472910155388921 0.01317883911310182 
-0.06309418704901103 -0.05581811972893657 0.002928818841152133 0.01734192267225836 -0.05061575076341807 
0 0 0 0 0 
0 0 0 0 0 
0.02831203834701924 -0.04980018893801762 -0.01664803040955936 -0.04844603093680767 -0.03772677938625454 
0 0 0 0 0 
0 0 0 0 0 
0 0 0 0 0 
-0.04284052777804908 -0.01621563750860981 -0.008142665198923607 -0.04853909933680011 -0.03663395571900523 
0 0 0 0 0 
0.01818095708047643 -0.02103325493106373 -0.01916621729924951 -0.01843997763983155 -0.009133897861588488 
-0.07699181920007445 -0.1257665685587567 -0.1047268247054242 -0.03476929058482606 -0.09353361633462161 
0 0 0 0 0 
0 0 0 0 0 
-0.02359944021864036 -0.02053092924554655 -0.02465840051732145 0.03893350269582008 -0.02021622676552193 
0 0 0 0 0 
0 0 0 0 0 
0.07292701651311007 -0.1388124225713881 -0.1529684922527941 -0.1540215630121725 -0.1293673052800000 
0 0 0 0 0 
0 0 0 0 0 
-0.1281740175574932 -0.02194651557574148 -0.07819610715411884 -0.07092575356854885 -0.08658414892778980 
0 0 0 0 0 
-0.08010622047631820 -0.06499926873038814 -0.09634836836897777 -0.1018658024052968 0.06916760246325895 
0 0 0 0 0 
0 0 0 0 0 
0 0 0 0 0 
0 0 0 0 0 
0 0 0 0 0 
0 0 0 0 0 
0 0 0 0 0 
0 0 0 0 0 
0 0 0 0 0 
0 0 0 0 0 
0 0 0 0 0 
0 0 0 0 0 
-0.02561809730936459 -0.02414185709397127 0.02995475673665402 -0.02472657937075382 -0.02324190990064106 
-0.009473452835394660 -0.008080271247490943 -0.008521822153129766 -0.008398217415419457 0.01281327251774807 
0 0 0 0 0 
-0.03919873823920531 -0.07529729877611763 -0.06065395410830793 -0.003709064963021359 -0.06674848455724074 
0 0 0 0 0 
-0.02690246217827063 -0.02740942055213986 -0.01493745933809797 -0.0006115207669101018 -0.04411275858393032 
-0.07506104850983326 -0.06894298565769122 -0.03814665910086110 0.01909994227439224 -0.01601873245872091 
0 0 0 0 0 
0 0 0 0 0 
0 0 0 0 0 
0 0 0 0 0 
-0.01035158114523768 0.01726429302662768 -0.03807725053653069 -0.01860540321175111 -0.04413646651857591 
-0.02621191772810754 -0.04695120123879287 0.008301632569270717 -0.04642214010728650 -0.01556188360381414 
-0.1853607036883234 -0.1776053454372285 -0.1641213470091486 -0.1799840646352770 0.2301095553208099 
-0.03701928730946087 -0.03063840433468302 -0.03082984697845082 -0.03076339748491198 0.04775442334685995 
0 0 0 0 0 
0 0 0 0 0 
0 0 0 0 0 
0 0 0 0 0 
0 0 0 0 0 
0 0 0 0 0 
0 0 0 0 0 
0.01771237079466756 -0.01146247989080193 -0.02421422147105076 -0.02593206310713283 -0.02523626762758707 
-0.04312749957882764 -0.03722041259334170 -0.05748638565561159 -0.05813507723903841 0.03994531518904782 
0 0 0 0 0 
-0.01774873673059069 -0.004517728550905075 -0.02225023124866087 -0.03077288339602785 -0.007935598375890212 
-0.01896104466994217 -0.01725274438379379 -0.01733860536940038 -0.01696505076352751 0.02162474317788629 
0.01443531560154733 -0.01137274014664439 -0.009310059205976712 -0.009601477501644345 -0.009737874733778896 
0 0 0 0 0 
0 0 0 0 0 
0 0 0 0 0 
0 0 0 0 0 
0 0 0 0 0 
0 0 0 0 0 
0 0 0 0 0 
0 0 0 0 0 
0 0 0 0 0 
0 0 0 0 0 
0 0 0 0 0 
0 0 0 0 0 
0 0 0 0 0 
0 0 0 0 0 
0 0 0 0 0 
0 0 0 0 0 
0 0 0 0 0 
0 0 0 0 0 
0 0 0 0 0 
0 0 0 0 0 
0 0 0 0 0 
0 0 0 0 0 
0 0 0 0 0 
0 0 0 0 0 
-0.03055138227864009 -0.02640353408583485 -0.002791083541483096 -0.02853595823908748 0.01300133333924748 
0 0 0 0 0 
-0.03635517465787244 -0.004127324614856567 -0.02942381680074339 -0.03096131027324401 0.02460293497667064 
0 0 0 0 0 
0 0 0 0 0 
-0.01879305240450907 -0.01784085679169662 -0.01604737348947690 -0.01685649270268518 0.02163789398870108 
0 0 0 0 0 
0 0 0 0 0 
0 0 0 0 0 
-0.03372036354102064 -0.07642036720219050 -0.05936156859071488 -0.07462824865037743 -0.002230766296944073 
0 0 0 0 0 
0 0 0 0 0 
0 0 0 0 0 
-0.05071776366882926 -0.04782876719277274 -0.04155484804741157 -0.006042022758156433 -0.01375047988085828 
0 0 0 0 0 
0 0 0 0 0 
-0.0002154157557440042 -0.02125713378483092 -0.02095786891673956 -0.02062772082747147 0.006296308274981878 
0 0 0 0 0 
0 0 0 0 0 
0 0 0 0 0 
0 0 0 0 0 
0 0 0 0 0 
0.004125733386898600 -0.02479090990858016 -0.02540202408676214 -0.01529683987127021 -0.003326415881198189 
-0.009055237395279749 -0.008757136750858919 -0.008914252521616331 0.01230689818957161 -0.008282008420790505 
0 0 0 0 0 
0 0 0 0 0 
0 0 0 0 0 
-0.02500742738880230 -0.003971567440364515 -0.02202633723914567 -0.02255288149943784 0.01076387569622593 
0 0 0 0 0 
0 0 0 0 0 
0.01882639941831617 -0.01192060672227705 -0.01151840463154425 -0.01492919866441417 -0.01208209769251282 
-0.008066509352233448 0.009488673036417396 -0.008092235020772505 -0.008613480288447148 -0.008324279497991105 
0 0 0 0 0 
-0.07580750917337162 -0.07025102794377225 -0.07136687744928537 0.04720917653165826 -0.01265162791679239 
-0.01321373348210182 -0.006546038305492770 0.01782482663114172 -0.01028727662804994 -0.008017492457817481 
0 0 0 0 0 
0 0 0 0 0 
0 0 0 0 0 
-0.03270044997508497 0.0006165733684968513 -0.02784122575654886 -0.01672908917137728 -0.001331088972507651 
0 0 0 0 0 
0.07416802231691731 -0.04445345437758434 -0.06494835143781282 -0.06449394423149293 -0.06627501172390148 
0 0 0 0 0 
0 0 0 0 0 
0 0 0 0 0 
0 0 0 0 0 
0 0 0 0 0 
-0.08704323535113878 0.1224889091905963 -0.07945500379696151 -0.08359991454012444 -0.07259332991602248 
0 0 0 0 0 
0 0 0 0 0 
0 0 0 0 0 
0 0 0 0 0 
-0.01370602275397573 -0.01114264606044698 -0.01254901522641166 0.01985431240652095 -0.01143225912233321 
-0.03621432232756058 -0.01387473205453706 -0.03244324512452579 -0.03224197668247381 0.02481899272723947 
-0.1080259160625015 -0.09909057921057610 -0.08224673262699600 -0.02039791817955645 0.03406139091849430 
-0.006935342550679796 0.009777048520206288 -0.005677585549478239 -0.006505273799219392 -0.006124651794492740 
0 0 0 0 0 
-0.02579120682877183 -0.02094472128096580 0.03417118874322344 -0.02344759415128571 -0.02001379321826832 
0 0 0 0 0 
0 0 0 0 0 
0 0 0 0 0 
-0.03373360195467460 0.02663078063168752 -0.02800399285478483 -0.01392329335431412 -0.03255701458735958 
0 0 0 0 0 
-0.02249126749598544 0.01764092029375857 -0.02123448847349018 -0.02024807354776110 -0.005941936052559186 
0 0 0 0 0 
0 0 0 0 0 
0 0 0 0 0 
0 0 0 0 0 
0 0 0 0 0 
-0.008575442938682124 -0.007300580289865070 0.01119001484593380 -0.007515370582481539 -0.007616441098007792 
0 0 0 0 0 
0 0 0 0 0 
0 0 0 0 0 
0 0 0 0 0 
-0.01446715078221729 0.01897752005721125 -0.01383344322763439 -0.01474227008718563 -0.01326208060042240 
0 0 0 0 0 
0.01429106891897681 -0.03221681882664722 -0.03314159192399054 -0.03382483624297082 -0.003664513591987468 
0 0 0 0 0 
0 0 0 0 0 
0 0 0 0 0 
0 0 0 0 0 
0 0 0 0 0 
-0.009856323419717036 -0.009616307810866115 0.01450920719126384 -0.01136317242205770 -0.009430969903784860 
0 0 0 0 0 
0 0 0 0 0 
0 0 0 0 0 
0 0 0 0 0 
0 0 0 0 0 
0 0 0 0 0 
0 0 0 0 0 
0 0 0 0 0 
0 0 0 0 0 
0 0 0 0 0 
0 0 0 0 0 
0 0 0 0 0 
0 0 0 0 0 
0 0 0 0 0 
0 0 0 0 0 
-0.003288338712071200 -0.002830328265817046 -0.002868491565134941 -0.003155013678708228 0.004568752829538564 
0 0 0 0 0 
0 0 0 0 0 
0 0 0 0 0 
-0.03629925784829008 0.02072470716467232 -0.05164123755425409 -0.02144668332721149 -0.03840659521748217 
0 0 0 0 0 
0.009535213653513935 -0.05065476274421685 -0.04328709331515832 0.01214695226498095 -0.05287515228424610 
0.01135940101513641 -0.008426271156816809 -0.008488747811252919 -0.008990332157654678 -0.008619045604665102 
0 0 0 0 0 
0 0 0 0 0 
0 0 0 0 0 
0 0 0 0 0 
0 0 0 0 0 
0 0 0 0 0 
0 0 0 0 0 
0 0 0 0 0 
0 0 0 0 0 
0 0 0 0 0 
0 0 0 0 0 
0 0 0 0 0 
0 0 0 0 0 
0 0 0 0 0 
0 0 0 0 0 
0 0 0 0 0 
0 0 0 0 0 
0 0 0 0 0 
0 0 0 0 0 
0 0 0 0 0 
0 0 0 0 0 
0 0 0 0 0 
0 0 0 0 0 
0 0 0 0 0 
0 0 0 0 0 
0.007260636559530205 -0.01706205475521299 -0.01040466473790028 -0.02004321823767990 -0.03241214228981041 
0.002525466215307727 -0.02506096457604048 -0.01015234873592026 -0.008365129778811828 -0.02398473517381611 
0 0 0 0 0 
0.01449136384499157 -0.02121339783382368 -0.02110829847888372 -0.02509551732492339 -0.003542666276933349 
-0.05371029090951458 -0.1588425767644699 -0.07584642416274451 -0.1322031354563774 -0.1434900057751811 
0 0 0 0 0 
0 0 0 0 0 
0 0 0 0 0 
-0.01869566613773046 -0.01774840483649118 -0.01596421542860929 -0.01676914175724208 0.02152576565152869 
0 0 0 0 0 
0 0 0 0 0 
0 0 0 0 0 
0 0 0 0 0 
0 0 0 0 0 
0 0 0 0 0 
0 0 0 0 0 
0 0 0 0 0 
0 0 0 0 0 
0.002843647349926481 -0.02044187255126819 -0.01861792640763323 -0.01859977472539708 0.002120902435350030 
-0.01542754195271100 -0.01400929932618774 -0.01291602503138886 0.01823436493346490 -0.01351603166118121 
0 0 0 0 0 
-0.01657207487648486 -0.01712087924408611 -0.02052279902069630 0.02404053525286342 -0.01401519292557050 
0 0 0 0 0 
0 0 0 0 0 
0 0 0 0 0 
0 0 0 0 0 
0 0 0 0 0 
0.01464679196463441 -0.01558034228387969 -0.01078676687019490 -0.01519440148755673 -0.01526827375127746 
0 0 0 0 0 
-0.01824984500178826 -0.01519661586133475 -0.01431496894855214 0.002573496094337380 0.002018550724343454 
0 0 0 0 0 
0 0 0 0 0 
0 0 0 0 0 
0 0 0 0 0 
0 0 0 0 0 
0 0 0 0 0 
0.02325997682866112 -0.01937868203093723 -0.02073818289169721 -0.01975763264222167 -0.01885424054601922 
0 0 0 0 0 
0 0 0 0 0 
0 0 0 0 0 
-0.09180274773372357 -0.1050755778444824 -0.09697246013821856 -0.1179630919998901 -0.03412726572846913 
0 0 0 0 0 
0 0 0 0 0 
0.01406633706551050 -0.01083180231442658 -0.01045537580972637 -0.009910035772015472 -0.01049040633217302 
0 0 0 0 0 
0.003721820674996588 -0.01459697424937221 -0.01650359671410830 -0.01472248501867949 0.004650355718654968 
0 0 0 0 0 
0 0 0 0 0 
0.01722056601396946 -0.03484107362911048 -0.03674638393578294 -0.03410308988542155 -0.006559609616580259 
0 0 0 0 0 
0 0 0 0 0 
-0.04187399398963582 0.04388215264393647 -0.04053223310143900 -0.04060367022515041 -0.04045057236064227 
0 0 0 0 0 
0 0 0 0 0 
0 0 0 0 0 
0 0 0 0 0 
0 0 0 0 0 
0 0 0 0 0 
0 0 0 0 0 
0 0 0 0 0 
0 0 0 0 0 
0 0 0 0 0 
0 0 0 0 0 
0 0 0 0 0 
0 0 0 0 0 
0 0 0 0 0 
0 0 0 0 0 
0 0 0 0 0 
0.04724808111910915 -0.06060198370978220 -0.09750521658166960 -0.05768026761663565 -0.09112647670572828 
0 0 0 0 0 
0 0 0 0 0 
0 0 0 0 0 
0 0 0 0 0 
0 0 0 0 0 
0 0 0 0 0 
0 0 0 0 0 
0 0 0 0 0 
0 0 0 0 0 
0 0 0 0 0 
0 0 0 0 0 
-0.02394661604107824 -0.002416380464285500 -0.02127066040891773 0.01769159564506069 -0.02442320595483058 
0 0 0 0 0 
-0.04924523027179398 0.008988383921488614 -0.008163683151892134 -0.03773915732390243 -0.05127595245028185 
0 0 0 0 0 
0 0 0 0 0 
0 0 0 0 0 
-0.03109826521897085 -0.02913944910115819 -0.02758892154977207 0.005099538317432130 0.006920430387020749 
0 0 0 0 0 
0 0 0 0 0 
0.01626035577113911 -0.01302256117377584 -0.01139888644391147 -0.01242407332565635 -0.01162849699600926 
-0.02882161418655719 -0.02892742415539659 0.03007515097185621 -0.02905478049129998 -0.02913285130764003 
0 0 0 0 0 
0 0 0 0 0 
-0.0005864774412753426 -0.01670401197038999 -0.01918083968309746 0.007030616337177770 -0.01716537083227981 
0 0 0 0 0 
0 0 0 0 0 
0 0 0 0 0 
-0.02121848927048320 -0.01974031402252541 -0.02112981584590281 -0.01987224980695730 0.02508201177056125 
-0.001836035963366565 0.001066983877939337 -0.01366034989152039 -0.02095283459265154 -0.02115769066359518 
0 0 0 0 0 
0 0 0 0 0 
0 0 0 0 0 
-0.02600853258561365 -0.06868808967060135 -0.06176017077988724 -0.05846131828583519 -0.07487991819907847 
0 0 0 0 0 
0 0 0 0 0 
0 0 0 0 0 
0 0 0 0 0 
0 0 0 0 0 
0 0 0 0 0 
0 0 0 0 0 
0 0 0 0 0 
0.02976740767716087 -0.06283744545649834 -0.06299875024635515 -0.02993347830758037 -0.03304720569074261 
0 0 0 0 0 
0 0 0 0 0 
0 0 0 0 0 
-0.01926605261717225 -0.01566533532630927 0.01925213192494528 -0.02515760461583426 -0.02824674888654623 
0 0 0 0 0 
0 0 0 0 0 
0 0 0 0 0 
0 0 0 0 0 
0 0 0 0 0 
-0.02737580820011368 -0.02549726774747472 -0.02656348563012665 -0.02570952213903572 0.03283237095889292 
-0.03050379886105750 -0.02638675893955824 0.004585421512921612 -0.02945037663549516 0.008221153986931557 
0 0 0 0 0 
-0.03501118361902401 -0.05351006029228891 -0.04620152409693508 0.002445764361497297 -0.01023029374533910 
-0.03643717248581044 -0.03521614136575811 -0.01575029831030985 0.01457604494048372 -0.01348483950189694 
0 0 0 0 0 
0 0 0 0 0 
0 0 0 0 0 
-0.03096486293144452 0.01872648168901022 -0.02928260059208241 -0.01402962223424661 -0.02942015412536113 
0 0 0 0 0 
0 0 0 0 0 
0.001168514327629499 -0.1068079726610704 -0.09209181122811742 -0.1111581497777072 -0.02905043109925942 
0 0 0 0 0 
0 0 0 0 0 
0 0 0 0 0 
0.01629228061225334 -0.01260254980692635 -0.01244509622310803 -0.01210755539317662 -0.01245913673754353 
0 0 0 0 0 
-0.001401998263656613 -0.07477916316918906 -0.07847804494689177 -0.03504489958733553 -0.009912672091594911 
0 0 0 0 0 
0 0 0 0 0 
0 0 0 0 0 
0 0 0 0 0 
0 0 0 0 0 
0 0 0 0 0 
0 0 0 0 0 
0 0 0 0 0 
0 0 0 0 0 
0 0 0 0 0 
0 0 0 0 0 
0 0 0 0 0 
0 0 0 0 0 
0 0 0 0 0 
0 0 0 0 0 
0.01292157160548267 -0.01018014986382846 -0.008333769763122882 -0.008594628789593588 -0.008716722871251723 
0 0 0 0 0 
0 0 0 0 0 
0 0 0 0 0 
0 0 0 0 0 
0 0 0 0 0 
0 0 0 0 0 
0 0 0 0 0 
0 0 0 0 0 
0 0 0 0 0 
0 0 0 0 0 
0 0 0 0 0 
0 0 0 0 0 
0 0 0 0 0 
0 0 0 0 0 
-0.03776852328873502 0.05223489791107204 -0.03126042237222285 -0.03664931349123631 -0.03762692247550935 
0 0 0 0 0 
0 0 0 0 0 
0 0 0 0 0 
0 0 0 0 0 
0.02060099028726969 -0.03459113986597813 -0.05599098198495279 -0.06614123713158877 -0.07894202665241028 
0 0 0 0 0 
-0.01238249407064259 -0.03812928780886694 -0.04016177472636819 -0.03823757846777661 0.02659827688421867 
0 0 0 0 0 
0 0 0 0 0 
0.003450642350447628 -0.01339748708083326 -0.01307451693276234 0.002760063480314521 -0.01202846017687929 
0 0 0 0 0 
0.01458609978631301 -0.06970442816220757 -0.06497214828127916 -0.02690907185015175 -0.03173151676937012 
0 0 0 0 0 
0 0 0 0 0 
0 0 0 0 0 
-0.1646319392270566 -0.1471305955885876 0.1119046676656320 -0.1232557311819903 -0.07769748420380347 
0 0 0 0 0 
0 0 0 0 0 
0 0 0 0 0 
0 0 0 0 0 
0 0 0 0 0 
-0.05395534636440071 -0.04769956822090694 0.07326688038084246 -0.05314225561320863 -0.05093678522136936 
0 0 0 0 0 
0.01124154614615784 -0.0009683550378823206 -0.04333910582932890 -0.04612859885781251 -0.04486729885607625 
0 0 0 0 0 
0 0 0 0 0 
0 0 0 0 0 
0 0 0 0 0 
0 0 0 0 0 
0 0 0 0 0 
0 0 0 0 0 
0 0 0 0 0 
-0.01725503340590245 0.02843355641369872 -0.02997678460772058 -0.03374311108425736 -0.03014405378356644 
0 0 0 0 0 
0 0 0 0 0 
0 0 0 0 0 
0 0 0 0 0 
-0.01281479824911569 -0.01093023289754026 -0.01152752153884061 -0.01136032064557449 0.01733259299211359 
-0.01525398839562814 -0.01432719636316501 -0.03685694308969222 0.005767714699190206 -0.03969111020467418 
0.1226203955886653 -0.09818630778288630 -0.09202396522467883 -0.09993882426361263 -0.09447331153645237 
0 0 0 0 0 
0 0 0 0 0 
0 0 0 0 0 
0 0 0 0 0 
0 0 0 0 0 
0 0 0 0 0 
0 0 0 0 0 
-0.05396838788860520 -0.04709983307691796 -0.04909029347166911 -0.03283335474699846 0.05703031182418468 
-0.1022703127323065 -0.09727499042365835 -0.1045448974147494 0.005943961042956739 0.03615280185616007 
0 0 0 0 0 
0 0 0 0 0 
-0.009101326233494822 -0.008767544642717395 -0.008704921697105749 -0.009310186130101341 0.01247251082096805 
0 0 0 0 0 
0 0 0 0 0 
0.05425918875466854 -0.04073328383571476 -0.03510762591073549 -0.03925518028219106 -0.04051663889588245 
-0.1010839432721335 -0.09720042007407052 -0.09594165444763529 0.09971062824636007 -0.07696016786564380 
0 0 0 0 0 
0 0 0 0 0 
0 0 0 0 0 
0 0 0 0 0 
0 0 0 0 0 
-0.02197153303291783 -0.01908052549506330 -0.02180288582605577 -0.01924789948985880 0.02824372823237052 
-0.1686505676803709 0.1600208482907312 -0.1490661973552228 -0.1369231195835573 -0.1417669240577266 
0 0 0 0 0 
0 0 0 0 0 
-0.01735999951668377 -0.04996049069966430 -0.05028337339173575 0.02464742770778921 -0.03148093469293486 
0 0 0 0 0 
0 0 0 0 0 
-0.0008568055792069495 0.01998674402029768 -0.04279051765173522 -0.04462013546820607 -0.04545480279550482 
0 0 0 0 0 
-0.01579102146603411 -0.01283769670365530 -0.01445800670076768 0.02287460622475448 -0.01317136651868335 
-0.04673817667394754 -0.06372925589667736 -0.05504170339490095 0.07529307110032354 -0.06590803819739105 
0 0 0 0 0 
0.05731513879254031 -0.05544854989343877 -0.03810224529311546 -0.05730872678699116 -0.05345020673934565 
0.03203354045832569 -0.02028317944611018 -0.01959882357648077 -0.02540236604996382 -0.02055795995053679 
-0.01734494660625402 -0.05758293211727750 0.03997947205291490 -0.05950098560735190 -0.06041274265291532 
0 0 0 0 0 
0 0 0 0 0 
0 0 0 0 0 
0 0 0 0 0 
0 0 0 0 0 
0 0 0 0 0 
-0.01600512739763566 -0.01534600522374056 0.01840817608473507 -0.01516395903013379 -0.01593735276647758 
0 0 0 0 0 
0.02625029928190931 -0.03965322355965599 -0.01620895069630120 -0.04328490055276456 -0.04125120486716041 
0 0 0 0 0 
0.02077242007847337 -0.009158463991200974 -0.02656150856258298 -0.02668765721647796 -0.02502475476084383 
0.004626339610212151 -0.05952461739903783 0.01341579681328083 -0.06396546259773550 -0.05953296383185378 
0 0 0 0 0 
0 0 0 0 0 
-0.02331140401228707 -0.02200352668706806 -0.02799500022647447 0.03271199649167747 -0.02327321078445844 
-0.009928879071992192 -0.008545952697080418 -0.008661183765742729 -0.009526314661984532 0.01379498838966573 
0 0 0 0 0 
0 0 0 0 0 
0 0 0 0 0 
-0.01063810154737488 -0.009073644800339700 -0.009569479154944945 -0.009430678680150146 0.01438851246387328 
0 0 0 0 0 
0 0 0 0 0 
0.02527167098278823 -0.02941356159605423 -0.04303441128373960 -0.03231863865455284 -0.03073987080404200 
0.004675685313264197 -0.01609415888556601 -0.0008692564777301706 -0.01683173488933479 -0.01700663870021785 
-0.01719684364401631 -0.04157585823077826 -0.03806808334712576 0.03831190799143921 -0.03989705959868489 
0 0 0 0 0 
0.05914261865731033 -0.04910377265300926 -0.04531964235814682 -0.04762070682515598 -0.04583348217163384 
0 0 0 0 0 
0 0 0 0 0 
0.01857540163765729 -0.01883420544759422 -0.01600562702105715 -0.01684904695787542 -0.005556113781972265 
0 0 0 0 0 
0 0 0 0 0 
0 0 0 0 0 
0 0 0 0 0 
0 0 0 0 0 
0 0 0 0 0 
-0.03243036629717630 -0.02889779468677661 -0.02875282748915186 0.0007582486588166068 0.01429017516764675 
-0.01958940386569195 -0.01669799855903116 -0.01676634543025345 0.02560271638026360 -0.01733222412156784 
0 0 0 0 0 
0.03233815924694359 -0.04028566895704156 -0.04137928619394733 -0.01054938555545257 -0.03766737404175748 
0.04105650429189525 -0.02774045687909237 -0.02729474536178389 -0.03253264255884374 -0.02822741308734530 
0 0 0 0 0 
-0.1110443767182621 -0.1014466038155314 -0.1033544616834837 0.1563586820431132 -0.1000752572595492 
0 0 0 0 0 
-0.06325077454147307 -0.05227804847388209 -0.05622715449334011 0.0003088548275652327 0.02670659256147709 
0.09173880801934092 -0.1282184214910879 -0.1168130639815646 -0.06615455290059605 -0.1045708355102673 
0 0 0 0 0 
-0.02669483139080370 -0.02428019802499840 -0.02452819164366142 -0.003484993037137643 0.01352563987773862 
0.04327360625076548 -0.04155181885391308 -0.08897596828088424 -0.07770660116424963 -0.05398775698889276 
-0.02078421705885756 -0.07877782153273077 -0.1347735156890424 -0.07934799402261582 -0.04503723662788745 
0 0 0 0 0 
0 0 0 0 0 
-0.01270748411529822 0.006963164708576467 -0.01041523249923984 -0.01066233553935323 -0.0006033644541141837 
-0.03601229265394883 0.004014236421064822 0.01536972077355845 -0.02982341315089375 -0.03133419231768328 
-0.02588486973049850 0.01921524063343628 -0.01938498963700347 -0.007777688338010545 -0.01956997706584980 
0.006265961679561012 -0.02268766302769218 -0.02144956707575229 -0.02105311048125888 0.002164448175401885 
0 0 0 0 0 
0 0 0 0 0 
-0.03185399734908711 -0.001467834953911897 -0.07684762869000611 -0.06577475655173495 -0.02874796063569131 
0 0 0 0 0 
0 0 0 0 0 
-0.01920389101335619 -0.01636938758664396 -0.01643638941452273 0.02509886356845930 -0.01699113180430083 
0 0 0 0 0 
0 0 0 0 0 
0 0 0 0 0 
0 0 0 0 0 
0 0 0 0 0 
0 0 0 0 0 
0 0 0 0 0 
-0.01428143032180589 -0.01428064687539469 -0.01209466335635961 0.02127965140906491 -0.01563584136096048 
0.1709026769331754 -0.1057390414972798 -0.2396484076488632 -0.2119430045992896 -0.2298550484965782 
-0.04701914462775357 -0.04302042789193551 -0.04167640506480309 0.05094823145033052 -0.02676711407921364 
0 0 0 0 0 
0 0 0 0 0 
-0.02463052509824605 -0.02096884409902171 0.03214014057154639 -0.02158576823121849 -0.02187606459108730 
0 0 0 0 0 
0 0 0 0 0 
0 0 0 0 0 
-0.05014450126098757 0.01325564213804924 -0.06656678985580400 -0.03280102673303693 -0.05859748935340289 
0 0 0 0 0 
0 0 0 0 0 
-0.008471649376027405 -0.01872345937348432 -0.04256362374243135 0.005927215317597648 -0.05245081003115443 
-0.03582214363097750 -0.03511593810319159 -0.03345418082413275 0.04508888247731437 -0.03469745367560192 
-0.03178012000308352 -0.02905039418729455 0.03518241489225849 -0.03045692968919176 -0.03006055844169870 
0 0 0 0 0 
0 0 0 0 0 
0 0 0 0 0 
0 0 0 0 0 
0 0 0 0 0 
0 0 0 0 0 
0 0 0 0 0 
0 0 0 0 0 
0 0 0 0 0 
-0.04455408008507829 -0.03689937154419790 -0.03543540526259017 -0.01351552899256921 0.03173417311439600 
0 0 0 0 0 
0 0 0 0 0 
0 0 0 0 0 
0 0 0 0 0 
0 0 0 0 0 
0 0 0 0 0 
-0.03736363810039410 -0.03291251846668587 -0.01678580315505194 -0.03319699081001173 0.02922276348839493 
0 0 0 0 0 
0 0 0 0 0 
0 0 0 0 0 
0 0 0 0 0 
0.02396527579445436 -0.01517446971079653 -0.01466248205902388 -0.01900429048768611 -0.01538004144833489 
0 0 0 0 0 
0 0 0 0 0 
0 0 0 0 0 
0 0 0 0 0 
0 0 0 0 0 
-0.003321414676506411 -0.003145059287181758 -0.002881819940666836 0.004502286855573767 -0.002970909690326918 
0 0 0 0 0 
0 0 0 0 0 
0 0 0 0 0 
-0.01593951720397835 -0.01055754384191571 -0.01058688989115510 -0.01045556899423489 0.02232083573496359 
0 0 0 0 0 
0 0 0 0 0 
0.04603183987691979 -0.04349171027405644 -0.06093595207568924 -0.03889593676804407 -0.05818806797329647 
-0.01572893159024714 -0.01280686152238485 -0.01479933146967391 0.02355700092165143 -0.01387298002669956 
0 0 0 0 0 
0 0 0 0 0 
0 0 0 0 0 
-0.02265316055857560 -0.006653111372124054 -0.02042213425309543 -0.02063678577275033 0.01407225832854184 
-0.01696065467037861 -0.01446639284038553 -0.01525691690379276 -0.01503562300933280 0.02294005091354045 
-0.04778907434601394 0.05275720204416651 -0.04063475827562610 -0.04674472868131859 -0.03262376375222672 
0 0 0 0 0 
0 0 0 0 0 
0 0 0 0 0 
-0.006350756937107720 -0.02800323710091059 -0.002430341682404346 -0.01188602958905538 -0.02838147734186911 
0 0 0 0 0 
0 0 0 0 0 
0 0 0 0 0 
0 0 0 0 0 
0 0 0 0 0 
0 0 0 0 0 
0 0 0 0 0 
-0.03924440490928251 -0.03637775888040370 0.04673558382049053 -0.03053238582383264 -0.03358806787998942 
0 0 0 0 0 
-0.08906859766449052 -0.08146307575260614 -0.08359495876284537 -0.08464834349840529 0.1050403430497853 
0 0 0 0 0 
0 0 0 0 0 
0 0 0 0 0 
0 0 0 0 0 
-0.01199898208239501 0.01604146643686013 -0.009480325153049427 -0.009258780856105191 -0.01022567456326868 
-0.02711885744302383 -0.03929657918882552 -0.05539022769378368 -0.02492125983264608 0.003125542182539774 
0 0 0 0 0 
0 0 0 0 0 
0 0 0 0 0 
0 0 0 0 0 
0 0 0 0 0 
0 0 0 0 0 
0 0 0 0 0 
0 0 0 0 0 
0 0 0 0 0 
0 0 0 0 0 
0 0 0 0 0 
0 0 0 0 0 
-0.01758139997559364 0.02368456573462694 -0.01423076506306640 -0.01453961808429745 -0.01531923286713755 
-0.03299971434002694 -0.04501310034481360 -0.06132654497801610 -0.04313803730598143 -0.09165442587071877 
0 0 0 0 0 
-0.004989716431864375 0.001322129948994071 -0.04039704007813189 -0.02320164395057758 -0.04119453233566040 
-0.03416976533034365 -0.02904758051970517 -0.03443624987474247 0.05451916118820330 -0.02958021870691397 
0.02628994495341155 -0.01967674842043008 -0.02040317195302144 -0.02146860382402146 -0.02107256063717931 
0 0 0 0 0 
0 0 0 0 0 
-0.01654575328360608 -0.01709368597972130 -0.02049020245300142 0.02400235142939953 -0.01399293245396063 
0 0 0 0 0 
0 0 0 0 0 
0 0 0 0 0 
0 0 0 0 0 
0 0 0 0 0 
0 0 0 0 0 
0 0 0 0 0 
0 0 0 0 0 
0 0 0 0 0 
0 0 0 0 0 
0 0 0 0 0 
-0.001179288967700243 -0.02642595399271888 -0.02573477069135094 0.01092069201940988 -0.02635490024964500 
0 0 0 0 0 
0.02330603175228048 -0.06551171101744323 -0.07559247347549791 -0.04624083565727621 -0.03707708489939923 
0 0 0 0 0 
0 0 0 0 0 
-0.06665444067254161 -0.03234221537249701 -0.05439415544240972 -0.03062797134898699 -0.05021754844767759 
0 0 0 0 0 
0 0 0 0 0 
-0.04653739274986471 0.03419227585597923 -0.03713397211696300 -0.001844847027287095 -0.04920953588157696 
0 0 0 0 0 
0 0 0 0 0 
0 0 0 0 0 
0 0 0 0 0 
0 0 0 0 0 
0 0 0 0 0 
0.009316344604493348 -0.01539499198292066 -0.01544581264284942 -0.002833382083237153 -0.01453751946705606 
-0.009752096863528383 0.01285431919185930 -0.007852022546537368 -0.007955936093564691 -0.008250980239163735 
-0.02949907568585105 -0.02637066329361376 -0.02540043831005387 0.03918420162031931 -0.02622580663561721 
0 0 0 0 0 
0 0 0 0 0 
0 0 0 0 0 
0 0 0 0 0 
0 0 0 0 0 
0 0 0 0 0 
0 0 0 0 0 
0 0 0 0 0 
0 0 0 0 0 
0 0 0 0 0 
0 0 0 0 0 
-0.009625228886780779 -0.008284595891295920 -0.008396302903003998 -0.009234975912613162 0.01337310282240896 
0 0 0 0 0 
0 0 0 0 0 
0.06697723722489521 -0.05479737729926692 -0.05365648358027815 -0.04657605048767279 -0.04884098904200997 
-0.01873783064157294 -0.01525677703406895 -0.01763040071070035 0.02806338696056001 -0.01652684092004089 
0 0 0 0 0 
0.02695768249242023 -0.1122252258975688 -0.07171914558804180 -0.02204076844079288 -0.1148259703272313 
0 0 0 0 0 
0 0 0 0 0 
0 0 0 0 0 
0 0 0 0 0 
0.004466849122961528 -0.03819144272093977 -0.03606005601994073 -0.03824800345179685 0.005714255271031514 
0 0 0 0 0 
0 0 0 0 0 
0 0 0 0 0 
-0.009342729488641033 -0.009000094686754107 -0.008935810732347737 -0.009557129177758753 0.01280333125688950 
0 0 0 0 0 
0 0 0 0 0 
0 0 0 0 0 
0.02083182904657893 -0.01895327093173948 -0.01770585445582937 -0.01762699470894803 -0.01858433562457582 
0 0 0 0 0 
0 0 0 0 0 
0 0 0 0 0 
0 0 0 0 0 
0 0 0 0 0 
0 0 0 0 0 
0 0 0 0 0 
0 0 0 0 0 
0 0 0 0 0 
0 0 0 0 0 
0 0 0 0 0 
0 0 0 0 0 
0 0 0 0 0 
0 0 0 0 0 
0 0 0 0 0 
0 0 0 0 0 
0 0 0 0 0 
0 0 0 0 0 
0.08145033477538416 -0.06762498536793478 -0.06241353740794288 -0.06558252916773658 -0.06312118995663953 
0 0 0 0 0 
0 0 0 0 0 
0 0 0 0 0 
0 0 0 0 0 
-0.05727725813132706 -0.1424948627276088 -0.1044490293804523 -0.01265793565723227 -0.1964175792469051 
0 0 0 0 0 
0 0 0 0 0 
0 0 0 0 0 
-0.008583788678907548 0.01210093341282045 -0.007027078216686414 -0.008051497843529003 -0.007580406642014308 
0 0 0 0 0 
0 0 0 0 0 
0.02113493324906752 -0.03619877892109732 -0.04770041394027094 -0.04741101754408041 -0.01590285000983998 
0 0 0 0 0 
0 0 0 0 0 
0 0 0 0 0 
0 0 0 0 0 
-0.04553267741126907 0.003541034255948862 0.009941595490683467 -0.04251156912518855 -0.04021856202773400 
0 0 0 0 0 
-0.1473180995336963 -0.07238211495553493 0.01601956409525075 -0.03786425269462106 -0.1048953937164701 
0 0 0 0 0 
0 0 0 0 0 
0 0 0 0 0 
0 0 0 0 0 
0 0 0 0 0 
0 0 0 0 0 
0 0 0 0 0 
-0.03849830073215221 -0.04901059294852248 -0.04729146490182129 -0.04225470523652980 0.04568186245385088 
-0.009245743606099435 -0.04494175053327705 -0.04306942551662525 -0.007215795351006063 -0.01405179363272116 
0 0 0 0 0 
0 0 0 0 0 
0.01011269879216195 -0.02962058010445585 -0.02581481745008490 -0.004227428798520078 -0.02964530298894761 
0.03414552417006250 -0.04855118568909520 -0.04489425886606684 -0.01975810714084166 -0.04835828663158175 
-0.01885430289729297 -0.01828524901215906 0.006090983458087642 -0.02057769085246740 0.002719894677801218 
-0.03977275324937710 0.01679755067270138 -0.02986511264019294 -0.03272065345962788 0.005146660013081304 
0 0 0 0 0 
0 0 0 0 0 
0 0 0 0 0 
0 0 0 0 0 
0 0 0 0 0 
0 0 0 0 0 
0 0 0 0 0 
0 0 0 0 0 
0 0 0 0 0 
0 0 0 0 0 
-0.02562326399143591 -0.03839473162227376 -0.01145375446739914 -0.005591293966047147 -0.01260933605364988 
-0.01220430128848585 -0.03889944846935695 -0.01384377110681175 -0.06966326953473628 -0.08893823287584349 
-0.01035969275535804 -0.009661709535950235 -0.009737199953665334 -0.009761008442747004 0.01263764147390936 
0 0 0 0 0 
0 0 0 0 0 
0 0 0 0 0 
-0.008768647520094841 -0.007139636528020109 -0.008250409155004699 0.01313268078809573 -0.007733981879791045 
0 0 0 0 0 
0.05539571681981090 -0.1658288724158079 -0.1078215127739648 -0.07994550334563600 -0.1403511449280850 
0 0 0 0 0 
0.007157018484548496 -0.03212751371328822 -0.02797191621762621 -0.01385179928221128 -0.01361226191129461 
0 0 0 0 0 
0 0 0 0 0 
0 0 0 0 0 
0 0 0 0 0 
0 0 0 0 0 
-0.009746374361701374 0.01284677631507190 -0.007847415002744778 -0.007951267573607588 -0.008246138588167650 
0 0 0 0 0 
0.02481015466331786 -0.01908656954798655 -0.01759350805453186 -0.01671746892277311 -0.01862517414590350 
-0.008391925162792246 -0.007946343573797686 -0.007281239962531911 0.01137553061972367 -0.007506335165852233 
-0.03554983976208902 -0.03481789131589235 -0.03480382530171298 0.05392631982878475 -0.03237723893923296 
-0.01754212609107645 0.02301116887153295 -0.01677372476626097 -0.01787572166981169 -0.01608091970732695 
0 0 0 0 0 
0 0 0 0 0 
0 0 0 0 0 
-0.01462227109109776 -0.04778834910350489 -0.04839391799304717 0.03297216151256627 -0.04827086699138387 
0 0 0 0 0 
0 0 0 0 0 
-0.007344367558986373 -0.006264292760941432 -0.006606608514591323 -0.006510782985974670 0.009933588591078913 
-0.009413748158816746 -0.008779497857987421 -0.008848095238002023 -0.008869729771530142 0.01148369714876634 
0 0 0 0 0 
0 0 0 0 0 
0 0 0 0 0 
0 0 0 0 0 
0 0 0 0 0 
0 0 0 0 0 
0 0 0 0 0 
0 0 0 0 0 
-0.003948376065243868 -0.006155168582312748 -0.02105250976576741 -0.02130617303696937 -0.004144443846358654 
0 0 0 0 0 
-0.009241943093288237 0.002013663289603853 -0.01974184986288950 -0.02005493505131860 -0.01796902322268483 
0.0003759394327323427 0.003039854553733390 -0.008504039251759988 -0.008742527423291330 -0.008889406527752459 
0 0 0 0 0 
0 0 0 0 0 
0.03366069173778242 -0.05675510992325192 -0.06836990491239507 -0.1151466352625767 -0.09624081563163982 
0 0 0 0 0 
0 0 0 0 0 
0 0 0 0 0 
0 0 0 0 0 
0 0 0 0 0 
-0.05780091682624189 -0.05501071023267715 -0.05706595171678015 0.07852016341959862 -0.05685100864619668 
0 0 0 0 0 
0 0 0 0 0 
0 0 0 0 0 
0 0 0 0 0 
0 0 0 0 0 
0 0 0 0 0 
0 0 0 0 0 
0 0 0 0 0 
-0.06945182603967678 -0.06607504466693262 0.06466586444931200 -0.06693968235729687 -0.04614451190517820 
0 0 0 0 0 
0 0 0 0 0 
0 0 0 0 0 
-0.06270607927115844 0.03891326456274224 -0.05002246280549004 -0.05842936208918077 -0.02131258206683024 
0 0 0 0 0 
0 0 0 0 0 
0 0 0 0 0 
0 0 0 0 0 
-0.008394673875747712 0.01301985637782863 -0.01819281216036579 -0.02004388138094134 -0.01806232316568494 
0 0 0 0 0 
0.04332283049563996 -0.02326733183619409 -0.02982578515156167 -0.02484801242441188 -0.02387733867941174 
-0.06917501083070621 -0.07079866207510957 -0.03253361042850401 -0.07984403029922521 -0.05717719691764604 
0 0 0 0 0 
0 0 0 0 0 
0 0 0 0 0 
0.03962104128506378 -0.02884730376489268 -0.02836055065067013 -0.02565204392144898 -0.02859501025508690 
0 0 0 0 0 
-0.03408087134250124 0.02737817086767300 -0.03237048216334805 -0.05488860047977784 -0.05345659376937401 
0 0 0 0 0 
0 0 0 0 0 
0 0 0 0 0 
0 0 0 0 0 
-0.01715874921856901 -0.01211140549164383 -0.004046515933048255 -0.02339061692614091 -0.007646402329497763 
0 0 0 0 0 
0 0 0 0 0 
0 0 0 0 0 
0 0 0 0 0 
0.01290253027783130 -0.009980479978932480 -0.009855785979306607 -0.009588473447571867 -0.009866905242897251 
0 0 0 0 0 
0 0 0 0 0 
-0.006586141460274786 -0.02319285111817190 -0.02792202449256922 0.02415792708228203 -0.02305924505538464 
0 0 0 0 0 
0 0 0 0 0 
-0.005567920758929123 -0.01823083484482800 -0.07302216342485279 -0.1073185655247227 -0.06656359326373140 
-0.01271715894730650 -0.01094587193749839 -0.01109346279898650 -0.01220154428914863 0.01766896935249175 
0 0 0 0 0 
0 0 0 0 0 
0 0 0 0 0 
0 0 0 0 0 
0.004025565594297977 -0.01636140726232287 -0.01592250391064579 -0.002209426687175368 -0.01710287679195251 
0 0 0 0 0 
0.001968437689104677 0.009201041213466554 -0.02419982043499722 -0.02312905855944147 -0.02232155571766994 
0 0 0 0 0 
0 0 0 0 0 
0 0 0 0 0 
-0.02656089479437240 -0.02520651475177059 0.01318067238713521 -0.02612220910647263 -0.004943152007056624 
0 0 0 0 0 
0 0 0 0 0 
0 0 0 0 0 
-0.008273400755859485 -0.007056700804670890 -0.007442318135536136 -0.007334371059832172 0.01119014791917251 
0 0 0 0 0 
0.02743333817499805 -0.03887855180698554 -0.02671922667288403 -0.03299882022125159 -0.005603375684447437 
0 0 0 0 0 
0 0 0 0 0 
0 0 0 0 0 
0 0 0 0 0 
0 0 0 0 0 
0.01704667070895421 -0.01172575698273510 -0.01191203335589227 -0.01061638021612653 -0.01060001055537739 
0 0 0 0 0 
0 0 0 0 0 
-0.006654117004887324 -0.02432505116884743 -0.004422208422220860 -0.02433155126160798 -0.005692194185995581 
0 0 0 0 0 
0 0 0 0 0 
0.01657002853975746 -0.06070349816834948 -0.04658205326468358 -0.03197201619860873 -0.006878416723163180 
-0.01963580477536289 -0.03639309382923839 -0.07706459293168122 -0.06404651749022741 -0.04920762003190865 
0.04000252547582073 -0.04755211791113956 -0.04853306091420005 -0.01954181131741373 -0.04570547874613873 
0 0 0 0 0 
-0.02338997708922080 -0.01892089692360933 0.02915693104532840 -0.02246273435023302 -0.01976568690550390 
0 0 0 0 0 
-0.02476881885701229 -0.02193132509608192 -0.02525668215962601 0.02776006046214044 -0.02521049247649147 
0 0 0 0 0 
-0.0009843770598196102 -0.03524630068820438 -0.03239873409660058 0.01449957112697211 -0.03582831452928182 
0 0 0 0 0 
-0.01109413183492000 -0.008211794713349927 -0.008274730230441476 -0.008598531088480080 0.01548788198903192 
-0.01958326161623908 0.02618090699560799 -0.01547261979427188 -0.01511104246239051 -0.01668908735757035 
0 0 0 0 0 
0.01147923700038746 -0.008591652014311483 -0.008908837459471300 -0.009374047446660276 -0.009201119218312662 
-0.009813251998369837 -0.009574285240391450 0.01444580300394805 -0.01131351617942140 -0.009389757246575776 
0 0 0 0 0 
0.007193399456385507 -0.02801497629741437 -0.02750009219444149 0.003277737278752324 -0.02795267465356417 
0 0 0 0 0 
0 0 0 0 0 
-0.008090648017485847 0.04325569835173974 -0.1126193629720089 -0.1140435705508266 -0.1098117678633692 
0 0 0 0 0 
0 0 0 0 0 
0 0 0 0 0 
0 0 0 0 0 
0 0 0 0 0 
-0.01537938147928704 0.001720442991304179 -0.01139353600273007 -0.02985835943551407 -0.02185486333352864 
0.002528564851432661 -0.01361782530841317 -0.01393264010485003 -0.01430345805586776 0.002949941244043228 
0 0 0 0 0 
0 0 0 0 0 
0 0 0 0 0 
0 0 0 0 0 
0 0 0 0 0 
-0.02125865097695390 -0.001177964959229761 -0.03408620304387854 -0.01794688758190212 -0.02287715765706502 
-0.01067176356997863 -0.008689197829882617 -0.01004104859455509 0.01598295108674210 -0.009412537781509115 
0 0 0 0 0 
0 0 0 0 0 
-0.02562549962459261 0.01521860281577541 -0.02369258537510252 -0.02418442064281897 -0.002007889282440644 
0 0 0 0 0 
0 0 0 0 0 
0 0 0 0 0 
0 0 0 0 0 
0 0 0 0 0 
0 0 0 0 0 
-0.01850445755195107 -0.001658747482976989 -0.005716604265342260 -0.001025155152690471 -0.01631115360598118 
0 0 0 0 0 
0 0 0 0 0 
0.02294899300940307 -0.01942800130786643 -0.09645969106383370 -0.09508508197676711 -0.06221986350099343 
0 0 0 0 0 
0 0 0 0 0 
0 0 0 0 0 
-0.008332797872438204 -0.008387300308759510 -0.008216143455720252 0.009853692721446258 -0.008557017671883600 
0 0 0 0 0 
0 0 0 0 0 
0 0 0 0 0 
0 0 0 0 0 
0 0 0 0 0 
0 0 0 0 0 
0 0 0 0 0 
0 0 0 0 0 
0 0 0 0 0 
0 0 0 0 0 
0 0 0 0 0 
0 0 0 0 0 
-0.02441183057639730 -0.03699925988019841 -0.006264656972128046 -0.02313440719538106 -0.009736155196846945 
0 0 0 0 0 
0 0 0 0 0 
-0.01380767142548099 -0.01124252686065289 -0.01299162025580577 0.02067955643583576 -0.01217842094371511 
0 0 0 0 0 
0 0 0 0 0 
0 0 0 0 0 
0 0 0 0 0 
0 0 0 0 0 
0 0 0 0 0 
0 0 0 0 0 
0.01055196227353943 -0.01449983364275157 -0.01581051338535248 -0.003654010570187527 -0.01377173929540214 
0 0 0 0 0 
-0.01758196059315071 0.01235476892328067 -0.01529738079682935 -0.005504273823437140 -0.01503600355664552 
0 0 0 0 0 
-0.007402222050355130 -0.007450637857639988 -0.007298595164293596 0.008753269028805936 -0.007601401817942039 
-0.03058706252601108 -0.02864476800061104 0.009716491955615985 -0.002643945364323088 -0.02010464586106892 
-0.02412546332516094 0.01353870335101723 -0.01919853310656838 0.004617015959778032 -0.02702968722365283 
0 0 0 0 0 
0 0 0 0 0 
0 0 0 0 0 
-0.02416516104961854 -0.007484467764221230 -0.03997070172994167 -0.01150816477353874 -0.01796540944101619 
0.005405495656432231 0.001177971808800512 -0.01246559087301753 -0.01472556106066822 -0.01321932663391029 
0 0 0 0 0 
0 0 0 0 0 
0 0 0 0 0 
-0.02985400109222549 0.01683836978859531 -0.02734643036115247 -0.02589401336015799 -0.009853760525080522 
0 0 0 0 0 
-0.08164071559217818 0.007451320197905977 -0.007736909876097606 -0.02619778355306104 -0.05916478061510377 
-0.01340315030959491 -0.01246942666981338 -0.01334713768669009 -0.01255276696456352 0.01584363380174830 
0 0 0 0 0 
0 0 0 0 0 
-0.008963889093912918 -0.008771217734368330 -0.008372818687547310 -0.008582793640108463 0.01198594436412549 
-0.06144810754487053 -0.05205564571807202 -0.08070552354274600 0.02283942550160052 -0.04912987772493119 
0 0 0 0 0 
0 0 0 0 0 
0 0 0 0 0 
0 0 0 0 0 
-0.01728443373291652 -0.01403994991809847 -0.01245056809351160 0.01629297095438238 -0.01418880090741321 
-0.04520096174597673 -0.04291074531157274 -0.03859706766140925 -0.04054315740867071 0.05204336141861182 
-0.02892002834911107 -0.05017711853946774 0.003185042068276651 -0.008004355304170070 -0.04843282213628133 
-0.02761081563352162 -0.02614477883448434 -0.02395647843480126 0.03742736887922435 -0.02469707871880088 
0 0 0 0 0 
0 0 0 0 0 
-0.05787295237171969 0.005553588678306964 -0.08044113266541464 -0.08483725052585640 -0.03504709575492662 
0 0 0 0 0 
0 0 0 0 0 
0 0 0 0 0 
0.01981464564640804 -0.02164991125488092 -0.02323905457653601 -0.006694879002116906 -0.02299468078418613 
0 0 0 0 0 
0 0 0 0 0 
0.008767327239723698 -0.04985132935107566 -0.04647941835031674 0.007365391767538208 -0.04771738137456943 
0 0 0 0 0 
0 0 0 0 0 
0 0 0 0 0 
0 0 0 0 0 
0 0 0 0 0 
-0.02060032148860663 -0.01798821252409133 -0.01950949695213165 0.01031362984148324 0.0001840130023067216 
0 0 0 0 0 
0 0 0 0 0 
0 0 0 0 0 
0 0 0 0 0 
0 0 0 0 0 
0 0 0 0 0 
0 0 0 0 0 
-0.03631053245158390 -0.06728918442268135 -0.02901350983775249 -0.04972387394529592 0.001859978303633403 
0 0 0 0 0 
-0.01680223124415315 -0.01618602704166627 -0.01607041694415273 -0.01718781376151174 0.02302587618910529 
-0.002908758829613002 -0.03128164630862346 -0.02866933942724281 -0.03085785109229415 0.01512995031755473 
0 0 0 0 0 
0 0 0 0 0 
-0.02382671805564924 0.02057593377951504 -0.02276128809129686 -0.02175063781890925 -0.009224863159409288 
0 0 0 0 0 
0 0 0 0 0 
0 0 0 0 0 
-0.004816762869257862 -0.03628464416615253 -0.03834471248372611 0.004029132827378745 -0.02059517598306580 
0 0 0 0 0 
0 0 0 0 0 
0 0 0 0 0 
0 0 0 0 0 
-0.05877260792596795 -0.02011025348403831 -0.06708450246022712 0.02305708314771704 -0.07388270618789004 
0 0 0 0 0 
0 0 0 0 0 
-0.04463457008623529 -0.04045293413852927 -0.01120708864229716 -0.04068936277428442 0.02286456172413689 
0 0 0 0 0 
0 0 0 0 0 
0 0 0 0 0 
0 0 0 0 0 
0 0 0 0 0 
0 0 0 0 0 
-0.01541682828409117 0.0001260983963711820 -0.03030348042070952 -0.03000527643099670 -0.005305699542726429 
-0.01744209424231377 -0.07923922524513297 -0.1351158138658036 -0.03684895631514482 -0.1091508513558418 
0 0 0 0 0 
0 0 0 0 0 
0 0 0 0 0 
0 0 0 0 0 
0 0 0 0 0 
-0.04751410399785990 -0.05111805736154270 -0.06957982810537500 0.04618965067892068 -0.07108367746785761 
-0.05486152929025550 -0.1099095993985597 -0.08098880243770247 0.03227522194583626 -0.07521922668635610 
0 0 0 0 0 
0 0 0 0 0 
-0.01086894382831560 -0.08676031628514434 -0.009285776667989413 -0.08741864168909570 -0.1216238679015133 
0.02247531831502538 -0.04028557451771761 -0.05902786759466440 -0.04535803364174294 -0.03447550937931162 
-0.09003949994097340 -0.07971011892896092 0.01798188526987823 0.01902286775326077 -0.07544666957668653 
0 0 0 0 0 
0 0 0 0 0 
-0.006423725536271769 -0.006082648396498452 -0.005573534817781436 0.008707571279895290 -0.005745837332116530 
-0.05227235094394860 -0.04500981869665920 -0.04557237511882589 0.07295834754541900 -0.03949835188681782 
0 0 0 0 0 
0 0 0 0 0 
0 0 0 0 0 
0 0 0 0 0 
0.0001042708887506090 0.009951969045362144 -0.02759699648477969 -0.02753972748053145 -0.02869499107878424 
0 0 0 0 0 
-0.1006352984591248 -0.08521558793078145 -0.08752022087335036 -0.01266981891309345 0.06201813177349916 
0 0 0 0 0 
0 0 0 0 0 
0 0 0 0 0 
0 0 0 0 0 
0 0 0 0 0 
-0.2189044036384961 -0.07280084804247249 -0.2035062506264725 0.1358319037691903 -0.2137964125345844 
0 0 0 0 0 
0 0 0 0 0 
0.02570263160498392 -0.02338483766253599 -0.02184575599732953 -0.02174845762674377 -0.02292963959687903 
0 0 0 0 0 
0 0 0 0 0 
0 0 0 0 0 
0.03267525667520146 -0.02616889414417955 -0.02290611260962523 -0.02496623017239836 -0.02336751602728270 
-0.1190832215203228 -0.1110015887246626 -0.06251349709036551 0.1168957501942345 -0.09949826123849351 
0 0 0 0 0 
-0.01791699105998273 -0.01629972020685562 0.01184539021966356 -0.005166560724364964 -0.01647867677893480 
0 0 0 0 0 
0 0 0 0 0 
0 0 0 0 0 
0 0 0 0 0 
0 0 0 0 0 
0.01171015055220722 -0.01866733660522023 -0.01753992867018119 -0.02009033100462240 -0.005773159216477278 
0 0 0 0 0 
0 0 0 0 0 
0 0 0 0 0 
0.004836043155692973 0.01108949863947928 -0.01788265433998149 -0.03335861772853117 -0.03532878506068606 
-0.05339166978083696 -0.1588012712519701 -0.1609696280145151 0.01441540938873288 -0.1647136524875160 
-0.01329237050754639 0.005549886760210278 -0.01098539772231718 -0.01296762661875288 0.001253354652561448 
0 0 0 0 0 
0 0 0 0 0 
0.04080286681163614 -0.02583579141159367 -0.02496409003232909 -0.03235637846480101 -0.02618579431992469 
0 0 0 0 0 
0 0 0 0 0 
0 0 0 0 0 
-0.01050273430950906 -0.009970587784463992 -0.008968277025875607 -0.009420463500862857 0.01209260990120605 
0 0 0 0 0 
0.02865831287830337 -0.02613961728992699 -0.02673231767822584 -0.01838518753013722 -0.02548262768768891 
0 0 0 0 0 
0 0 0 0 0 
0 0 0 0 0 
-0.04486013404102531 -0.06151388671123916 -0.06125367159478114 -0.01718109972790036 0.02574282913264750 
0 0 0 0 0 
0 0 0 0 0 
0 0 0 0 0 
0 0 0 0 0 
0 0 0 0 0 
0 0 0 0 0 
0 0 0 0 0 
0 0 0 0 0 
0 0 0 0 0 
0 0 0 0 0 
0.1124588260299534 -0.08575030543342772 -0.1070152999637465 -0.1134716286757799 -0.1089542343081497 
0 0 0 0 0 
0 0 0 0 0 
-0.04810146737138975 -0.05657257690713934 -0.02831518535595334 -0.05669210467088404 0.03070783331318717 
-0.01420374355192119 0.01913439761908960 -0.01149681696474855 -0.01174633458649038 -0.01237617341958215 
0 0 0 0 0 
0 0 0 0 0 
0 0 0 0 0 
0 0 0 0 0 
0.03326431657850585 -0.04535146490961528 -0.04856272569537878 -0.04507327076623377 -0.01208973324597931 
0 0 0 0 0 
0.01507609715119250 -0.01097661091187505 -0.01079139777762482 -0.009760791078254954 -0.01088061137877138 
0 0 0 0 0 
0 0 0 0 0 
0 0 0 0 0 
0 0 0 0 0 
0 0 0 0 0 
0 0 0 0 0 
0 0 0 0 0 
0 0 0 0 0 
-0.02762194115985241 -0.02579995039514425 0.03989187070184633 -0.02608468667427076 -0.02446522463587274 
0 0 0 0 0 
0 0 0 0 0 
0 0 0 0 0 
0 0 0 0 0 
-0.04632237306921153 0.06235218608606977 -0.04444230694417603 -0.04192108413921940 -0.03793071523651331 
0 0 0 0 0 
0 0 0 0 0 
0.01802468480599033 -0.01639926738181667 -0.01531994358601337 -0.01525171039927599 -0.01608004708625082 
0 0 0 0 0 
-0.02071342424673550 -0.02127133403235120 -0.005351882091334647 -0.03520897827688842 -0.05247396156934104 
0 0 0 0 0 
0 0 0 0 0 
0 0 0 0 0 
0 0 0 0 0 
0 0 0 0 0 
0 0 0 0 0 
-0.01689611245710743 -0.001249120682832791 0.007995088634965663 -0.01554613190872103 -0.01573425875213011 
0 0 0 0 0 
0 0 0 0 0 
0 0 0 0 0 
0 0 0 0 0 
0 0 0 0 0 
0 0 0 0 0 
0 0 0 0 0 
0 0 0 0 0 
0 0 0 0 0 
0 0 0 0 0 
0 0 0 0 0 
0 0 0 0 0 
0 0 0 0 0 
0 0 0 0 0 
0 0 0 0 0 
0 0 0 0 0 
0.01063617992814079 -0.06572643715416338 -0.06368984109848878 -0.06299018255178802 0.01215909608552639 
0 0 0 0 0 
0 0 0 0 0 
0 0 0 0 0 
0 0 0 0 0 
0 0 0 0 0 
0 0 0 0 0 
-0.02386212313134844 -0.001152499274582292 -0.06253750742741165 -0.01470987389881297 -0.06319946299895858 
0 0 0 0 0 
0 0 0 0 0 
0 0 0 0 0 
0 0 0 0 0 
0 0 0 0 0 
-0.02237492829473110 -0.01908443446185747 -0.02012731397197968 -0.01983537742136698 0.03026310034861941 
0 0 0 0 0 
0.004340673009646839 -0.02868180235046590 -0.02634991082177998 -0.06051338700891060 -0.04215436785679886 
-0.01861966115012377 -0.01702973782605210 -0.01747540487710287 -0.01769561342816505 0.02195853135632669 
0 0 0 0 0 
-0.005643659063906572 -0.007013496100550800 -0.004737811608459714 -0.005860663658414487 0.009762059280890217 
0 0 0 0 0 
0.01103820012290857 -0.08174382450257400 -0.05641574962317661 -0.01265797402367830 -0.05153354741321380 
0 0 0 0 0 
0 0 0 0 0 
0 0 0 0 0 
0 0 0 0 0 
0 0 0 0 0 
0 0 0 0 0 
-0.01043725537217927 -0.01078524841182633 -0.001773423295533354 -0.01537509599979666 -0.02770608776832585 
0 0 0 0 0 
0 0 0 0 0 
0 0 0 0 0 
0 0 0 0 0 
0 0 0 0 0 
-0.009326956142063813 -0.007955318599333867 -0.008390041398184460 -0.008268348073943896 0.01261512912829836 
0 0 0 0 0 
0.03401008738603924 -0.02111390421745572 -0.02297288742024759 -0.02369453439110547 -0.02096234372074396 
0 0 0 0 0 
0 0 0 0 0 
0 0 0 0 0 
-0.007298182908901818 -0.007197838683251965 -0.007994390801420640 0.009943578969961786 -0.006814641943067742 
0 0 0 0 0 
0 0 0 0 0 
0 0 0 0 0 
0 0 0 0 0 
-0.03206584820735393 -0.02720122944663481 -0.02959323226241109 0.04437847401303473 -0.02703814161821103 
-0.009119529990308612 0.004433013927940065 -0.02961345075012949 -0.008402929189907782 -0.02816321109836800 
0 0 0 0 0 
-0.01487132576857573 -0.01350421568826889 -0.01245035770867629 0.01757695308428568 -0.01302873202665242 
0 0 0 0 0 
0 0 0 0 0 
0 0 0 0 0 
-0.008127313505636648 -0.007929401767525917 0.01196398195758722 -0.009369828967657673 -0.007776576092963063 
0 0 0 0 0 
0 0 0 0 0 
0 0 0 0 0 
0 0 0 0 0 
0 0 0 0 0 
0 0 0 0 0 
0 0 0 0 0 
0 0 0 0 0 
0 0 0 0 0 
0 0 0 0 0 
0.0003215732536563192 0.006163407012438203 -0.01697845296123847 -0.01700509613651077 -0.01806029786704122 
0 0 0 0 0 
0.008713358605649420 -0.05530038479546779 -0.05700036453014242 -0.05638168422374281 0.01164337809817044 
0 0 0 0 0 
0 0 0 0 0 
-0.01659410047202835 -0.01659138212167878 -0.01546143702606200 -0.01623007142208762 0.02099772365622435 
0 0 0 0 0 
0 0 0 0 0 
-0.01865541689220974 -0.01590186850605525 -0.01596695672337273 0.02438202565639704 -0.01650585535292095 
0 0 0 0 0 
0 0 0 0 0 
0 0 0 0 0 
0 0 0 0 0 
0 0 0 0 0 
0 0 0 0 0 
0 0 0 0 0 
-0.02007133900965912 0.003809889851234804 -0.01743122011866939 -0.007901579256545561 -0.004624641645151898 
-0.03814156389614614 -0.009648094069990305 -0.03452363046385212 -0.008374103255083087 -0.0001010307504467560 
0 0 0 0 0 
-0.01341055038485949 -0.01100081209513752 0.01905135978057074 -0.01325990052897917 -0.01176072581103912 
0 0 0 0 0 
0 0 0 0 0 
0 0 0 0 0 
0 0 0 0 0 
0 0 0 0 0 
-0.01898470567344655 -0.01728778215233049 -0.01564525705388158 0.02913268059106640 -0.01816388138380477 
0 0 0 0 0 
0 0 0 0 0 
-0.008591100675911460 0.01091107553162605 -0.006941717763971358 -0.006776529225192580 -0.006626119903799997 
0 0 0 0 0 
0 0 0 0 0 
-0.01178167881038861 -0.01152844139855397 -0.01100480600337738 -0.01128078637566713 0.01575371418118149 
0 0 0 0 0 
0.005202190663474841 -6.263546110224041e-05 -0.01430457065511622 -0.01422606803124290 -0.01443554192973034 
-0.004854586556979424 -0.004132882602886813 0.006334704344941832 -0.004254476096606197 -0.004311692449101236 
0.007508596809767778 -0.01475305418781752 -0.01713982177835480 -0.01606412839803719 0.002290522107419409 
0 0 0 0 0 
0 0 0 0 0 
0.02310461642838685 -0.02983116914734034 -0.02823861848293442 -0.02858084804018362 -0.01186303004445869 
0 0 0 0 0 
-0.006787971013366183 -0.04137494195519528 -0.04893536447541552 -0.08847229311512018 -0.08852761170864577 
-0.003990214366413066 -0.02630581245370689 -0.02419670274438964 0.01175963619063818 -0.02327950859934520 
0 0 0 0 0 
0 0 0 0 0 
0 0 0 0 0 
0 0 0 0 0 
0 0 0 0 0 
0 0 0 0 0 
0 0 0 0 0 
0 0 0 0 0 
0.001235284174680067 -0.03922361310456470 -0.03971432842357737 -0.03812823338352664 0.008526531629970790 
-0.006731286911619936 -0.006277767157677414 -0.006326817614357758 -0.006342287356050436 0.008211400922394573 
0.01592795851491617 -0.02249419531331925 -0.003494732871975316 -0.02398665342141092 -0.02397103586901692 
0 0 0 0 0 
0 0 0 0 0 
0 0 0 0 0 
0 0 0 0 0 
0.01502914143894277 -0.01157321115397832 -0.01117101922908995 -0.01058835207694475 -0.01120844750015148 
0 0 0 0 0 
0 0 0 0 0 
0 0 0 0 0 
-0.01290579537873873 -0.04556568781808994 -0.04581355372773979 -0.008342516679180463 -0.001011669100335042 
-0.01869068462948966 -0.01593193070857647 -0.01599714197402317 0.02442811944675138 -0.01653705938194537 
0.02372046624569279 -0.01780735220111748 -0.01534798574205292 -0.01716117030541082 -0.01771264162581147 
-0.02693466264801733 0.01529607759673660 -0.03140591686282084 -0.05116539553320025 -0.04147579279930468 
0 0 0 0 0 
0 0 0 0 0 
0 0 0 0 0 
0 0 0 0 0 
0 0 0 0 0 
0 0 0 0 0 
0 0 0 0 0 
0.02758101450426730 -0.02297868626895058 -0.02459074346210227 -0.02342803505305420 -0.02235681857283406 
0 0 0 0 0 
0 0 0 0 0 
0 0 0 0 0 
-0.02222640774665260 -0.06783236174598291 -0.06575878556961906 0.04509149240897713 -0.06844779596388022 
-0.004714101203973461 -0.004744934785276517 -0.004648106476306075 0.005574514758770036 -0.004840948733782912 
0 0 0 0 0 
0 0 0 0 0 
0.02902484159296644 -0.05908127465599845 -0.04123800135527291 0.01403017795693831 -0.04892348952883045 
0 0 0 0 0 
-0.09501157368987002 -0.1633903842933380 -0.09570290406879457 -0.1095894937273104 -0.1420006821619536 
0 0 0 0 0 
0 0 0 0 0 
-0.01222450995444735 -0.01040716113031626 0.01595164807843193 -0.01071335010375863 -0.01085742866996056 
0 0 0 0 0 
-0.008097338272304312 -0.006969514820919952 -0.007063489673032906 -0.007769033316569911 0.01125028179351380 
-0.01171950588663619 -0.01456408119370156 -0.009838441763823045 -0.01217013314706503 0.02027169074399961 
-0.04776844745975818 -0.03944228548736167 -0.02060978402328170 -0.04317822518572587 0.03678702166368340 
0 0 0 0 0 
0 0 0 0 0 
0 0 0 0 0 
0 0 0 0 0 
0 0 0 0 0 
-0.03875763898567210 -0.03958296430013763 -0.02392814059437772 0.01413247762980666 -0.01157725856689544 
-0.01380554731026296 -0.01285436892740129 -0.01348955124855931 -0.01295576774278873 0.01649395167483162 
0.02398011335302773 -0.04034433986861671 -0.03718295747497700 -0.03803055132351597 -0.009350971549164642 
-0.006328096226591994 0.007455244973049712 -0.005956049790151775 -0.005412700956016874 -0.005892780261106751 
0.001453952441268606 -0.01447667558289374 -0.01251434103608790 -0.01281546674800636 0.007840066393381308 
0 0 0 0 0 
0 0 0 0 0 
0 0 0 0 0 
-0.01382767837456922 -0.01083294323381297 -0.008985039071673607 0.01906890967039717 -0.01053802408863681 
0.03801073052452256 -0.02406785066763506 -0.02325579973067415 -0.03014223457025027 -0.02439390291030678 
0 0 0 0 0 
0 0 0 0 0 
0 0 0 0 0 
0 0 0 0 0 
0 0 0 0 0 
0 0 0 0 0 
0 0 0 0 0 
-0.003612289638130647 -0.004489069769135288 -0.003032491436293013 -0.003751185953321075 0.006248319607522029 
0 0 0 0 0 
-0.01248519815423248 -0.007700994455512359 -0.03719011564012600 -0.02588183931634524 -0.03074845391865558 
-0.03879055840591448 -0.03617227498367170 -0.03835838814329189 0.01675908478934568 -0.004735369095656623 
-0.03489694498458470 0.04111272400976587 -0.03284525620501042 -0.02984890253191599 -0.03249634980485065 
-0.005391228085867201 -0.02583103971731092 -0.02469923008347892 -0.02612273514096623 0.01218620095395327 
0 0 0 0 0 
0 0 0 0 0 
0 0 0 0 0 
-0.01027400642708955 -0.008746627941656383 0.01340645436841066 -0.009003962386372213 -0.009125052239518101 
0 0 0 0 0 
0 0 0 0 0 
0 0 0 0 0 
0 0 0 0 0 
0 0 0 0 0 
0 0 0 0 0 
0 0 0 0 0 
0 0 0 0 0 
0.02782604368573581 -0.04538677290706373 -0.04238768331138051 -0.04606689415056417 -0.01468144336359124 
-0.03977827164856248 0.01413634814897248 -0.0007479053488207955 -0.03728033215472809 -0.03704802365566306 
-0.01362148905582993 0.005214074851212946 -0.02443430989441620 -0.008746595963738635 -0.02462371337795626 
0 0 0 0 0 
0 0 0 0 0 
0 0 0 0 0 
0 0 0 0 0 
0 0 0 0 0 
0 0 0 0 0 
0 0 0 0 0 
0 0 0 0 0 
0 0 0 0 0 
0 0 0 0 0 
0 0 0 0 0 
-0.01683660669544851 -0.01367618508349776 -0.01212798297963004 0.01587083199242390 -0.01382117945253792 
0 0 0 0 0 
-0.02793731962343608 -0.02589661072388289 0.03327014248270843 -0.02173540466719427 -0.02391068459481162 
-0.01742409814327938 -0.01120463411838043 0.02820977080611085 -0.008012000159957905 -0.01250192646284710 
0 0 0 0 0 
0.03347294948125878 -0.04884592245735819 -0.02219510862675845 -0.04747587217689591 -0.04646625318865686 
0 0 0 0 0 
-0.02350861925110285 0.01573487172408414 -0.02442768497230210 -0.04933061491104805 -0.05006970646364196 
-0.01365348310161740 0.03724398358662338 -0.07076705555561998 -0.07253670029099685 -0.07105622188882796 
0 0 0 0 0 
0.02423046905475243 -0.01940564954272774 -0.01698612066828627 -0.01851380919878865 -0.01732827624320457 
-0.008973625290596591 -0.003263714154269692 -0.06740410575251238 -0.05601968488301361 -0.04115525108165217 
-0.01279106765964735 -0.01110802292326752 -0.01269288708069771 -0.01120546228212734 0.01644252307017864 
0 0 0 0 0 
0 0 0 0 0 
-0.01200104008154305 0.01581866976930714 -0.009662787257024907 -0.009790664436706554 -0.01015374908062565 
-0.02165674547882075 -0.02073192466959451 -0.02119444934656947 -0.02035738537373169 0.02676054542165975 
0 0 0 0 0 
0 0 0 0 0 
0 0 0 0 0 
0 0 0 0 0 
0 0 0 0 0 
0 0 0 0 0 
0 0 0 0 0 
0 0 0 0 0 
0 0 0 0 0 
0 0 0 0 0 
0.007545124763444750 -0.02359500305706088 -0.02480799088304806 -0.02265448299729479 0.002932504411693729 
0 0 0 0 0 
0 0 0 0 0 
0 0 0 0 0 
0 0 0 0 0 
0 0 0 0 0 
0 0 0 0 0 
0 0 0 0 0 
0 0 0 0 0 
0 0 0 0 0 
-0.01212981369244074 -0.01186909341013246 -0.01132998519911426 -0.01161412046986136 0.01621921808063534 
0 0 0 0 0 
0 0 0 0 0 
-0.03453044182534759 -0.03846978692031735 -0.06998935208348568 -0.002585053783247306 -0.02971181221112921 
-0.02717319798430191 0.01837523215408377 -0.003104316355451947 -0.02728376778204518 -0.02461298823399049 
0 0 0 0 0 
-0.01627652037094933 0.01705709638318530 -0.01575497474444225 -0.01578274252316472 -0.01572323302161032 
-0.02866101691672291 0.01603690662256406 -0.02754441607951845 -0.02759749734040563 -0.01223701226734999 
0 0 0 0 0 
0 0 0 0 0 
0 0 0 0 0 
0 0 0 0 0 
0.05131093356985433 -0.02294469458821735 -0.01729739332517328 -0.01891449890808279 -0.02910384541965186 
0 0 0 0 0 
0 0 0 0 0 
0 0 0 0 0 
0 0 0 0 0 
0.02906988540413442 -0.08873544086439375 -0.09195902246842101 -0.07730390836163215 -0.002191628249850488 
0 0 0 0 0 
0 0 0 0 0 
-0.02337742237353370 -0.02074073642901878 -0.02074622104416114 0.01345968051314981 -0.004138220420503358 
-0.04334850318838061 -0.02643355599589249 -0.002754002924297570 -0.03942345245879048 0.006645660458958566 
0 0 0 0 0 
0 0 0 0 0 
0 0 0 0 0 
0 0 0 0 0 
0 0 0 0 0 
0 0 0 0 0 
0.02097161210222488 -0.05745090066977851 -0.07799490664840500 -0.05150214192532310 -0.04737372493413641 
0 0 0 0 0 
0 0 0 0 0 
0 0 0 0 0 
0 0 0 0 0 
0 0 0 0 0 
-0.01633021953816523 -0.01590892369461903 -0.01669540257032815 0.001774873037944766 0.004528788548797204 
0 0 0 0 0 
-0.009740360349632418 -0.009756301462019739 0.01199240483438433 -0.009555248753383377 -0.01012133387412604 
0 0 0 0 0 
0.002365010519047495 0.01185374204816557 -0.03410069504588095 -0.03470145647636372 -0.03216985757526514 
0 0 0 0 0 
0 0 0 0 0 
0.004447040333048332 -0.03622555697899531 -0.03485426467416650 0.01000955398815620 -0.03464278218678544 
0 0 0 0 0 
0 0 0 0 0 
0 0 0 0 0 
-0.04550936485542406 0.008036654206819196 -0.01121054238263263 -0.03962824932622018 -0.01439776569905872 
-0.01806328342277953 -0.03849163050119649 -0.03747227358992696 -0.01168212164314396 0.003693035550374174 
0 0 0 0 0 
0 0 0 0 0 
0 0 0 0 0 
0.009284670042192343 -0.03314300082163982 -0.03028759418294665 -0.03150293366716529 0.007765087545319296 
0 0 0 0 0 
0 0 0 0 0 
0 0 0 0 0 
0 0 0 0 0 
-0.008807293091333157 0.01209031275459109 -0.008296066225426741 -0.007884007664506216 -0.008005427422970599 
0 0 0 0 0 
0 0 0 0 0 
0 0 0 0 0 
-0.01919198590612302 0.02261042678968886 -0.01806363549726247 -0.01641575550406563 -0.01787175031311869 
0 0 0 0 0 
-0.03627185385211310 -0.03288344562858116 -0.03157627524441622 0.01413327747245397 0.004074103610943866 
0 0 0 0 0 
0.04788011218774099 -0.04872748099964647 -0.04928939281311208 -0.04555931259565263 -0.02261322788240006 
0 0 0 0 0 
0 0 0 0 0 
0 0 0 0 0 
0 0 0 0 0 
-0.02506748484009415 0.02371587939740740 -0.02186387365457447 -0.01235361362763336 -0.02238291993778626 
0 0 0 0 0 
-0.01449030123319447 0.01952043025860074 -0.01172876294429956 -0.01198331453408381 -0.01262586023948195 
0 0 0 0 0 
0 0 0 0 0 
0 0 0 0 0 
0 0 0 0 0 
0 0 0 0 0 
-0.02335506801952372 -0.02165285253322570 -0.02167276513768757 -0.02186128038407567 0.02836609401519259 
0 0 0 0 0 
0 0 0 0 0 
-0.007849516016378646 -0.04782317071989105 -0.03225515437600436 -0.05167296678899743 0.01169950592483918 
0 0 0 0 0 
0 0 0 0 0 
0 0 0 0 0 
0 0 0 0 0 
0 0 0 0 0 
0.005572730662767248 -0.06346972418710295 -0.06323153074314684 -0.01843548308225192 -0.01631569886290931 
0 0 0 0 0 
0.02376308427536151 -0.01062613118176770 -0.008010756903703224 -0.008759669729397998 -0.01347855288001622 
0 0 0 0 0 
0 0 0 0 0 
0 0 0 0 0 
0 0 0 0 0 
0 0 0 0 0 
-0.01005199419094364 -0.009374742130236084 -0.009447990368216076 -0.009471091709114466 0.01226228438263901 
0.01121724788437399 -0.02147828283350162 -0.04135380785149339 -0.02729559303864187 -0.02656372763691817 
0 0 0 0 0 
0 0 0 0 0 
0 0 0 0 0 
-0.02587970543443606 -0.02296090564616918 -0.02296696676879383 0.01489801178592141 -0.004578873137906800 
0 0 0 0 0 
-0.03051593630256782 -0.02208600111499063 -0.04346541161079259 -0.01368632328135560 0.005029293337810418 
0 0 0 0 0 
0 0 0 0 0 
0 0 0 0 0 
0 0 0 0 0 
0 0 0 0 0 
0 0 0 0 0 
0.006168352943913429 0.0006118278067628222 -0.01677082830821797 -0.01831295982482538 -0.01743128625106085 
0 0 0 0 0 
0 0 0 0 0 
0 0 0 0 0 
0 0 0 0 0 
0 0 0 0 0 
0 0 0 0 0 
0 0 0 0 0 
0 0 0 0 0 
0 0 0 0 0 
0 0 0 0 0 
-0.04995416101564485 -0.05734502056665723 0.006845758277240700 -0.06061883873879158 0.001989863893145902 
0 0 0 0 0 
0 0 0 0 0 
0 0 0 0 0 
0 0 0 0 0 
0 0 0 0 0 
-0.08892112806765434 -0.08824916544570130 -0.08949767311066886 0.1323033587259579 -0.08338867044366871 
0 0 0 0 0 
-0.02262283653783780 -0.01772328639440616 -0.01470001432622202 0.03119777700510981 -0.01724078257616075 
0 0 0 0 0 
-0.01811466512004919 0.02307409460960654 -0.01288915328464351 -0.01488050906396706 -0.01290647568567277 
0 0 0 0 0 
0 0 0 0 0 
0 0 0 0 0 
0 0 0 0 0 
0 0 0 0 0 
0 0 0 0 0 
0 0 0 0 0 
0 0 0 0 0 
0 0 0 0 0 
0 0 0 0 0 
0.02097534037705316 -0.04005755154523041 -0.03356665287205801 0.009352986223316397 -0.04200829012678309 
-0.01951601156875000 -0.01589039002402544 -0.01836259014255041 0.02922885765470990 -0.01721319958324341 
0 0 0 0 0 
0 0 0 0 0 
-0.009608131897807630 -0.009255763741016691 -0.009189653648286293 -0.009828622119042925 0.01316704027415986 
0 0 0 0 0 
0 0 0 0 0 
0 0 0 0 0 
0 0 0 0 0 
0 0 0 0 0 
0 0 0 0 0 
0 0 0 0 0 
0 0 0 0 0 
0 0 0 0 0 
0 0 0 0 0 
0 0 0 0 0 
0 0 0 0 0 
0 0 0 0 0 
0 0 0 0 0 
0 0 0 0 0 
0 0 0 0 0 
0 0 0 0 0 
0 0 0 0 0 
-0.01713116082572665 -0.01650289347593852 -0.01638502013252339 -0.01752429171533733 0.02347664321582865 
0 0 0 0 0 
0 0 0 0 0 
0 0 0 0 0 
0.01490487567869856 -0.008004940684298082 -0.01026132444758751 -0.008548761283866006 -0.008214808692858361 
0 0 0 0 0 
0.008430857893280071 -0.01789087288871052 -0.01752160155671962 -0.02072458297128953 0.001939359135689285 
0 0 0 0 0 
0.02168503361335499 -0.01164635060056226 -0.01492915273902546 -0.01243755263642486 -0.01195168658041895 
0 0 0 0 0 
0 0 0 0 0 
0 0 0 0 0 
-0.02517221668485654 -0.01935897091519111 0.03422122305477539 -0.02326425249177096 -0.02164327871204105 
0 0 0 0 0 
0 0 0 0 0 
-0.01445998218384955 -0.01283940046624689 -0.01326371436061616 -0.01317247682573845 0.01871553085930556 
0 0 0 0 0 
0 0 0 0 0 
-0.008167733520810806 -0.006953482727513248 0.01065799866071408 -0.007158061066555628 -0.007254326302477806 
0 0 0 0 0 
0 0 0 0 0 
0 0 0 0 0 
0.05729158846724957 -0.04407469049000075 -0.04062691413390349 -0.03860396530109612 -0.04300923661212119 
0 0 0 0 0 
0 0 0 0 0 
0 0 0 0 0 
0 0 0 0 0 
0 0 0 0 0 
0 0 0 0 0 
0 0 0 0 0 
0 0 0 0 0 
0 0 0 0 0 
0 0 0 0 0 
0.04439248480186816 -0.02797841169523401 -0.02424017459994706 -0.02579219490305425 -0.03003336008707858 
0 0 0 0 0 
0.03490820299968069 -0.02969724391821709 -0.02836703186583534 -0.02797858718340947 -0.02921384566781917 
0 0 0 0 0 
0 0 0 0 0 
-0.01784623306731190 0.02404133236175635 -0.01444512669037707 -0.01475863204308416 -0.01554999036134097 
-0.06481160643208040 -0.06163457477073780 -0.05971566389130108 0.03886232366075607 -0.02260710087636308 
0 0 0 0 0 
0 0 0 0 0 
0 0 0 0 0 
0 0 0 0 0 
0 0 0 0 0 
0 0 0 0 0 
0 0 0 0 0 
0 0 0 0 0 
0 0 0 0 0 
0 0 0 0 0 
0 0 0 0 0 
0 0 0 0 0 
0 0 0 0 0 
0 0 0 0 0 
0 0 0 0 0 
0 0 0 0 0 
0 0 0 0 0 
0 0 0 0 0 
0 0 0 0 0 
0 0 0 0 0 
0 0 0 0 0 
-0.2000055411118605 -0.1751580731942385 0.2166045648988543 -0.1361047109919753 -0.1770396247551715 
0 0 0 0 0 
0 0 0 0 0 
0 0 0 0 0 
0 0 0 0 0 
-0.02391586501567091 -0.02163846501845570 -0.02282259870422755 0.01761036785253099 -0.008423906915403460 
0 0 0 0 0 
0 0 0 0 0 
0 0 0 0 0 
0 0 0 0 0 
-0.01581453984786802 -0.01348030626158686 -0.01353548273994387 0.02066909137130294 -0.01399231701495332 
-0.06995569228794374 -0.06363888414146773 -0.02299560856458983 0.01584501072690856 -0.02869573782380300 
0 0 0 0 0 
-0.006766075249929664 -0.006406820549412613 -0.005870573979581803 0.009171637578726919 -0.006052059282956074 
0 0 0 0 0 
0 0 0 0 0 
0 0 0 0 0 
-0.02299843130951253 -0.02177729582885899 -0.01995455081854540 0.03117513019860186 -0.02057143389021720 
0 0 0 0 0 
-0.01813904148137956 -0.01659015802453120 -0.01702432130283770 -0.01723884572463389 0.02139172716040194 
0 0 0 0 0 
0 0 0 0 0 
-0.01080179639330225 -0.008795073575613687 -0.01016339631049895 0.01617769942812206 -0.009527227247251505 
0 0 0 0 0 
0 0 0 0 0 
0 0 0 0 0 
0 0 0 0 0 
0 0 0 0 0 
0.02545631662907753 -0.01627649873728223 -0.01907619621128087 -0.01694813932721680 -0.01549855288828887 
0.04895624069698343 -0.04870668096716499 -0.04309587481913593 -0.02928952549621421 -0.04425068675848992 
0.01079870031559051 -0.002276609657637582 -0.01983877938840029 -0.01848385764553467 -0.01871292762721701 
0 0 0 0 0 
0 0 0 0 0 
0 0 0 0 0 
0 0 0 0 0 
0 0 0 0 0 
0 0 0 0 0 
0 0 0 0 0 
-0.008193593525547379 -0.007893102079468244 -0.007836724915464832 -0.008381622506453882 0.01122854859700614 
0 0 0 0 0 
0.01962261726112792 -0.01455582857127544 -0.01466375287785833 -0.01553020680799951 -0.01488883373614389 
0 0 0 0 0 
0 0 0 0 0 
0 0 0 0 0 
0 0 0 0 0 
-0.01451911244499009 -0.01451831595988443 -0.01229595168679724 0.02163380310210672 -0.01589606459411732 
0 0 0 0 0 
0 0 0 0 0 
0 0 0 0 0 
0 0 0 0 0 
-0.02749728205983019 -0.02224342664162871 0.03427691929300316 -0.02640721450505577 -0.02323656264705811 
0 0 0 0 0 
0 0 0 0 0 
0 0 0 0 0 
0 0 0 0 0 
0 0 0 0 0 
-0.01750887648206819 -0.01718010414156410 -0.01686837428811797 -0.01651196427308568 0.02246776404554616 
-0.01947046167651677 0.002797752020463522 -0.01484876587829312 0.002600072320097037 -0.01650440274173670 
0 0 0 0 0 
0 0 0 0 0 
0 0 0 0 0 
0.01095252058383768 -0.03079691872618651 -0.03321087533248152 -0.03383969026623420 0.009016205875506356 
0 0 0 0 0 
0 0 0 0 0 
-0.03221696862192760 -0.02944972007330015 0.03566603135915009 -0.03087558977189955 -0.03047377001659721 
0 0 0 0 0 
0 0 0 0 0 
-0.001197869749501518 0.009742812625833663 -0.01025040439106312 -0.01181717596898925 -0.01316001412004668 
0 0 0 0 0 
0 0 0 0 0 
0 0 0 0 0 
-0.007191534739369391 -0.008937074383906795 -0.006037242219100437 -0.007468056772740799 0.01243948077857660 
0 0 0 0 0 
0 0 0 0 0 
-0.01324612130430928 -0.01276033370290326 -0.01266919191623131 -0.01355009717058180 0.01815256228216896 
0 0 0 0 0 
-0.01518164525452193 -0.01412402367023092 -0.01511820018742397 -0.01421842258101522 0.01794596213313413 
0 0 0 0 0 
0 0 0 0 0 
0 0 0 0 0 
0 0 0 0 0 
0 0 0 0 0 
0 0 0 0 0 
0 0 0 0 0 
0 0 0 0 0 
0 0 0 0 0 
0 0 0 0 0 
0 0 0 0 0 
0.04149976392920229 -0.04919963621995980 -0.04596182138920086 -0.04844296799233201 -0.02726611198718977 
0 0 0 0 0 
0 0 0 0 0 
0 0 0 0 0 
0 0 0 0 0 
0 0 0 0 0 
-0.03492313326456126 -0.03228686847727386 -0.03012315588498506 -0.03156174333555812 0.04226247363435868 
-0.04520781187024918 0.01510359898631426 0.006414903825206641 -0.03697032458878555 -0.04161149586287853 
0 0 0 0 0 
0 0 0 0 0 
0 0 0 0 0 
0 0 0 0 0 
0 0 0 0 0 
0 0 0 0 0 
0 0 0 0 0 
0 0 0 0 0 
0 0 0 0 0 
0 0 0 0 0 
0 0 0 0 0 
0 0 0 0 0 
0 0 0 0 0 
0 0 0 0 0 
0 0 0 0 0 
0 0 0 0 0 
-0.004893906171005608 -0.02950977735930196 -0.04280686351007988 -0.03494901404769363 -0.003693237454655339 
0 0 0 0 0 
0 0 0 0 0 
0 0 0 0 0 
0 0 0 0 0 
0 0 0 0 0 
0 0 0 0 0 
0 0 0 0 0 
0 0 0 0 0 
0 0 0 0 0 
0 0 0 0 0 
0 0 0 0 0 
0 0 0 0 0 
0 0 0 0 0 
0 0 0 0 0 
0 0 0 0 0 
0 0 0 0 0 
0 0 0 0 0 
0 0 0 0 0 
0 0 0 0 0 
0 0 0 0 0 
0 0 0 0 0 
0 0 0 0 0 
0.05064140340659463 -0.03882624727165895 -0.03640208186440194 -0.03593533052200694 -0.03525325882593359 
-0.05835539193851525 -0.05057549095049831 0.06021611079795149 -0.03628181581399884 -0.05213194056341684 
-0.01475444420262284 -0.01848147907406538 -0.04142537412343159 0.008036500237193342 -0.03881413764407100 
-0.02488281203444594 -0.05193387595023320 0.04256691791276784 -0.04966028388097987 -0.05248403656668378 
0 0 0 0 0 
0 0 0 0 0 
-0.006627168832978735 -0.008235724773851713 -0.005563461058254465 -0.006881990406899353 0.01146327485048757 
0 0 0 0 0 
0 0 0 0 0 
0 0 0 0 0 
0 0 0 0 0 
0 0 0 0 0 
0 0 0 0 0 
0 0 0 0 0 
0.01161382611113355 -0.006601628982549295 -0.007992469128410536 -0.006444459179123853 -0.006712708812163183 
0 0 0 0 0 
0 0 0 0 0 
0 0 0 0 0 
0 0 0 0 0 
0 0 0 0 0 
0 0 0 0 0 
-0.02553812977590161 -0.02025954813092772 -0.02034286899598984 -0.01997761478815949 0.03225156704359034 
0 0 0 0 0 
-0.02614618548307769 -0.02382537734908015 0.03175664857392685 -0.02087650184154050 -0.02255323630589642 
0 0 0 0 0 
0 0 0 0 0 
0 0 0 0 0 
0 0 0 0 0 
0 0 0 0 0 
0 0 0 0 0 
0 0 0 0 0 
0 0 0 0 0 
0 0 0 0 0 
0 0 0 0 0 
0 0 0 0 0 
0 0 0 0 0 
-0.01621638622329681 -0.01476690537891883 -0.01336389066612499 0.02488459965146827 -0.01551525322017041 
0 0 0 0 0 
0 0 0 0 0 
0 0 0 0 0 
0.01143943449375045 -0.009012460794971400 -0.007377865185593371 -0.007608803018584905 -0.007716892598695287 
0 0 0 0 0 
-0.04923348856932922 -0.06874929988396473 -0.07246059185881924 0.07317569182265647 -0.07100839654301952 
0 0 0 0 0 
0 0 0 0 0 
0 0 0 0 0 
0 0 0 0 0 
0 0 0 0 0 
0 0 0 0 0 
0 0 0 0 0 
0 0 0 0 0 
0 0 0 0 0 
0 0 0 0 0 
0 0 0 0 0 
-0.01205746280643529 -0.01097114253658701 -0.01102574214639208 -0.01078819612269515 0.01375132758267346 
0 0 0 0 0 
0 0 0 0 0 
0 0 0 0 0 
0 0 0 0 0 
0 0 0 0 0 
0 0 0 0 0 
0 0 0 0 0 
-0.01641369373986549 -0.01334391334166169 -0.01502811547598533 0.02377659873370029 -0.01369074043995222 
-0.05069824987133916 0.04205439154626668 -0.03349795224648525 -0.06072206677897817 -0.05850498787059270 
-0.02164886658345092 -0.01931638446450458 0.02987484659276827 -0.02297676648006190 -0.02016802663486215 
0.01720063136008413 -0.01324536997144651 -0.01278506722799890 -0.01211821324100331 -0.01282790333381307 
0.002926732623990124 0.001833987970278061 -0.02157320223189340 -0.02274732559912676 -0.02190868906367853 
0 0 0 0 0 
-0.02060363878814991 0.001350352833796152 -0.04115727398308289 -0.06857529488030313 -0.05807930763314093 
0 0 0 0 0 
0.02073186386140652 -0.01113443305821609 -0.01427293900808183 -0.01189085765901860 -0.01142634793735557 
-0.01329963620877473 -0.01082887278430823 -0.01251361057490884 0.01991867919509542 -0.01173033186825647 
0 0 0 0 0 
-0.04284002866302927 -0.04112057520098039 -0.02249339618611762 0.01820042634863704 -0.02631195958361575 
0 0 0 0 0 
-0.009366688165679999 -0.008869350103731464 -0.008126991466858045 0.01269685393603337 -0.008378232574969917 
0.02098892264187423 -0.01623553812282147 -0.01603269475367626 -0.01559784965515911 -0.01605078278434259 
-0.06800477752250354 -0.05600724294438600 0.008761346817908624 -0.009535952868385227 -0.01137914693399221 
0 0 0 0 0 
-0.02681390316858233 0.03683015398896088 -0.02538715215826944 -0.02847374811973311 -0.02494050383907287 
-0.006370290339697050 -0.005423255268241261 0.008312531957104198 -0.005582812801991894 -0.005657893300257564 
0 0 0 0 0 
0 0 0 0 0 
0 0 0 0 0 
0 0 0 0 0 
0 0 0 0 0 
-0.02883560604307486 -0.02362116382211817 -0.02337810042939830 0.009114898933022508 0.005477545652715541 
0 0 0 0 0 
0 0 0 0 0 
-0.01861255307364554 -0.01756830296684692 -0.02235208257886711 0.02611827972803940 -0.01858205840761685 
0.03811067693362821 -0.003948739270675124 -0.04957645258661955 -0.05613459112276029 -0.06013607885089928 
0 0 0 0 0 
-0.03144128243974990 -0.05467856243598501 0.04841133321974202 -0.05583315943772056 -0.05488044188147481 
0 0 0 0 0 
-0.03320183856863503 -0.03320001719215621 -0.02811798617164412 0.04947148394526212 -0.03635060838120249 
0 0 0 0 0 
0 0 0 0 0 
0 0 0 0 0 
0 0 0 0 0 
0 0 0 0 0 
0 0 0 0 0 
0 0 0 0 0 
-0.008676654483896524 -0.03686524601020953 -0.005340875679204179 -0.03708260610896666 -0.01362914167859067 
0 0 0 0 0 
0 0 0 0 0 
0.02236886871116895 -0.09815725344207812 -0.03857258318430745 -0.05232916617943671 -0.1000054494428927 
0 0 0 0 0 
0 0 0 0 0 
0 0 0 0 0 
0 0 0 0 0 
-0.02094567881696521 -0.01854616056360434 -0.02135823898392844 0.02347521348257241 -0.02131917881423773 
0 0 0 0 0 
-0.006337594338636534 -0.007875864342190174 -0.005320365331657071 -0.006581281470342801 0.01096238644670692 
0 0 0 0 0 
0 0 0 0 0 
-0.05647866126789572 0.06252608899333614 -0.05225328268836448 -0.05884011927032263 -0.05233668992292133 
0 0 0 0 0 
0 0 0 0 0 
0 0 0 0 0 
0.02117139307541228 -0.01353676408411884 -0.01586520368431452 -0.01409535106047126 -0.01288976563574117 
0 0 0 0 0 
0 0 0 0 0 
0 0 0 0 0 
-0.02482207390806460 0.04830623913402663 -0.05203923687996837 -0.05626493489910917 -0.05208936816750901 
0 0 0 0 0 
0 0 0 0 0 
0 0 0 0 0 
0 0 0 0 0 
-0.01822733910063301 0.03588319618999858 -0.01366516423537804 -0.01785277704476560 -0.02084129896054133 
0.06794628841474759 -0.1001952214861186 -0.04144243838656996 -0.1058026238751614 -0.07890239694013017 
0 0 0 0 0 
0 0 0 0 0 
0 0 0 0 0 
0 0 0 0 0 
0.02045151144841407 -0.01307647941043414 -0.01532574609641557 -0.01361607299792812 -0.01245148056756304 
0 0 0 0 0 
0 0 0 0 0 
0 0 0 0 0 
0 0 0 0 0 
0 0 0 0 0 
0 0 0 0 0 
0 0 0 0 0 
-0.02834410232771819 -0.02816406355632602 0.03699605042542922 -0.02930303140149129 -0.02873594023764560 
0 0 0 0 0 
0 0 0 0 0 
0 0 0 0 0 
0 0 0 0 0 
0 0 0 0 0 
-0.05268310560460822 -0.05184035280710290 -0.04985457829408535 0.07609106109714212 -0.05027202233177691 
0 0 0 0 0 
0 0 0 0 0 
0.01709146158687161 -0.01335072961746540 -0.01227970225012985 -0.01379134773167425 -0.01238982267341046 
0 0 0 0 0 
0 0 0 0 0 
-0.008512681243609758 -0.008060687933189228 -0.007386013775966950 0.01153921945967520 -0.007614347999421091 
0 0 0 0 0 
-0.02126457338108703 0.006284745040072483 -0.01776220804343768 -0.01953380253422238 0.001653979758549077 
0 0 0 0 0 
0 0 0 0 0 
0 0 0 0 0 
0 0 0 0 0 
0 0 0 0 0 
0 0 0 0 0 
0 0 0 0 0 
0 0 0 0 0 
0 0 0 0 0 
0 0 0 0 0 
0 0 0 0 0 
0 0 0 0 0 
0 0 0 0 0 
0 0 0 0 0 
0 0 0 0 0 
0 0 0 0 0 
0 0 0 0 0 
0 0 0 0 0 
-0.05052304693229933 0.03578708318651153 -0.04917483216306957 -0.02696329610699632 -0.05060655555925101 
0 0 0 0 0 
0 0 0 0 0 
0 0 0 0 0 
0 0 0 0 0 
-0.03698340557279388 -0.03061711921157251 0.05149784581178039 -0.03555640845022207 -0.03253429256774595 
0 0 0 0 0 
0 0 0 0 0 
0 0 0 0 0 
0 0 0 0 0 
0 0 0 0 0 
0 0 0 0 0 
0 0 0 0 0 
0.02400141043121815 -0.06014917803973467 -0.03252977081636061 -0.05862705728302866 -0.03276380942070594 
-0.02038590480218117 -0.01672276690234488 0.02896072090205174 -0.02015689603428558 -0.01787794161372225 
0 0 0 0 0 
0 0 0 0 0 
0 0 0 0 0 
0 0 0 0 0 
-0.02264026426629602 -0.02020096743910214 0.03124294840878038 -0.02402897459265747 -0.02109161008419824 
0 0 0 0 0 
0 0 0 0 0 
0 0 0 0 0 
0 0 0 0 0 
0 0 0 0 0 
0 0 0 0 0 
0 0 0 0 0 
-0.09980401915289537 0.07349879491344127 -0.08263250385320167 -0.09016211641925768 -0.02348394989035667 
0 0 0 0 0 
-0.04736371460435658 -0.01218478640994466 -0.01266815020187592 -0.01053460624644722 -0.03125030591736574 
0 0 0 0 0 
0 0 0 0 0 
0 0 0 0 0 
0 0 0 0 0 
-0.01363180553948210 -0.01372096726219921 -0.01344096803827729 0.01611987055018556 -0.01399861159321480 
0 0 0 0 0 
0 0 0 0 0 
0 0 0 0 0 
0 0 0 0 0 
0 0 0 0 0 
-0.04474401897354757 -0.04179158265367541 -0.04196243294258868 0.05739241205491462 -0.04594044065790037 
0 0 0 0 0 
0 0 0 0 0 
0 0 0 0 0 
-0.01088106320320574 0.01533949939916754 -0.008907731197707729 -0.01020631567167888 -0.009609146597520365 
0 0 0 0 0 
0 0 0 0 0 
0 0 0 0 0 
0 0 0 0 0 
0 0 0 0 0 
0 0 0 0 0 
0 0 0 0 0 
-0.02195935461669582 -0.02084673061735053 -0.01875107659665956 -0.01969651831350166 0.02528350248958773 
0 0 0 0 0 
0 0 0 0 0 
0 0 0 0 0 
0 0 0 0 0 
0 0 0 0 0 
0 0 0 0 0 
-0.04663250603345918 -0.04435418894651681 -0.04043819187369554 -0.04258739737457203 0.05501315499142843 
-0.02898914518416837 0.03856941027353867 -0.05379169209551808 -0.05924248605716382 -0.05452904854473110 
0 0 0 0 0 
-0.01027308061982552 -0.008762304452014983 -0.009241125440539559 -0.009107087570973546 0.01389480518516108 
0 0 0 0 0 
0 0 0 0 0 
0.001594856433721194 -0.006567615631314029 -0.03967276255194260 -0.03610072139462082 -0.05020471249697875 
0 0 0 0 0 
0 0 0 0 0 
0 0 0 0 0 
0 0 0 0 0 
0 0 0 0 0 
0.01095530027849614 -0.06562913973847266 -0.05962374243703170 0.02451452381055987 -0.06664399838573443 
0 0 0 0 0 
0 0 0 0 0 
0 0 0 0 0 
0 0 0 0 0 
0 0 0 0 0 
0 0 0 0 0 
0 0 0 0 0 
-0.03243310814491866 -0.03077932458800308 0.01609172803372231 -0.03189751695579953 -0.006032802246622539 
0 0 0 0 0 
0 0 0 0 0 
0 0 0 0 0 
-0.02214772152443243 -0.01808591397295538 -0.01882797728633086 -0.02007337784304595 0.03336790935740876 
0 0 0 0 0 
0 0 0 0 0 
0 0 0 0 0 
-0.005811230775836555 -0.005502674944739298 -0.005042104753760416 0.007877314483440160 -0.005197978423705420 
0 0 0 0 0 
0 0 0 0 0 
0 0 0 0 0 
0 0 0 0 0 
0 0 0 0 0 
0 0 0 0 0 
-0.02669642101909020 -0.02549842409149680 -0.006823308503181011 0.01332841214619869 -0.02626070188881558 
0 0 0 0 0 
0.02513086779776628 -0.01864178456134479 -0.01878000422107759 -0.01988967980010285 -0.01906826736243681 
-0.02579652580068003 -0.02266057830858060 0.01021396639832836 -0.02443973891451814 0.0009494328325185628 
0 0 0 0 0 
-0.01396762653117733 0.01943133112952881 -0.01229956060004671 -0.01280108407430849 -0.01251623383622194 
0 0 0 0 0 
0 0 0 0 0 
-0.03602269677212801 0.04982037221812261 -0.02981542877582138 -0.03495522175195120 -0.03588764136849149 
0.01422974843065921 -0.03811472477912262 -0.02007494600663549 -0.02367974234195788 0.007138130500756387 
-0.001658089259123094 -0.03411216792832233 -0.03367348016691464 0.01710048206108171 -0.03278793498663025 
0 0 0 0 0 
0 0 0 0 0 
0.005849470566811679 -0.01149710229073494 -0.01241604431482747 0.001071946528341787 -0.01132186511410229 
0 0 0 0 0 
0 0 0 0 0 
0 0 0 0 0 
-0.003218648844592198 -0.003001792714227738 -0.003025246802248912 -0.003032643852304723 0.003926383830961695 
0 0 0 0 0 
0 0 0 0 0 
0 0 0 0 0 
0 0 0 0 0 
0 0 0 0 0 
0 0 0 0 0 
0 0 0 0 0 
0 0 0 0 0 
0 0 0 0 0 
0 0 0 0 0 
0.01591291053718502 -0.01180401140005693 -0.01189153233636155 -0.01259418090211850 -0.01207406107418830 
0.02917622564553650 -0.02367030919495509 -0.02389103078934943 -0.02426194970400756 -0.02259969910738400 
-0.02981881143391766 0.01554800366567908 -0.02548183400668079 -0.02867371661491777 0.001404960697704433 
0 0 0 0 0 
0 0 0 0 0 
0 0 0 0 0 
0 0 0 0 0 
0 0 0 0 0 
0 0 0 0 0 
0 0 0 0 0 
0 0 0 0 0 
0.03781806429987387 -0.02031089477305151 -0.02603600567533325 -0.02169072797967450 -0.02084339179035721 
0 0 0 0 0 
0 0 0 0 0 
0 0 0 0 0 
0 0 0 0 0 
0 0 0 0 0 
0 0 0 0 0 
0.03070136614276481 -0.02361870645524290 -0.02177111508766511 -0.02068705904269089 -0.02304775196631810 
0 0 0 0 0 
0 0 0 0 0 
-0.003855130212983378 -0.04135530830396521 -0.02032634190527291 -0.07113956136795024 -0.05438692999622952 
0 0 0 0 0 
0 0 0 0 0 
0 0 0 0 0 
0 0 0 0 0 
0 0 0 0 0 
0 0 0 0 0 
0 0 0 0 0 
0 0 0 0 0 
0 0 0 0 0 
0 0 0 0 0 
-0.006605864941110283 0.002630637365501827 -0.02204523843926231 -0.02162891550645165 -0.01134403959561601 
-0.005455746032199870 -0.02987452325007117 -0.03030921271517855 -0.02860592257650342 0.01274318540253848 
0 0 0 0 0 
-0.03887466367497365 0.03113719043774252 -0.04458412337326893 -0.04464874865017442 -0.03023152153181982 
0 0 0 0 0 
0 0 0 0 0 
0 0 0 0 0 
-0.3366951894019023 0.3894944413384574 -0.3012934048690207 -0.2929730387050480 -0.3100187391370696 
0 0 0 0 0 
0 0 0 0 0 
0 0 0 0 0 
0 0 0 0 0 
0 0 0 0 0 
-0.05109065256604975 -0.04746614612451217 -0.02031877146724896 -0.04737299798599458 0.03344020646334453 
0 0 0 0 0 
0.01125798928411920 -0.01496287755808650 -0.01361898643881034 -0.01322305719666140 -0.002857698926780656 
0 0 0 0 0 
0 0 0 0 0 
0 0 0 0 0 
0 0 0 0 0 
0 0 0 0 0 
0 0 0 0 0 
0 0 0 0 0 
-0.01682009256311811 -0.01460690997296691 -0.01669098634073110 -0.01473504150028917 0.02162171035058338 
0 0 0 0 0 
0 0 0 0 0 
-0.03363082878002879 -0.03192584550612101 0.001223686966994200 -0.03212161620207815 0.01299408510314638 
0 0 0 0 0 
-0.01555589067410741 0.02620798217863980 -0.01311943315993237 -0.01509468476204979 -0.01802410983354575 
0 0 0 0 0 
0 0 0 0 0 
0 0 0 0 0 
0 0 0 0 0 
0 0 0 0 0 
0 0 0 0 0 
0 0 0 0 0 
0 0 0 0 0 
-0.02244063040693907 -0.06403572506395547 -0.03121065926907139 -0.04047882572307445 -0.01070001613703538 
0 0 0 0 0 
0 0 0 0 0 
0.001657725534509025 -0.02686785337346771 -0.02392111992362285 0.01023081017502384 -0.02613499328859149 
0 0 0 0 0 
0 0 0 0 0 
0 0 0 0 0 
0 0 0 0 0 
0 0 0 0 0 
0 0 0 0 0 
-0.02716225347484564 -0.02228147525508169 0.03858736953738858 -0.02685712136214801 -0.02382063422902170 
0 0 0 0 0 
0 0 0 0 0 
0 0 0 0 0 
-0.01574203332242916 -0.01516471076639393 -0.01505639550867477 -0.01610328610776486 0.02157297474245614 
0 0 0 0 0 
0 0 0 0 0 
0 0 0 0 0 
0 0 0 0 0 
0 0 0 0 0 
-0.05303808323942807 -0.05209961016039521 -0.04580181808060795 0.07040232276100854 -0.05390413822456689 
0 0 0 0 0 
0 0 0 0 0 
0 0 0 0 0 
0 0 0 0 0 
-0.01896518636924462 -0.01764398632024201 -0.01888592964169306 -0.01776191115026296 0.02241842110814182 
0 0 0 0 0 
0 0 0 0 0 
0 0 0 0 0 
0.02237162941825716 -0.01863856942781493 -0.01994614809286533 -0.01900304711865387 -0.01813415746564611 
0 0 0 0 0 
0 0 0 0 0 
0 0 0 0 0 
0 0 0 0 0 
0 0 0 0 0 
0 0 0 0 0 
0 0 0 0 0 
0.01335429203311320 -0.009903957176052840 -0.009275126665345482 -0.009599380270093367 -0.009380127168980951 
0 0 0 0 0 
0 0 0 0 0 
0 0 0 0 0 
0 0 0 0 0 
0 0 0 0 0 
0 0 0 0 0 
0 0 0 0 0 
0 0 0 0 0 
0 0 0 0 0 
-0.05501205703780564 0.01311771827876396 -0.05089575586952302 -0.05352377208443372 -0.003438300587601995 
0 0 0 0 0 
0 0 0 0 0 
-0.01223796017037603 -0.003551960278042738 -0.01137890031095728 -0.001813624069392521 -0.0002478627776566057 
0 0 0 0 0 
0 0 0 0 0 
0 0 0 0 0 
0 0 0 0 0 
0 0 0 0 0 
0 0 0 0 0 
0 0 0 0 0 
0 0 0 0 0 
0 0 0 0 0 
-0.005507822166069571 -0.03315348820676511 -0.03040980622952461 -0.01719408377971637 0.001540949700185313 
0 0 0 0 0 
0 0 0 0 0 
-0.02065614231384109 0.006805015987454823 -0.01820943688421438 0.0005305664084990325 -0.01811325749548224 
0 0 0 0 0 
0 0 0 0 0 
0 0 0 0 0 
-0.03641779568874899 0.02509125969167629 -0.03060880872891181 -0.03065981766244516 -0.01099462123984582 
0 0 0 0 0 
0 0 0 0 0 
0.01300650703014653 -0.01015983084562712 -0.009344784987089813 -0.01049513877531696 -0.009428586015590625 
0 0 0 0 0 
-0.03377772393992656 0.03123009958730289 -0.03011536388343863 -0.03323247545581348 -0.01298303119533808 
0 0 0 0 0 
0 0 0 0 0 
0 0 0 0 0 
0.01572406995167243 -0.05969461578593635 -0.06441078626664576 0.02008058165374532 -0.05899965024200641 
0 0 0 0 0 
0 0 0 0 0 
0 0 0 0 0 
0 0 0 0 0 
0 0 0 0 0 
0 0 0 0 0 
-0.02884722102296253 -0.02535760416163574 -0.02478560336581818 0.03809718287658611 -0.02560213246483030 
0 0 0 0 0 
0 0 0 0 0 
0 0 0 0 0 
0 0 0 0 0 
-0.007105161304975872 -0.006844586968636057 -0.006795698914461492 -0.007268212624910820 0.009736954701711218 
0 0 0 0 0 
-0.01927118825597692 0.02126334348011681 -0.01550029997365175 -0.01517537567303843 -0.01585336390461522 
0 0 0 0 0 
0 0 0 0 0 
0 0 0 0 0 
0 0 0 0 0 
0 0 0 0 0 
-0.007821989719543853 -0.009720554302689434 -0.006566504686917584 -0.008122753406384946 0.01353000357960054 
-0.08423176442214093 0.09740896229429234 -0.07989364655052117 -0.08694195343360833 -0.08031647990675030 
0 0 0 0 0 
0 0 0 0 0 
0 0 0 0 0 
0 0 0 0 0 
0 0 0 0 0 
0 0 0 0 0 
0 0 0 0 0 
0 0 0 0 0 
-0.04596267568549967 0.03722626242084749 -0.04125851407306261 -0.02468487263726381 -0.04098697386590009 
0 0 0 0 0 
0 0 0 0 0 
-0.01979148528610094 -0.01703486323416818 -0.01726455623207819 -0.01898904348581262 0.02749789858012858 
0 0 0 0 0 
0 0 0 0 0 
0 0 0 0 0 
0 0 0 0 0 
0 0 0 0 0 
0 0 0 0 0 
0 0 0 0 0 
0 0 0 0 0 
0 0 0 0 0 
0 0 0 0 0 
-0.02260752125280488 0.02965578326219524 -0.02161723939123018 -0.02303744457549353 -0.02072438267519796 
0 0 0 0 0 
0 0 0 0 0 
0 0 0 0 0 
-0.02430039024419986 -0.02114073842941267 -0.02539080375709070 0.04008990468912672 -0.02081668866363156 
0 0 0 0 0 
0 0 0 0 0 
0 0 0 0 0 
0 0 0 0 0 
-0.006927178444234169 -0.008608553148996556 -0.005815316991215729 -0.007193535701530015 0.01198221328683690 
-0.08726742886329533 -0.08700534214944758 -0.08066293830435282 -0.08485912484427434 0.1153108005460330 
-0.05876247207690694 -0.01181260086295903 -0.05768438448129925 0.001828680720387611 -0.01746972812998133 
0 0 0 0 0 
-0.006286785650808611 -0.005952979535332787 -0.005454719153061288 0.008521944760362640 -0.005623348551780712 
0 0 0 0 0 
0 0 0 0 0 
0.004729451068613068 0.002041876025389354 -0.01779137017818911 -0.01857703630435673 -0.01838072348912732 
0 0 0 0 0 
0 0 0 0 0 
-0.02353194093393689 -0.002857877086304883 -0.02097077040142830 -0.02123928440108314 0.01082016863157866 
0.07555740359319994 -0.06941704392318160 -0.06886106753158945 -0.07217478167313748 -0.04780555133956336 
0 0 0 0 0 
0 0 0 0 0 
0 0 0 0 0 
0 0 0 0 0 
0.01756474994919510 -0.01123071473907544 -0.01316249406051929 -0.01169414388280533 -0.01069393541979347 
0.01568984994928239 -0.03516510435398521 -0.03756928234560911 0.004424691918503225 -0.03415722098360811 
0 0 0 0 0 
0 0 0 0 0 
0 0 0 0 0 
-0.02368196390548254 -0.02154833116422204 -0.02165556981047912 -0.02118900761166567 0.02700886983383679 
0 0 0 0 0 
-0.009123465766683340 -0.007428537787689390 -0.008584257186107315 0.01366408711496200 -0.008046932980111363 
0 0 0 0 0 
0 0 0 0 0 
0 0 0 0 0 
0 0 0 0 0 
0 0 0 0 0 
-0.07533343680779479 -0.06317747503644379 0.06963961009681734 -0.06999321069704546 -0.03007220488343835 
0 0 0 0 0 
0 0 0 0 0 
0 0 0 0 0 
-0.02351361259745413 0.02770181360055208 -0.02213118169541490 -0.02011223420573569 -0.02189608805241111 
0 0 0 0 0 
-0.02873663221880489 -0.02766571538582543 -0.02620271958821940 0.008485670537438636 0.003161128726731045 
0.05634546891742241 -0.04332512541245420 -0.03872601958025216 -0.03942906663594545 -0.04141973961629764 
0.03969651974342933 -0.07739212761793857 -0.01547810565857441 -0.07528442577525749 -0.07656395207146285 
0 0 0 0 0 
0 0 0 0 0 
0 0 0 0 0 
0 0 0 0 0 
0 0 0 0 0 
0 0 0 0 0 
-0.01754767610500835 -0.01523875829688797 -0.01741298515933806 -0.01537243238529467 0.02255699655900162 
0 0 0 0 0 
0 0 0 0 0 
-0.009796966782398001 0.01080972626027949 -0.007879946059474200 -0.007714763065171018 -0.008059434503973160 
0 0 0 0 0 
0 0 0 0 0 
0 0 0 0 0 
0 0 0 0 0 
0 0 0 0 0 
0 0 0 0 0 
0 0 0 0 0 
-0.01241796257776142 0.01460730801064780 -0.01245756587768414 -0.01325999527374338 -0.01281478602194380 
0 0 0 0 0 
0 0 0 0 0 
-0.03463042893470138 0.02396236221278945 -0.04752684416783873 -0.04876605173373634 -0.02285580581774677 
0 0 0 0 0 
0.03950526831826651 -0.01766555884145410 -0.01331759367791020 -0.01456263416942330 -0.02240760676925572 
0 0 0 0 0 
0 0 0 0 0 
0 0 0 0 0 
0 0 0 0 0 
0 0 0 0 0 
0 0 0 0 0 
0 0 0 0 0 
0 0 0 0 0 
0 0 0 0 0 
0 0 0 0 0 
0 0 0 0 0 
0 0 0 0 0 
0.005745929765223968 -0.04036775782399225 -0.03554924550357218 -0.03852265573842886 0.004291155089191739 
0 0 0 0 0 
0.02059987063592941 -0.01541800383054772 -0.01598720360729869 -0.01682203832273420 -0.01651171289490819 
-0.01567918895135696 -0.01488476478807642 -0.01338844779968449 -0.01406350221633806 0.01805266228475340 
0.02381225760057030 -0.004864573421490899 -0.03965635792229036 -0.04137841045866893 -0.03839980116161913 
0 0 0 0 0 
0.04578473446412452 -0.02687858836666355 -0.02874628167325708 -0.02720506303273635 -0.02669325064720721 
0 0 0 0 0 
0 0 0 0 0 
0 0 0 0 0 
0 0 0 0 0 
0 0 0 0 0 
-0.01660566677496948 -0.05716778106510335 -0.05169561250626635 0.03069917784745243 -0.05589840813045434 
-0.01028543030633282 -0.009739310281370196 -0.008924136562889580 0.01394223913071607 -0.009200020937586583 
0 0 0 0 0 
0 0 0 0 0 
-0.04452052413392082 -0.04459338660032721 0.05481400376251017 -0.04367442963716178 -0.04626184995583903 
0 0 0 0 0 
0 0 0 0 0 
0 0 0 0 0 
0 0 0 0 0 
0 0 0 0 0 
0 0 0 0 0 
0 0 0 0 0 
0 0 0 0 0 
0 0 0 0 0 
0.02072615015502894 -0.007544921964548539 -0.04421955411119088 -0.04237689765068620 -0.04279444581624126 
0.01542404469437817 -0.01193094423741788 -0.01178188155111248 -0.01146232869224974 -0.01179517382905314 
0 0 0 0 0 
-0.01364955929962812 -0.006761944922643343 0.01841273917299105 -0.01062657972907071 -0.008281931740604005 
0 0 0 0 0 
0 0 0 0 0 
0 0 0 0 0 
-0.006537032447530226 0.008806282487620335 -0.005291215324125717 -0.005406051584270408 -0.005695924241685329 
0 0 0 0 0 
0.01361419701020604 -0.01238650547081404 -0.01157128307153047 -0.01151974596800408 -0.01214539567942144 
0 0 0 0 0 
0 0 0 0 0 
0 0 0 0 0 
-0.01472876595241749 0.01941410770463405 -0.01185904979815908 -0.01201599228292612 -0.01246160272209345 
0 0 0 0 0 
0 0 0 0 0 
-0.01505909345606445 -0.001929998404740050 -0.03003631149325915 -0.02957332458544518 -0.007196418710587678 
0 0 0 0 0 
0 0 0 0 0 
0 0 0 0 0 
0 0 0 0 0 
-0.05531371551404244 -0.04901830082233132 -0.05052837079374606 0.05234274861059544 -0.02909922587476577 
0 0 0 0 0 
0 0 0 0 0 
0 0 0 0 0 
0 0 0 0 0 
0 0 0 0 0 
0 0 0 0 0 
0 0 0 0 0 
0 0 0 0 0 
0 0 0 0 0 
0 0 0 0 0 
0 0 0 0 0 
0 0 0 0 0 
0 0 0 0 0 
0 0 0 0 0 
0 0 0 0 0 
0 0 0 0 0 
-0.02572077523154248 -0.02342175678888151 -0.02119643817736038 0.03946940986413015 -0.02460870968669730 
0.01566918263733377 -0.01162321688722200 -0.01170939732117486 -0.01240128386706968 -0.01188913038275941 
0 0 0 0 0 
0 0 0 0 0 
-0.02144581190421574 -0.01961456501549673 -0.02012787681379858 -0.02038150931160309 0.02529146633570586 
0 0 0 0 0 
0 0 0 0 0 
0 0 0 0 0 
0 0 0 0 0 
0 0 0 0 0 
0 0 0 0 0 
0 0 0 0 0 
-0.01346531721272390 0.01583931621275614 -0.01350826073045402 -0.01437836855137000 -0.01389560950261456 
0 0 0 0 0 
0 0 0 0 0 
0 0 0 0 0 
0 0 0 0 0 
0 0 0 0 0 
0 0 0 0 0 
-0.01895935852032718 -0.01555255634861470 0.02693413394780417 -0.01874637511944489 -0.01662689529599739 
0 0 0 0 0 
0 0 0 0 0 
0 0 0 0 0 
0 0 0 0 0 
-0.04608671564739422 -0.03961988711129009 -0.04484228220129048 0.03622601167536799 -0.02164868308729824 
-0.04121509558978571 -0.03582083971576711 0.04958693219158089 -0.03860429373484101 -0.03589721010470075 
-0.01096426185106867 0.01847217785305220 -0.009246972964558044 -0.01063918998646129 -0.01270393730500789 
0 0 0 0 0 
0 0 0 0 0 
0 0 0 0 0 
0 0 0 0 0 
0.06481290879725222 -0.08383617899605274 -0.08045146928148560 -0.03210511286771203 -0.08017041401266590 
0 0 0 0 0 
0 0 0 0 0 
0 0 0 0 0 
0 0 0 0 0 
0.01212987711760920 -0.006894967047733299 -0.008347608054934313 -0.006730813530717764 -0.007010982620083719 
0 0 0 0 0 
0 0 0 0 0 
0 0 0 0 0 
0 0 0 0 0 
0.02490761741965175 -0.02079899016483690 -0.02025267659979061 -0.02134213024612402 -0.02141819415787758 
-0.01282806473884221 -0.01164879014771209 -0.01073972806420062 0.01516194961939857 -0.01123863605059947 
0 0 0 0 0 
0 0 0 0 0 
0 0 0 0 0 
0 0 0 0 0 
0 0 0 0 0 
0 0 0 0 0 
0 0 0 0 0 
0 0 0 0 0 
-0.01867243298390011 0.03675942892194391 -0.01399885424802479 -0.01828872448712598 -0.02135022319986464 
0 0 0 0 0 
-0.05524083166984157 0.06115571933745136 -0.05110805972352916 -0.05755053415001733 -0.05118963894125085 
-0.08010859474199514 0.08868618716386420 -0.07411537300726567 -0.08345805589900368 -0.07423367673829734 
0 0 0 0 0 
0 0 0 0 0 
0 0 0 0 0 
0 0 0 0 0 
-0.04579847788114885 0.05936631898363346 -0.04452784438980974 -0.04363463634563204 -0.04036511111562675 
0 0 0 0 0 
-0.01499469360142150 -0.01549126107415115 -0.01856937561847223 0.02175228285037301 -0.01268118357236846 
0 0 0 0 0 
0 0 0 0 0 
-0.01942537565114267 0.02285016109381214 -0.01948732695540908 -0.02074256446755016 -0.02004612518409969 
0 0 0 0 0 
0 0 0 0 0 
0 0 0 0 0 
0 0 0 0 0 
0 0 0 0 0 
-0.009651953081555720 0.01272231884807981 -0.007771390530167057 -0.007874236994315373 -0.008166251346732226 
0 0 0 0 0 
0 0 0 0 0 
0 0 0 0 0 
-0.02807674997736165 -0.01151732890736158 -0.02434696443389404 -0.02538886951275256 0.02971151322111229 
0 0 0 0 0 
0 0 0 0 0 
-0.01080477369795432 -0.01054166196478786 0.01590539327521761 -0.01245662315276315 -0.01033848943702163 
0 0 0 0 0 
0 0 0 0 0 
-0.007072226736976255 0.03260606833851873 -0.06964886911229319 -0.06918313964276807 -0.06496211652583430 
0 0 0 0 0 
0 0 0 0 0 
0.02297471463852087 -0.01468978875664053 -0.01721655849621213 -0.01529595464930423 -0.01398768074371503 
0 0 0 0 0 
0 0 0 0 0 
0 0 0 0 0 
0 0 0 0 0 
0 0 0 0 0 
0 0 0 0 0 
0 0 0 0 0 
0 0 0 0 0 
-0.05514277920082263 -0.05024054050126776 -0.05650362937412890 -0.01648036571612803 0.03498460789199979 
0 0 0 0 0 
-0.03891424391398662 -0.03455450257750888 0.001852228108858661 -0.03492339408643642 0.01229664249631695 
0 0 0 0 0 
0 0 0 0 0 
0 0 0 0 0 
0 0 0 0 0 
0 0 0 0 0 
-0.03509816294402433 -0.03206764607867996 -0.03282730430779399 0.01553954145588810 -0.004988858277771459 
0 0 0 0 0 
0 0 0 0 0 
0 0 0 0 0 
0 0 0 0 0 
0 0 0 0 0 
0 0 0 0 0 
0 0 0 0 0 
0 0 0 0 0 
0 0 0 0 0 
0 0 0 0 0 
0 0 0 0 0 
0 0 0 0 0 
0 0 0 0 0 
0 0 0 0 0 
0 0 0 0 0 
0 0 0 0 0 
0 0 0 0 0 
0 0 0 0 0 
0 0 0 0 0 
0 0 0 0 0 
0 0 0 0 0 
-0.007386972035361195 -0.006707893109269308 -0.006184414601324664 0.008730927082159482 -0.006471708080019665 
-0.01540788912545517 -0.01507670933123731 -0.01439190742474410 -0.01475283009505937 0.02060245278488871 
0 0 0 0 0 
-0.02177547914792816 -0.02018486792651613 0.02593209741112993 -0.01694145528210329 -0.01863695661663370 
-0.02156099793004781 -0.02109756216675380 -0.02013928602859027 -0.02064434242432449 0.02882999989369217 
0 0 0 0 0 
0 0 0 0 0 
0 0 0 0 0 
0 0 0 0 0 
0 0 0 0 0 
0.01861929583946641 -0.01380864730118868 -0.01293189686898973 -0.01338398925837615 -0.01307829440437641 
0 0 0 0 0 
0 0 0 0 0 
0 0 0 0 0 
0 0 0 0 0 
0 0 0 0 0 
-0.005077007977272592 -0.004610282354316091 -0.004250499679081451 0.006000697746372555 -0.004447954235044395 
0.04300478784801387 -0.02749680502896279 -0.03222649148212405 -0.02863144526388422 -0.02618257733920394 
0 0 0 0 0 
0 0 0 0 0 
0.008602359247974664 -0.01336299215151914 -0.004103435735656367 -0.01338072883430847 -0.01285210746714959 
0.01044041878483728 -0.007341556045573862 -0.01311200407104795 -0.01329145838031888 -0.01323725339225474 
0 0 0 0 0 
0 0 0 0 0 
0 0 0 0 0 
0 0 0 0 0 
0 0 0 0 0 
0 0 0 0 0 
-0.01875593486437579 -0.01899447450641215 -0.01970200724936503 -0.0007119783587476295 0.008406833713405252 
0 0 0 0 0 
-0.01637965950655707 -0.01491558468956238 -0.01349844384438209 0.02513514809251829 -0.01567146720638098 
0 0 0 0 0 
0 0 0 0 0 
0 0 0 0 0 
-0.1256707531986887 -0.008246701420400512 -0.1098595801584226 -0.1262063495264792 0.07664392407435115 
0 0 0 0 0 
0 0 0 0 0 
-0.007259107430576658 -0.007159300461756812 -0.007951587729973538 0.009890339676103950 -0.006778155409794472 
0 0 0 0 0 
0 0 0 0 0 
0 0 0 0 0 
0 0 0 0 0 
0 0 0 0 0 
0 0 0 0 0 
-0.03254929642714099 -0.03162964432984682 -0.03211758392382631 0.04013689515470850 -0.03203043716219309 
-0.02036063553470126 -0.01901761298269708 0.02940502390680135 -0.01922749727610177 -0.01803376233418422 
0 0 0 0 0 
0 0 0 0 0 
0.02169561666154631 -0.02767908508666956 -0.05747335363743733 -0.05774393201380239 -0.02947059635346526 
0 0 0 0 0 
0 0 0 0 0 
0 0 0 0 0 
0 0 0 0 0 
0 0 0 0 0 
0 0 0 0 0 
0 0 0 0 0 
0 0 0 0 0 
0 0 0 0 0 
0 0 0 0 0 
-0.02299089495764803 -0.01996576009222915 -0.02281442342004265 -0.02014089934752008 0.02955408655508618 
-0.02583170653460397 -0.06718199387155200 0.04542397206468549 -0.07064188816785119 -0.06781963251392219 
0.04840048477825044 -0.03319987564253915 -0.03037750096082608 -0.03687095572280253 -0.03334195021595710 
0.02641423564585651 -0.01181164573531462 -0.008904484708472037 -0.009736950714436454 -0.01498230060594566 
-0.03982554920208685 0.02249058954786130 -0.03344518336789296 -0.03324808937218437 -0.009975372024069666 
0 0 0 0 0 
0 0 0 0 0 
0 0 0 0 0 
0 0 0 0 0 
0 0 0 0 0 
0 0 0 0 0 
0 0 0 0 0 
0 0 0 0 0 
0 0 0 0 0 
0 0 0 0 0 
0 0 0 0 0 
0 0 0 0 0 
0 0 0 0 0 
0 0 0 0 0 
0 0 0 0 0 
-0.01079414070105163 -0.009189436791965683 0.01408517269108300 -0.009459799111008590 -0.009587019287636090 
0 0 0 0 0 
0 0 0 0 0 
0 0 0 0 0 
0.006503223991352718 -0.01369190270232835 -0.01372049000939503 -0.01458315501554023 -0.001753350300270012 
0 0 0 0 0 
0 0 0 0 0 
0 0 0 0 0 
0 0 0 0 0 
0 0 0 0 0 
0 0 0 0 0 
0 0 0 0 0 
0 0 0 0 0 
-0.02530212578728543 -0.02304052778723135 -0.02085143002798320 0.03882697796400188 -0.02420816100410608 
0 0 0 0 0 
0 0 0 0 0 
0 0 0 0 0 
0 0 0 0 0 
0 0 0 0 0 
0 0 0 0 0 
0 0 0 0 0 
0 0 0 0 0 
0 0 0 0 0 
0 0 0 0 0 
0 0 0 0 0 
0 0 0 0 0 
0 0 0 0 0 
0 0 0 0 0 
0 0 0 0 0 
0 0 0 0 0 
0 0 0 0 0 
0 0 0 0 0 
0.005964934259667391 -0.07027982821345005 -0.04736555265160165 -0.02620406682105223 -0.04890214844088447 
0 0 0 0 0 
0.02045054809231428 -0.01294899442249779 -0.01251209446002498 -0.01621713682379862 -0.01312441717752912 
0 0 0 0 0 
0 0 0 0 0 
0 0 0 0 0 
0 0 0 0 0 
0 0 0 0 0 
-0.01253232843251230 -0.01201622285239519 0.01441396265121249 -0.01187367711492698 -0.01247925956801885 
0 0 0 0 0 
-0.002828184236001384 -0.03602749408968908 -0.03545661637535680 -0.03462070035900407 0.01345462951769021 
0 0 0 0 0 
0 0 0 0 0 
0 0 0 0 0 
-0.006535767260741626 -0.006188741101088542 -0.005670747634370647 0.008859447523149279 -0.005846055425118562 
0 0 0 0 0 
0 0 0 0 0 
0 0 0 0 0 
0 0 0 0 0 
0.02312712762764153 -0.05865126334882029 -0.03328690538680259 -0.04127266332320603 -0.04170201119779509 
0 0 0 0 0 
0 0 0 0 0 
0 0 0 0 0 
-0.01177328519093318 -0.01071256797779035 -0.01076588075078980 -0.01053393335622985 0.01342722793209465 
0 0 0 0 0 
0 0 0 0 0 
0 0 0 0 0 
-0.08134758870161353 0.05059493536080068 -0.02869652899603599 -0.09547147951151073 -0.09096823210299153 
0 0 0 0 0 
0 0 0 0 0 
0.01496413964869933 -0.03821412003173161 -0.03877825436105054 -0.04035539768321599 -0.004469936274642264 
0 0 0 0 0 
0 0 0 0 0 
0 0 0 0 0 
0 0 0 0 0 
0 0 0 0 0 
-0.06028064277272657 -0.03768148634041250 0.008664962397489718 -0.04754190172496878 0.01081816626766683 
-0.03206267694272707 -0.03146062110253180 -0.03088977387571612 -0.03023710725928095 0.04114351146148884 
0 0 0 0 0 
0 0 0 0 0 
0 0 0 0 0 
0 0 0 0 0 
0 0 0 0 0 
0 0 0 0 0 
0 0 0 0 0 
0 0 0 0 0 
0 0 0 0 0 
0 0 0 0 0 
0 0 0 0 0 
0 0 0 0 0 
0 0 0 0 0 
0 0 0 0 0 
0 0 0 0 0 
0 0 0 0 0 
0 0 0 0 0 
0 0 0 0 0 
0 0 0 0 0 
0 0 0 0 0 
0 0 0 0 0 
0.02324061799851785 -0.03747509144904723 -0.03871403753016651 -0.003715615147381135 -0.03814554587124442 
0 0 0 0 0 
0 0 0 0 0 
-0.005427799096539713 -0.005139602133475437 -0.004709420892544005 0.007357560228748734 -0.004855009838765130 
0 0 0 0 0 
0 0 0 0 0 
0 0 0 0 0 
0 0 0 0 0 
0 0 0 0 0 
0 0 0 0 0 
0 0 0 0 0 
0 0 0 0 0 
0 0 0 0 0 
0 0 0 0 0 
0 0 0 0 0 
0 0 0 0 0 
0 0 0 0 0 
-0.01247835372933105 -0.05261168743152306 0.005139315742262537 -0.02867359344656455 -0.05333898395362467 
0 0 0 0 0 
0 0 0 0 0 
0 0 0 0 0 
0 0 0 0 0 
0 0 0 0 0 
0 0 0 0 0 
0 0 0 0 0 
0 0 0 0 0 
0 0 0 0 0 
0 0 0 0 0 
0.02400277100009693 -0.01874939156393641 -0.01724527066109106 -0.01936818332964317 -0.01739992070602745 
0 0 0 0 0 
0 0 0 0 0 
0 0 0 0 0 
0 0 0 0 0 
-0.05365721965716531 -0.03833393777433474 -0.01577595924228487 -0.02526090184706540 -0.07523055517975304 
0 0 0 0 0 
0 0 0 0 0 
-0.03192852775027934 -0.01031289594614063 0.005105194709176537 0.005482217784465665 -0.02825958195920826 
0 0 0 0 0 
0 0 0 0 0 
0 0 0 0 0 
0 0 0 0 0 
0 0 0 0 0 
0 0 0 0 0 
0 0 0 0 0 
0 0 0 0 0 
0 0 0 0 0 
0 0 0 0 0 
0.05019275163115684 -0.03209271280087976 -0.03761293483466279 -0.03341700059189044 -0.03055882070839962 
0 0 0 0 0 
0.01419463768653873 -0.007623494161594119 -0.009772358110017127 -0.008141400955568595 -0.007823361668558036 
0 0 0 0 0 
0 0 0 0 0 
0 0 0 0 0 
0 0 0 0 0 
-0.02318050288498897 -0.01816017592267338 -0.01506237840371792 0.03196682072394573 -0.01766577809894562 
-0.01787532588564046 -0.01607493983556154 -0.01636466182345377 0.02323535578224636 -0.01641751933533835 
0 0 0 0 0 
0 0 0 0 0 
0.01250423752467615 -0.006715633316583744 -0.008608594997794980 -0.007171864022186171 -0.006891699154665102 
0 0 0 0 0 
0 0 0 0 0 
0 0 0 0 0 
0 0 0 0 0 
0 0 0 0 0 
0 0 0 0 0 
0 0 0 0 0 
0 0 0 0 0 
-0.03107033488687919 -0.03019246956323661 -0.03065823835868341 0.03831317142500489 -0.03057505133575307 
0 0 0 0 0 
0 0 0 0 0 
0 0 0 0 0 
0 0 0 0 0 
-0.04115106927910337 -0.03641955396367679 0.05390563364777926 -0.03903471092531791 -0.03716932836029949 
0 0 0 0 0 
0 0 0 0 0 
0 0 0 0 0 
0 0 0 0 0 
0 0 0 0 0 
0 0 0 0 0 
0 0 0 0 0 
0 0 0 0 0 
-0.02097054110649372 0.02313836659101643 -0.01686713208562186 -0.01651355563190230 -0.01725132955072593 
0 0 0 0 0 
0 0 0 0 0 
0 0 0 0 0 
0 0 0 0 0 
0 0 0 0 0 
0 0 0 0 0 
0 0 0 0 0 
0 0 0 0 0 
-0.08922367897266958 0.1019036145464588 -0.07431772340626358 -0.04306010491564832 -0.09503853431123048 
0 0 0 0 0 
0 0 0 0 0 
0 0 0 0 0 
0.05206480854576573 -0.07414043106480928 -0.07354675439965204 -0.08467873622120023 -0.02005683119659786 
0 0 0 0 0 
0 0 0 0 0 
0.007702211543328500 -0.01669248541999871 -0.01606323756004967 -0.001902902894258488 -0.01624261286528192 
-0.01275198511236763 -0.01186362456439735 -0.01269869375049462 -0.01194291593794506 0.01507390260490223 
0 0 0 0 0 
0 0 0 0 0 
0 0 0 0 0 
0 0 0 0 0 
0 0 0 0 0 
0 0 0 0 0 
0 0 0 0 0 
0 0 0 0 0 
0 0 0 0 0 
0 0 0 0 0 
0 0 0 0 0 
0 0 0 0 0 
0 0 0 0 0 
0 0 0 0 0 
0.03808249499116393 -0.02673231696540169 -0.004951146205131543 -0.009697845637572818 -0.01534232879777718 
-0.01821777800095448 0.02313737893261516 -0.01472019452919465 -0.01436990552184873 -0.01405095644538321 
0 0 0 0 0 
0 0 0 0 0 
0 0 0 0 0 
0 0 0 0 0 
0 0 0 0 0 
0 0 0 0 0 
0 0 0 0 0 
0 0 0 0 0 
0 0 0 0 0 
0 0 0 0 0 
0 0 0 0 0 
-0.01728218834315130 -0.03614859919353824 0.01691854207072954 -0.02177657145522660 -0.03510726210739938 
0 0 0 0 0 
0 0 0 0 0 
-0.01656892563655956 -0.01504575644437769 -0.01387159788130850 0.01958340722965131 -0.01451599510679945 
0 0 0 0 0 
0 0 0 0 0 
0 0 0 0 0 
0 0 0 0 0 
0 0 0 0 0 
0.02521155467536342 -0.02019137943024935 -0.01767388443794183 -0.01926342869425213 -0.01802989380635482 
0 0 0 0 0 
0 0 0 0 0 
0 0 0 0 0 
0 0 0 0 0 
0 0 0 0 0 
0 0 0 0 0 
0 0 0 0 0 
0 0 0 0 0 
0 0 0 0 0 
0 0 0 0 0 
0 0 0 0 0 
