solver_type L2R_L2LOSS_SVC_DUAL
nr_class 5
label 1 2 3 4 5
nr_feature 12375
bias -1.000000000000000
w
0.07303597139833973 -0.1900105540406892 -0.1577953625758090 -0.1245706389072622 -0.1646236107655998 
0.2047964861620548 -0.2018883281420949 -0.2026781815849510 -0.2035133620044913 -0.2025211443288978 
0.2047964861620548 -0.2018883281420949 -0.2026781815849510 -0.2035133620044913 -0.2025211443288978 
0.2047964861620548 -0.2018883281420949 -0.2026781815849510 -0.2035133620044913 -0.2025211443288978 
0 0 0 0 0 
0 0 0 0 0 
0.2047964861620548 -0.2018883281420949 -0.2026781815849510 -0.2035133620044913 -0.2025211443288978 
0.2047964861620548 -0.2018883281420949 -0.2026781815849510 -0.2035133620044913 -0.2025211443288978 
0.2047964861620548 -0.2018883281420949 -0.2026781815849510 -0.2035133620044913 -0.2025211443288978 
0.2047964861620548 -0.2018883281420949 -0.2026781815849510 -0.2035133620044913 -0.2025211443288978 
0.2047964861620548 -0.2018883281420949 -0.2026781815849510 -0.2035133620044913 -0.2025211443288978 
0.2047964861620548 -0.2018883281420949 -0.2026781815849510 -0.2035133620044913 -0.2025211443288978 
0.1090006299123132 -0.1367044240227124 -0.1384777344562339 -0.1376520717399503 -0.09482507446295246 
0.08626614780773599 -0.1589378226446270 -0.1617903868945211 -0.07312065118566886 -0.1572960006230287 
0.1561661039177427 -0.1429648968950149 -0.1462905513049706 -0.1447413831707593 -0.1410396721052518 
0.3970613508617398 -0.3512627044754813 -0.3424153997724212 -0.3190738440729694 -0.3777892919371004 
-0.05990203112289948 -0.1299882702174684 -0.1904019152888104 -0.1497079957216221 -0.1239743814829564 
0 0 0 0 0 
0.3056714250293320 -0.3008627820718383 -0.2621859051000524 -0.3031192313914735 -0.3008517496748315 
0.1261295886631384 -0.1134540680395797 -0.1392960449758210 -0.1387293187278446 -0.1355786732820730 
0.1702323851028973 -0.1538290213696245 -0.1550268047409396 -0.1549872514991936 -0.1518260911206653 
0 0 0 0 0 
0 0 0 0 0 
0.05818349472935931 -0.1263287790315111 -0.1752287792176462 -0.09041961596745375 -0.1737288283778991 
0.1002753998857553 -0.1452298889090100 -0.08799299932933922 -0.1467451614212381 -0.1434963480974140 
0 0 0 0 0 
0 0 0 0 0 
0.06569135335979362 -0.1106774768045747 -0.09974721179606110 -0.1606083880065971 -0.1567076709349831 
0 0 0 0 0 
0 0 0 0 0 
0.02144566184788436 -0.1510604978222169 -0.1049254563697232 -0.09587777133128976 -0.1708358837700814 
0 0 0 0 0 
0.01343854435311181 -0.09165202813309160 -0.1907794094192161 -0.2417274334266656 -0.1844748708879125 
0 0 0 0 0 
0 0 0 0 0 
0.1777260641206694 -0.1460655035946961 -0.1358936551685636 -0.1438827965884646 -0.1490547273473388 
0 0 0 0 0 
0.4122424922128061 -0.4504873886444543 -0.4421103708255031 -0.3818222572008561 -0.4238249975456769 
0 0 0 0 0 
0.1083294675798198 -0.2204151970542713 -0.2094322119612398 -0.1956492628105317 -0.08985466969111032 
0.1216004182531648 -0.09377146923992465 -0.1130406779793504 -0.1202906125258839 -0.1256034495662126 
0 0 0 0 0 
0.09144156577029623 -0.1326535243713513 -0.1258343375143921 -0.07620333173941632 -0.1209132244755565 
0.1634377838344451 -0.1326242342119651 -0.1239336660064207 -0.1313928691955180 -0.1355047179799757 
0.1507002454468576 -0.1217517581532519 -0.1115508395166760 -0.1193587835831062 -0.1252592616843276 
0.1205234145191733 -0.1234455346070916 -0.1147398767566006 -0.09024198631803532 -0.1266040713302515 
0.1507002454468576 -0.1217517581532519 -0.1115508395166760 -0.1193587835831062 -0.1252592616843276 
0.1507002454468576 -0.1217517581532519 -0.1115508395166760 -0.1193587835831062 -0.1252592616843276 
0.1497538459970930 -0.1226204458138229 -0.1132940277207693 -0.1202256460124351 -0.1254816108676237 
0 0 0 0 0 
0 0 0 0 0 
0.3703165215545629 -0.3279430745177983 -0.4137778911304798 -0.4227101944623691 -0.4190166158123068 
0 0 0 0 0 
0.2697499695209293 -0.2474232751810382 -0.2453520622239448 -0.2440120002803218 -0.2424342405192659 
0.1712965613858519 -0.1876969637034856 -0.1883265482975295 -0.1828861613772219 -0.1536189934054142 
0 0 0 0 0 
0.1713089274650884 -0.1875574613957636 -0.1879826562336336 -0.1825565876197994 -0.1536497308764917 
0.1423177059329946 -0.1592600989530390 -0.1856620103972941 -0.1809096065739968 -0.1487199620651526 
0.07927161860497670 -0.2153178154862118 -0.06116443669953105 -0.2143273169818766 -0.2140125228397955 
0.1642109394249424 -0.1936998485667315 -0.1466983585149584 -0.1892614952094615 -0.1910902292982941 
0.2102954727872108 -0.1934354025447731 -0.1930112529527104 -0.1884641046520446 -0.1906874416610946 
0.1444496902080334 -0.1368986871650506 -0.2199232810810541 -0.2154597868242509 -0.2039926603589529 
0.2075192564575003 -0.1910991662544285 -0.1915509374062748 -0.1856550386466565 -0.1886870656284987 
-0.05764314503770145 -0.1663087321422707 -0.1397235934366931 -0.07801015371788605 -0.03770384084981691 
0 0 0 0 0 
0.08343823032839259 -0.1250048009966317 -0.1037051788203024 -0.1254780209838428 -0.08744564712883161 
0.09226733164367575 -0.08387148582956835 -0.08110930201730338 -0.08553631035876294 -0.08073304783996860 
0 0 0 0 0 
0.05355047971083805 -0.2271508451066850 -0.1473776964147547 -0.1317668872848163 -0.2036497800035353 
0.09226733164367575 -0.08387148582956835 -0.08110930201730338 -0.08553631035876294 -0.08073304783996860 
-0.03121571968852559 -0.1006707001098415 -0.1246580453693839 -0.08529687417366692 -0.1564029886144119 
0.1642478815485005 -0.1493021812208862 -0.1443851338593764 -0.1522657859680809 -0.1437153523619589 
0.09226733164367575 -0.08387148582956835 -0.08110930201730338 -0.08553631035876294 -0.08073304783996860 
0.05740713830724836 -0.1002257052310639 -0.09715747258604686 -0.04942285769932291 -0.09739919493220203 
0.09226733164367575 -0.08387148582956835 -0.08110930201730338 -0.08553631035876294 -0.08073304783996860 
0 0 0 0 0 
0 0 0 0 0 
0 0 0 0 0 
0 0 0 0 0 
0.05641627655519239 -0.1003674272500690 -0.04282150524355272 -0.1028984603202212 -0.09745127611394662 
0 0 0 0 0 
0.09226733164367575 -0.08387148582956835 -0.08110930201730338 -0.08553631035876294 -0.08073304783996860 
-0.006185387093973878 -0.05867808542260445 -0.05878586977602295 -0.1407509498649684 -0.1373498992960687 
0.09226733164367575 -0.08387148582956835 -0.08110930201730338 -0.08553631035876294 -0.08073304783996860 
0.06829663646370568 -0.1054927927020420 -0.1020943980233963 -0.09369668336299072 -0.06798148022127352 
0.09226733164367575 -0.08387148582956835 -0.08110930201730338 -0.08553631035876294 -0.08073304783996860 
0.06771425144009119 -0.05950997845074200 -0.08722603316434518 -0.09109020892596087 -0.08685513293736045 
0.04951102427249207 -0.09522990382771082 -0.09294673252795070 -0.09643859410193716 -0.03760444670331448 
0.05158582305958745 -0.09268295732677019 -0.09070803445196896 -0.05873460534847796 -0.07524051950079254 
0.07165701305499090 -0.08598603009390761 -0.08346974545107855 -0.08754582802929356 -0.06029217867371225 
0.03181100862121437 -0.02123481356712481 -0.1106237798387018 -0.1149062476111029 -0.1102173094291646 
0.09226733164367575 -0.08387148582956835 -0.08110930201730338 -0.08553631035876294 -0.08073304783996860 
0.09226733164367575 -0.08387148582956835 -0.08110930201730338 -0.08553631035876294 -0.08073304783996860 
0.02970145900563170 -0.02567740116840580 -0.02574388221435540 -0.02728075197334752 -0.02592845070335349 
0 0 0 0 0 
0 0 0 0 0 
0 0 0 0 0 
0 0 0 0 0 
0 0 0 0 0 
0 0 0 0 0 
0.08522504303974844 -0.07900425293767072 -0.1033468934765692 -0.1058734872685108 -0.1051406211530762 
0.05843871145790065 -0.1088284159775280 -0.1084331063397480 -0.04580547802720036 -0.1080313350336180 
0.1066136345134300 -0.1016512814692620 -0.09972318040092587 -0.1022414279875176 -0.1014342243235047 
0.05958768604574442 -0.05681416522363251 -0.05573652556104313 -0.05714400545102268 -0.05669284928581272 
-0.04685914158819138 -0.1744112411676293 -0.1057696245669005 -0.1450642932775405 -0.1724247461775605 
0 0 0 0 0 
0.05958768604574442 -0.05681416522363251 -0.05573652556104313 -0.05714400545102268 -0.05669284928581272 
0.05958768604574442 -0.05681416522363251 -0.05573652556104313 -0.05714400545102268 -0.05669284928581272 
0 0 0 0 0 
0.05958768604574442 -0.05681416522363251 -0.05573652556104313 -0.05714400545102268 -0.05669284928581272 
0 0 0 0 0 
-0.07640985823797825 0.05489282474679689 -0.1541961513609187 -0.1374922499501734 -0.1381977456477389 
0.05958768604574442 -0.05681416522363251 -0.05573652556104313 -0.05714400545102268 -0.05669284928581272 
0.04286201036027755 -0.06104218628777685 -0.06015741063848227 -0.06161941877826899 -0.03895507206498691 
0.05958768604574442 -0.05681416522363251 -0.05573652556104313 -0.05714400545102268 -0.05669284928581272 
0.04290120208275793 -0.07142464779317752 -0.09240226711689191 -0.08209464440016274 -0.06896478488250443 
0.05958768604574442 -0.05681416522363251 -0.05573652556104313 -0.05714400545102268 -0.05669284928581272 
0.03431603193873515 -0.06932635726312755 -0.06850375493076544 -0.06968488831561086 -0.03014007239516415 
0.03741620006465435 -0.08802269158130868 -0.09282255021749304 -0.1338519810987772 -0.1095744691411705 
0.05958768604574442 -0.05681416522363251 -0.05573652556104313 -0.05714400545102268 -0.05669284928581272 
0.04062703004780374 -0.1296518608384666 -0.1281682118243089 -0.06952126753080548 -0.09017559263159960 
0.06522552445431992 -0.05762493931851433 -0.1177582308381265 -0.1196090213968052 -0.1186924230861563 
0.05958768604574442 -0.05681416522363251 -0.05573652556104313 -0.05714400545102268 -0.05669284928581272 
0.05958768604574442 -0.05681416522363251 -0.05573652556104313 -0.05714400545102268 -0.05669284928581272 
0.07627735429228498 -0.07203122060720533 -0.07122598437387125 -0.07219871587542202 -0.07154844018506216 
0.07174516265859932 -0.07011039341819159 -0.1198331562363993 -0.1196357016366254 -0.1040878265632165 
0.05958768604574442 -0.05681416522363251 -0.05573652556104313 -0.05714400545102268 -0.05669284928581272 
-0.05179718187581942 -0.1045356412759486 -0.1886823754514211 -0.02776374180634338 -0.1755089138656736 
0 0 0 0 0 
0 0 0 0 0 
0.1066136345134300 -0.1016512814692620 -0.09972318040092587 -0.1022414279875176 -0.1014342243235047 
0.04896520483818475 -0.07348142047766702 -0.07258626082473146 -0.04517860665878265 -0.07315988725459775 
0 0 0 0 0 
0.05958768604574442 -0.05681416522363251 -0.05573652556104313 -0.05714400545102268 -0.05669284928581272 
0.05958768604574442 -0.05681416522363251 -0.05573652556104313 -0.05714400545102268 -0.05669284928581272 
0.01427777812296359 -0.03002438139586347 -0.1207220297694156 -0.1225500211881840 -0.09370624575355867 
0.05958768604574442 -0.05681416522363251 -0.05573652556104313 -0.05714400545102268 -0.05669284928581272 
0.02806193834183823 -0.07592603640574018 -0.07436963369312650 -0.02392529780774384 -0.07580655082970147 
0.05958768604574442 -0.05681416522363251 -0.05573652556104313 -0.05714400545102268 -0.05669284928581272 
0.05958768604574442 -0.05681416522363251 -0.05573652556104313 -0.05714400545102268 -0.05669284928581272 
0.05958768604574442 -0.05681416522363251 -0.05573652556104313 -0.05714400545102268 -0.05669284928581272 
0 0 0 0 0 
0 0 0 0 0 
0 0 0 0 0 
0 0 0 0 0 
0.03001153185858021 -0.07325105902952521 -0.07184638865024255 -0.02691190743182692 -0.07301357876400122 
0.05672247735236428 -0.1438328718505314 -0.1389984766502757 -0.1060335759479416 -0.07893939243102900 
0 0 0 0 0 
0.05958768604574442 -0.05681416522363251 -0.05573652556104313 -0.05714400545102268 -0.05669284928581272 
-0.02352738132867372 -0.1017911725850341 -0.08570165199834671 -0.1024676119413210 -0.03386421084553559 
0.02489398257608319 -0.02075840867077103 -0.07790222784391140 -0.07869026404435388 -0.07852154857300965 
0.05958768604574442 -0.05681416522363251 -0.05573652556104313 -0.05714400545102268 -0.05669284928581272 
-0.02130547615802329 0.02953196056187112 -0.1078514685854145 -0.1100344316770793 -0.1080948582680705 
0.04090645286327140 -0.1290253741308330 -0.1075522865975018 -0.1275898400386705 -0.05043781408148895 
-0.009195576266680475 -0.09581006838037444 -0.1542393413151948 -0.06212442749578161 -0.1319527201060053 
0.004418933918293204 -0.04341923056000119 -0.08883971275927255 -0.04757498004340569 -0.08993512428494635 
0.07489856259937312 -0.1864650496630948 -0.1450976463418155 -0.09701737734959352 -0.1827877803024545 
0.05958768604574442 -0.05681416522363251 -0.05573652556104313 -0.05714400545102268 -0.05669284928581272 
0.05958768604574442 -0.05681416522363251 -0.05573652556104313 -0.05714400545102268 -0.05669284928581272 
0 0 0 0 0 
0.05958768604574442 -0.05681416522363251 -0.05573652556104313 -0.05714400545102268 -0.05669284928581272 
-0.02979239861978100 -0.1066679848652177 -0.09680527934346424 -0.02548463778538272 -0.05227383527648848 
0 0 0 0 0 
0 0 0 0 0 
0 0 0 0 0 
0.07505007931380643 -0.06002031016545831 -0.05856319748277890 -0.05829532394155479 -0.06843793786559911 
0 0 0 0 0 
0.1155192191165892 -0.1062058808672125 -0.09518549005413456 -0.1067006116511990 -0.1116835808692013 
0.07505007931380643 -0.06002031016545831 -0.05856319748277890 -0.05829532394155479 -0.06843793786559911 
0.07505007931380643 -0.06002031016545831 -0.05856319748277890 -0.05829532394155479 -0.06843793786559911 
-0.007139542224461978 -0.03005973752602676 -0.09059815641226407 -0.1071828775364751 -0.1075558544284967 
0.07530106264060923 -0.07626327489237959 -0.07548631131470784 -0.05882746024931981 -0.08271689347052370 
-0.01461096782160147 -0.1126990519822244 -0.1598872734150255 -0.09772237687227432 -0.07779925455542415 
0.05246186515593313 -0.03398656540337550 -0.1145465587375788 -0.1156601196559596 -0.1215236550637079 
0.06121235099872988 -0.06128595816664273 -0.1280643711410416 -0.1166486068151123 -0.1276098412371028 
0 0 0 0 0 
0.03235168445691806 -0.05094012675422567 -0.05639769569629657 -0.06695700974446067 -0.08465692285136263 
0.2197762416861960 -0.1898444767070571 -0.2186924451431560 -0.2208919577538046 -0.2254580834859904 
0 0 0 0 0 
0.06723878212353249 -0.1034165500073824 -0.08450644169436584 -0.08076895767249055 -0.09471245851069268 
0.07505007931380643 -0.06002031016545831 -0.05856319748277890 -0.05829532394155479 -0.06843793786559911 
0.07505007931380643 -0.06002031016545831 -0.05856319748277890 -0.05829532394155479 -0.06843793786559911 
0.06360237394653755 -0.08476073606905461 -0.08339542541845782 -0.08300219168837444 -0.05566982725779063 
0.1737320680944571 -0.1567375697461312 -0.1419039488050746 -0.1555302223327647 -0.1619881386822713 
0.08243269216865168 -0.2181681983265078 -0.1874812734114633 -0.1177108980271630 -0.1813336580389181 
0 0 0 0 0 
0.07505007931380643 -0.06002031016545831 -0.05856319748277890 -0.05829532394155479 -0.06843793786559911 
0.1835371569817655 -0.1467814183496199 -0.1432180068032732 -0.1425629142485894 -0.1673669722989359 
0.1340014320094920 -0.1071658762437271 -0.1045642109575144 -0.1040859244793431 -0.1221954961489272 
0 0 0 0 0 
0.06294493433685693 -0.1407582845894349 -0.1307852558527723 -0.1200817032691930 -0.1342971328728075 
0 0 0 0 0 
0.07505007931380643 -0.06002031016545831 -0.05856319748277890 -0.05829532394155479 -0.06843793786559911 
0.05717107738723613 -0.04222518008800293 -0.06229205455628210 -0.06240064058082702 -0.07124090505010522 
0 0 0 0 0 
0.1341246055114016 -0.1163213554617837 -0.1148975164085226 -0.1149089493128693 -0.1211714907442787 
0.1138161305058203 -0.1355539905333760 -0.08949930543018567 -0.1371126588844392 -0.1354466960956531 
0.04714386063056201 -0.04085273696314049 -0.03973400366123538 -0.04081717374115536 -0.04067059434130402 
0.01756377911890323 -0.09620752787672456 -0.09491421886504209 -0.05352638374856607 -0.04924975221484187 
-0.01586288564699808 -0.1891457132758042 -0.1858837723354960 0.04114008849097099 -0.1862070028317254 
-0.02310842170517397 -0.08452699748809492 -0.1429516097343589 -0.1201178692350510 -0.1100649656022938 
0.04714386063056201 -0.04085273696314049 -0.03973400366123538 -0.04081717374115536 -0.04067059434130402 
-0.09655789326372974 -0.005308903605948159 -0.1412408861530933 -0.1407387638961731 -0.08770175064077690 
-0.05365075656309216 -0.1084527041955465 0.03783930424169587 -0.1100768028189005 -0.08126461857312550 
0.09431270283117033 -0.08248899329531396 -0.08062872629340045 -0.08269689658645528 -0.08217364509943069 
0 0 0 0 0 
0.1187039642909111 -0.1194635152696160 -0.1799929581835731 -0.1806463810127737 -0.1634533019589732 
0.04714386063056201 -0.04085273696314049 -0.03973400366123538 -0.04081717374115536 -0.04067059434130402 
0.04714386063056201 -0.04085273696314049 -0.03973400366123538 -0.04081717374115536 -0.04067059434130402 
-0.02304137975823250 -0.08515473032997553 -0.08307481135164778 -0.02794617642806612 -0.01955588866164450 
0.03931116571994454 -0.03124729388962703 -0.05629332760225682 -0.05749990895551595 -0.05716453905100294 
-0.03016441879363167 -0.03505062057534108 -0.03630972197036191 -0.09759681766738984 -0.08064321409353835 
0 0 0 0 0 
-0.04223774718913165 -0.09843120322348083 -0.08775920851950669 -0.2261612831928441 -0.2182253216692596 
0 0 0 0 0 
0.06029595581909496 -0.05193807141299339 -0.05185493546825731 -0.05211917349941745 -0.05147985263991792 
0 0 0 0 0 
0 0 0 0 0 
0.01951962534417028 -0.05816090676409757 -0.009749168436580812 -0.05859562442437157 -0.05756116742686602 
-0.03903194432288535 -0.1225880477482272 -0.1219970596206996 0.02533443898457055 -0.09039382109709973 
-0.06159787578377448 -0.1266359851032780 -0.1080545400332992 -0.03760808127164536 -0.1155588395787811 
0.08542712447659333 -0.07566217652429352 -0.07450500991687295 -0.07671003166376207 -0.07559731818174797 
0 0 0 0 0 
0.03768437353044110 -0.05763098675035980 -0.07251328211138520 -0.06260504748586689 -0.05563241062991608 
0.03510317556661609 -0.04363051456223489 -0.04264567759435663 -0.04365195503068386 -0.02876447400246475 
0.1099908336617947 -0.09034888723790128 -0.1314900431133418 -0.1347488895511059 -0.1340437086839051 
0 0 0 0 0 
0.04714386063056201 -0.04085273696314049 -0.03973400366123538 -0.04081717374115536 -0.04067059434130402 
0.07718679090062860 -0.06838498081069971 -0.06756333346747094 -0.06785469832888380 -0.06784777543461827 
0.04714386063056201 -0.04085273696314049 -0.03973400366123538 -0.04081717374115536 -0.04067059434130402 
0.04714386063056201 -0.04085273696314049 -0.03973400366123538 -0.04081717374115536 -0.04067059434130402 
0.0004738385631590052 -0.1155636911796814 -0.1158656615445478 -0.04743825740145659 -0.05096277251042433 
0 0 0 0 0 
-0.02016324320148095 -0.04209092232397398 -0.08474006278827420 -0.01295019572831471 -0.08528326865835541 
0 0 0 0 0 
0.04714386063056201 -0.04085273696314049 -0.03973400366123538 -0.04081717374115536 -0.04067059434130402 
0 0 0 0 0 
-0.05195027834466633 -0.008118075543379052 -0.1110417027250590 -0.1127037199576501 -0.03694196249771922 
0 0 0 0 0 
0.04714386063056201 -0.04085273696314049 -0.03973400366123538 -0.04081717374115536 -0.04067059434130402 
0.04714386063056201 -0.04085273696314049 -0.03973400366123538 -0.04081717374115536 -0.04067059434130402 
0.03533622140224606 -0.04327406175663484 -0.02803576948599683 -0.04332692900933590 -0.04312345949304963 
0.08443308091459390 -0.07316588839895233 -0.07116227439411264 -0.07310219585533600 -0.07283967704244020 
0.04714386063056201 -0.04085273696314049 -0.03973400366123538 -0.04081717374115536 -0.04067059434130402 
0.02315464474625505 -0.05501069017916161 -0.05415128154820893 -0.05504153387870291 -0.01576986424888832 
0.04714386063056201 -0.04085273696314049 -0.03973400366123538 -0.04081717374115536 -0.04067059434130402 
0.04714386063056201 -0.04085273696314049 -0.03973400366123538 -0.04081717374115536 -0.04067059434130402 
0.04953071888635870 -0.04146743548216389 -0.05991400748896654 -0.06096065139639879 -0.06085174754408040 
0.04714386063056201 -0.04085273696314049 -0.03973400366123538 -0.04081717374115536 -0.04067059434130402 
0.03533079085810040 -0.07443975775612512 -0.07269429144272527 -0.02478442471802259 -0.07359979168623552 
0.05036704953888740 -0.07315988290458608 -0.07221043304221773 -0.05972460060268624 -0.05274858739243719 
0.04714386063056201 -0.04085273696314049 -0.03973400366123538 -0.04081717374115536 -0.04067059434130402 
0.07481429580915283 -0.06305988710117542 -0.08025214633351920 -0.08416141056843034 -0.08066263457557854 
0 0 0 0 0 
0 0 0 0 0 
0.03312455408019887 -0.02863672331653964 -0.02871086630734182 -0.03042486040562176 -0.02891670632665394 
0.02370939591756171 -0.04667324188730106 -0.1089196254043433 -0.1003391694204078 -0.07917568673138876 
0 0 0 0 0 
0.01394407978921572 -0.005573311966185796 -0.06945221547988815 -0.07069650482823824 -0.06916129040661270 
0 0 0 0 0 
0.03312455408019887 -0.02863672331653964 -0.02871086630734182 -0.03042486040562176 -0.02891670632665394 
0 0 0 0 0 
0 0 0 0 0 
0.03312455408019887 -0.02863672331653964 -0.02871086630734182 -0.03042486040562176 -0.02891670632665394 
-0.02095943747568029 -0.03938193782938117 -0.06211483079600973 -0.03842349179611285 -0.01889810697496849 
0.01099439223844254 -0.04207346548012622 -0.04204527294729867 -0.04350286946420576 -0.004342388211773689 
-0.02756095846565912 0.01495637024094315 -0.05031797482206030 -0.07145680941170462 -0.06946508404922641 
0.01069308555060222 -0.004921929377229770 -0.04420621152812227 -0.04595034494001764 -0.04427357953963923 
0 0 0 0 0 
0.03312455408019887 -0.02863672331653964 -0.02871086630734182 -0.03042486040562176 -0.02891670632665394 
0 0 0 0 0 
0.02117846392932414 -0.1463311245257030 -0.1385134160209572 -0.1259281319275828 -0.1292571604614068 
-0.04438608523914474 0.01231552746510794 -0.1304569218651252 -0.1085083813920013 -0.1070778135758062 
0.03727089607858359 -0.04408081326225836 -0.04486172030616621 -0.03212544943478986 -0.04391534879661384 
-0.009162667858547469 -0.05452948983508022 -0.05544742216389739 -0.003064276215312526 -0.03596900997503003 
0 0 0 0 0 
0 0 0 0 0 
0.04508822690785294 -0.03969040699872678 -0.03986895128780273 -0.04157896525907459 -0.03996408999100610 
0 0 0 0 0 
0.03312455408019887 -0.02863672331653964 -0.02871086630734182 -0.03042486040562176 -0.02891670632665394 
-0.02390902074618439 -0.07752369979492700 -0.07629022432051659 0.03227561181440656 -0.07535126942956481 
0.05395444632517847 -0.1413842089613176 -0.06123869724677186 -0.1449240580151524 -0.1164684282488892 
-0.04043973424755093 -0.1306033771419773 -0.03619579281140197 -0.1084590381162812 -0.1657762926786731 
0.03312455408019887 -0.02863672331653964 -0.02871086630734182 -0.03042486040562176 -0.02891670632665394 
0.1312290793970367 -0.1345917377398776 -0.1484001844192893 -0.1485501351741924 -0.1275170384152670 
0.008238573006832893 0.001239442191093423 -0.07300341828173779 -0.07523803123464030 -0.07428611597391425 
-0.005016050444128647 -0.05497559428352677 -0.05429312819592223 -0.02707182038788629 -0.01809396396399740 
0.05368906660511399 -0.04755118608874891 -0.04731887413777079 -0.04893308953850141 -0.04724466239356316 
0.003549412165224022 -0.04508415238921502 -0.04493335091675123 -0.03277351359669142 -0.01031523347438810 
-0.01343747912447177 -0.06401556801646233 -0.06459533454342749 0.02188535317456470 -0.06351819921059702 
0.03312455408019887 -0.02863672331653964 -0.02871086630734182 -0.03042486040562176 -0.02891670632665394 
0.03944743949448786 -0.08028448802115415 -0.08156153773428662 -0.03058893966225099 -0.07992716005532614 
0.03312455408019887 -0.02863672331653964 -0.02871086630734182 -0.03042486040562176 -0.02891670632665394 
-0.01651332151516204 -0.06139508536222487 -0.06295992707744892 -0.06304192296637691 0.02442320536959968 
0.04641029872274923 -0.08062957209995665 -0.08122325899917610 -0.08369403052836923 -0.03636945929764452 
0.03312455408019887 -0.02863672331653964 -0.02871086630734182 -0.03042486040562176 -0.02891670632665394 
0.06740531477384346 -0.09228835557597366 -0.08832997913260353 -0.09151780803987501 -0.05560669441395479 
0.006275569530598358 -0.04797829437940769 -0.04760651754699631 -0.002946697384894084 -0.04810065812154817 
-0.007600082552616167 -0.01074523430420301 -0.05328504453604292 -0.03016056325039546 -0.05330147710544660 
-0.08874878852133180 -0.1358501413651239 -0.1000698505539691 0.01086572534175745 -0.07420162197110948 
0.03312455408019887 -0.02863672331653964 -0.02871086630734182 -0.03042486040562176 -0.02891670632665394 
-0.01116574266757728 -0.06800353743309315 -0.06823447526630502 -0.04301722736831861 -0.007701560149237589 
0.03312455408019887 -0.02863672331653964 -0.02871086630734182 -0.03042486040562176 -0.02891670632665394 
0 0 0 0 0 
0 0 0 0 0 
-0.1123304460653228 -0.1690936649960006 -0.09552140229830706 -0.09311048934379618 -0.1573957648292250 
-0.03157996049666767 -0.08032979839233409 -0.08321502623617547 0.04461545110626046 -0.07946691695394814 
0.002634565255959787 -0.04730071104126182 -0.04775648171538827 0.002248987810542885 -0.04758806307319670 
0.04480704674032488 -0.05639779538488326 -0.05659478176807471 -0.05959918540539025 -0.03667796990399148 
0.007522090692023100 -0.05852335760341889 -0.07645008848200373 -0.02987636030548667 -0.06210526030516578 
-0.03919957009801622 -0.1194181018277690 -0.07400557331735926 -0.01895525010402828 -0.1319144349834900 
0 0 0 0 0 
0 0 0 0 0 
0.03312455408019887 -0.02863672331653964 -0.02871086630734182 -0.03042486040562176 -0.02891670632665394 
0.03312455408019887 -0.02863672331653964 -0.02871086630734182 -0.03042486040562176 -0.02891670632665394 
0.05936828298521382 -0.05132485978556572 -0.05145774435357098 -0.05452969171972429 -0.05182666610529078 
0 0 0 0 0 
0.03312455408019887 -0.02863672331653964 -0.02871086630734182 -0.03042486040562176 -0.02891670632665394 
0 0 0 0 0 
0.03312455408019887 -0.02863672331653964 -0.02871086630734182 -0.03042486040562176 -0.02891670632665394 
0.03312455408019887 -0.02863672331653964 -0.02871086630734182 -0.03042486040562176 -0.02891670632665394 
0 0 0 0 0 
0 0 0 0 0 
0.05475254054930549 -0.04684976591643422 -0.04819780662277304 -0.04862560959110338 -0.04682638601760171 
0.006652451398550499 -0.0002750365486011945 -0.04757852164703285 -0.04924936723578860 -0.04852779966755907 
0.03965599130289259 -0.03087893217449617 -0.07747768952584808 -0.07835820626597570 -0.07689128175645768 
0 0 0 0 0 
0.03312455408019887 -0.02863672331653964 -0.02871086630734182 -0.03042486040562176 -0.02891670632665394 
0.03312455408019887 -0.02863672331653964 -0.02871086630734182 -0.03042486040562176 -0.02891670632665394 
0.03312455408019887 -0.02863672331653964 -0.02871086630734182 -0.03042486040562176 -0.02891670632665394 
0.03312455408019887 -0.02863672331653964 -0.02871086630734182 -0.03042486040562176 -0.02891670632665394 
0.03312455408019887 -0.02863672331653964 -0.02871086630734182 -0.03042486040562176 -0.02891670632665394 
-0.08719303767163030 -0.09148828399885106 0.05594727017006416 -0.1244002724608896 -0.1014976294068029 
-0.001867443584291563 -0.1238055256635050 -0.08273591854273214 -0.02352304880666384 -0.1231809111507047 
0.02252860043111433 -0.03267341699608334 -0.03275827987366690 -0.03433009942065900 -0.01822176150628752 
0.03312455408019887 -0.02863672331653964 -0.02871086630734182 -0.03042486040562176 -0.02891670632665394 
0.03312455408019887 -0.02863672331653964 -0.02871086630734182 -0.03042486040562176 -0.02891670632665394 
0.01857585076159893 -0.03641359661846642 -0.03644203545491197 -0.03808305809078165 -0.01378661392875863 
0.05936828298521382 -0.05132485978556572 -0.05145774435357098 -0.05452969171972429 -0.05182666610529078 
-0.01922555660006412 -0.08353874623782771 -0.08331386169573138 -0.005365563544428446 -0.05180249593054485 
-0.01913489754307916 -0.06564986979099342 -0.01730860577993161 -0.02265013402766255 -0.06623445953461381 
0 0 0 0 0 
0 0 0 0 0 
0 0 0 0 0 
0.02252860043111433 -0.03267341699608334 -0.03275827987366690 -0.03433009942065900 -0.01822176150628752 
0 0 0 0 0 
0.03312455408019887 -0.02863672331653964 -0.02871086630734182 -0.03042486040562176 -0.02891670632665394 
0.03312455408019887 -0.02863672331653964 -0.02871086630734182 -0.03042486040562176 -0.02891670632665394 
0 0 0 0 0 
-0.01076194785291491 -0.05743836284851699 -0.04508120336324618 -0.05890360854591008 0.004473486065408087 
0.03312455408019887 -0.02863672331653964 -0.02871086630734182 -0.03042486040562176 -0.02891670632665394 
0.03312455408019887 -0.02863672331653964 -0.02871086630734182 -0.03042486040562176 -0.02891670632665394 
0.03312455408019887 -0.02863672331653964 -0.02871086630734182 -0.03042486040562176 -0.02891670632665394 
0 0 0 0 0 
0.05075779269741213 -0.04576495634848479 -0.04550797330159568 -0.04693797916170883 -0.04585765277389165 
0.03312455408019887 -0.02863672331653964 -0.02871086630734182 -0.03042486040562176 -0.02891670632665394 
-0.02889627902871724 -0.07149499590493620 0.009982838224087425 -0.04562406248291440 -0.07129376177929769 
-0.03394413572860183 -0.07682933587088818 -0.01962168678983793 -0.07881071371584221 -0.01190374356903566 
0.03312455408019887 -0.02863672331653964 -0.02871086630734182 -0.03042486040562176 -0.02891670632665394 
0.03312455408019887 -0.02863672331653964 -0.02871086630734182 -0.03042486040562176 -0.02891670632665394 
0.03312455408019887 -0.02863672331653964 -0.02871086630734182 -0.03042486040562176 -0.02891670632665394 
0.01099439223844254 -0.04207346548012622 -0.04204527294729867 -0.04350286946420576 -0.004342388211773689 
0.03312455408019887 -0.02863672331653964 -0.02871086630734182 -0.03042486040562176 -0.02891670632665394 
0 0 0 0 0 
0.01373380932365890 -0.09555630846062108 -0.1061213307117898 -0.1857474446911449 -0.1597069334087634 
0.03312455408019887 -0.02863672331653964 -0.02871086630734182 -0.03042486040562176 -0.02891670632665394 
-0.1076311538298029 0.1133663244968209 -0.1055854860987919 -0.1057258810538367 -0.1036828449646056 
-0.2303894429020273 0.2230903814659835 -0.2367089128109433 -0.2386954570708147 -0.2084187263875066 
-0.1511741138261865 0.1628556291030066 -0.1463158210341226 -0.1472888867833246 -0.1449362063837107 
-0.1219573271992369 0.07675237724183022 -0.1191320631126173 -0.06755150066999582 -0.1180040443760512 
-0.1076311538298029 0.1133663244968209 -0.1055854860987919 -0.1057258810538367 -0.1036828449646056 
-0.07393643277889632 0.06634367070703721 -0.1135598709913166 -0.1144922661259876 -0.09700233039492566 
-0.1076311538298029 0.1133663244968209 -0.1055854860987919 -0.1057258810538367 -0.1036828449646056 
-0.1076311538298029 0.1133663244968209 -0.1055854860987919 -0.1057258810538367 -0.1036828449646056 
-0.01821890085293111 0.007673340653110513 -0.1183041399161892 -0.1285370642195570 -0.1161893602004312 
-0.2189799322538966 -0.05416001141678908 -0.1564153038512529 -0.1582696013080838 -0.1965341589109144 
-0.1076311538298029 0.1133663244968209 -0.1055854860987919 -0.1057258810538367 -0.1036828449646056 
0 0 0 0 0 
-0.1076311538298029 0.1133663244968209 -0.1055854860987919 -0.1057258810538367 -0.1036828449646056 
-0.1255727700335490 0.09816853872069146 -0.1225306143246874 -0.1229346565383890 -0.08559162560244706 
-0.2668929823137455 0.2782299921398100 -0.2541578837818060 -0.2571700139752920 -0.2382310670563346 
0 0 0 0 0 
-0.1076311538298029 0.1133663244968209 -0.1055854860987919 -0.1057258810538367 -0.1036828449646056 
-0.1084886460739359 0.08990690207089701 -0.1065344237362520 -0.08217921785830605 -0.1049161255669663 
-0.1223210854853188 0.07716907946148195 -0.1188735618035587 -0.06556122342746568 -0.1173930708252564 
-0.1076311538298029 0.1133663244968209 -0.1055854860987919 -0.1057258810538367 -0.1036828449646056 
-0.1076311538298029 0.1133663244968209 -0.1055854860987919 -0.1057258810538367 -0.1036828449646056 
-0.1387620622379659 0.1489298390804226 -0.1341720623866184 -0.1348958393572412 -0.1327938454353479 
-0.1076311538298029 0.1133663244968209 -0.1055854860987919 -0.1057258810538367 -0.1036828449646056 
-0.1848568136146063 0.1855066157581040 -0.1710477156494156 -0.1821607397346154 -0.1790881199796856 
-0.1195639708726658 0.08005116517768382 -0.06861912302725216 -0.1167091399451778 -0.1148139362291214 
-0.1116502140663941 0.1174681040221521 -0.1092006236909156 -0.1092188518966338 -0.1074599823812097 
-0.3047134238479562 0.3308997427610266 -0.2973011895963790 -0.3028818972681135 -0.2933145247099542 
-0.1076311538298029 0.1133663244968209 -0.1055854860987919 -0.1057258810538367 -0.1036828449646056 
-0.1076311538298029 0.1133663244968209 -0.1055854860987919 -0.1057258810538367 -0.1036828449646056 
-0.1635768916882833 0.006107356997089305 -0.06119863277263397 -0.08998482406193511 -0.1585978646308111 
-0.1244170246209876 0.07396324357013027 -0.1236358327771339 -0.06305036433808775 -0.1198322463638773 
-0.1301252725138729 0.1384779435992279 -0.1680814701107445 -0.1689582424010610 -0.1666191336067427 
-0.05684923573182540 0.06273030239517956 -0.05526593567498608 -0.05667985911974850 -0.05480320562104906 
-0.09888562545017712 0.03196675522824842 -0.1237383724067626 -0.1830273845698656 -0.1533151025115553 
-0.1002085817929904 0.05996078585123428 -0.07585587901102846 -0.1306893795260027 -0.1277261447269853 
-0.1003021449653785 0.1124137109372399 -0.09739923501481800 -0.1003706584004638 -0.09659999015824460 
-0.2388508157888983 0.2609664579050172 -0.2321166547871043 -0.2358695251491432 -0.2292282661659916 
-0.2662726842469525 0.2238658883450626 -0.2508705692418369 -0.2259916791004803 -0.2451440319464891 
-0.06102412188899541 0.07230089894975701 -0.1001494033256506 -0.1029587486189709 -0.1002689048324783 
0 0 0 0 0 
0 0 0 0 0 
-0.06421971095052482 0.05393314110270178 -0.06279570745986131 -0.04750242257315689 -0.06184328649614803 
-0.05207943828847556 0.05700388484581241 -0.05073947222035479 -0.05192712592085121 -0.05012125495395394 
0 0 0 0 0 
-0.06571232432184730 0.07187558223302952 -0.06396462149405918 -0.06523695270332765 -0.06329301432971883 
-0.01180219260764927 0.01992990646885079 -0.07675910172936327 -0.07684272187875724 -0.07543617370407446 
0 0 0 0 0 
0 0 0 0 0 
0 0 0 0 0 
-0.05207943828847556 0.05700388484581241 -0.05073947222035479 -0.05192712592085121 -0.05012125495395394 
-0.09320434409751112 0.1020174155610986 -0.09080626411438360 -0.09293175716514576 -0.08969986710400343 
-0.05207943828847556 0.05700388484581241 -0.05073947222035479 -0.05192712592085121 -0.05012125495395394 
-0.09047214472925487 0.03902025458345410 -0.08763537382950320 -0.08844566298099342 -0.02969075379419411 
-0.09320434409751112 0.1020174155610986 -0.09080626411438360 -0.09293175716514576 -0.08969986710400343 
-0.1161512400879100 0.04297195362197243 -0.04622536099195460 -0.1358602624334279 -0.1320704430414146 
0 0 0 0 0 
-0.06024593946645323 0.06537636804403209 -0.05903956507943265 -0.06022672092613263 -0.05846153419750898 
0 0 0 0 0 
-0.05207943828847556 0.05700388484581241 -0.05073947222035479 -0.05192712592085121 -0.05012125495395394 
-0.05894073712164859 0.03021945039455766 -0.05718024664256730 -0.05882698053975858 -0.02258409446485724 
0 0 0 0 0 
-0.07973404778239775 0.01853507390787132 -0.008798078143932388 -0.07955042654158619 -0.07781308279880739 
0 0 0 0 0 
-0.01891165736741603 0.02478625717427112 -0.07163742765574373 -0.07280765875996473 -0.07132301995478485 
-0.05782955911085059 0.04038391499179285 -0.05620044542084887 -0.05736966585409166 -0.03280604871883822 
-0.05207943828847556 0.05700388484581241 -0.05073947222035479 -0.05192712592085121 -0.05012125495395394 
0 0 0 0 0 
-0.05207943828847556 0.05700388484581241 -0.05073947222035479 -0.05192712592085121 -0.05012125495395394 
-0.05207943828847556 0.05700388484581241 -0.05073947222035479 -0.05192712592085121 -0.05012125495395394 
-0.05387680944133518 0.04412409461417594 -0.05251668983960380 -0.05361670718396900 -0.03724119629636710 
0 0 0 0 0 
-0.07513609728035595 0.01524466803274014 -0.06012884337599566 -0.07451404063053763 -0.01973953290987634 
0 0 0 0 0 
-0.02869526571250949 0.03811259320010824 -0.07440990581407518 -0.07600662506227408 -0.07318985667755150 
-0.01180219260764927 0.01992990646885079 -0.07675910172936327 -0.07684272187875724 -0.07543617370407446 
-0.09320434409751112 0.1020174155610986 -0.09080626411438360 -0.09293175716514576 -0.08969986710400343 
-0.08928129473736925 -0.01339424837118292 -0.04875821746509679 -0.01583406764280744 -0.08622723564828890 
0 0 0 0 0 
-0.05544613475514185 0.04201239165996872 -0.05388667191732603 -0.05531590143604952 -0.03476871948483271 
-0.1160201757455061 -0.1164991970805606 -0.06746891746673066 -0.1345278043657772 -0.1228067252611317 
-0.07307029561064912 0.02600251783563147 -0.01555220521332303 -0.07272229814501925 -0.06996514615907261 
-0.05544613475514185 0.04201239165996872 -0.05388667191732603 -0.05531590143604952 -0.03476871948483271 
-0.05383435382431938 0.04409402406709164 -0.05239233487004502 -0.03875720627633776 -0.05183758070520402 
0.01611397728830306 -0.005326502103818326 -0.09742833751486425 -0.1005090300384531 -0.1002703585609904 
-0.05207943828847556 0.05700388484581241 -0.05073947222035479 -0.05192712592085121 -0.05012125495395394 
-0.1429921934027596 -0.1402045765383003 0.1215053568348560 -0.1713683309153172 -0.1695998845626862 
-0.04292322126970146 -0.1067535334429090 -0.04609629856563484 -0.1079680531053845 -0.01287054453843440 
-0.04511355152277127 -0.04445787356577451 0.04654777836660569 -0.04533433482532981 -0.04488268439220457 
-0.07496068464853527 -0.07335033761172431 -0.003154770220539641 0.007743977667529095 -0.07366157291688243 
0 0 0 0 0 
0 0 0 0 0 
-0.04992781304486287 -0.1322657198488116 -0.1058792654308477 -0.1028631530970228 -0.07128071818929031 
-0.04511355152277127 -0.04445787356577451 0.04654777836660569 -0.04533433482532981 -0.04488268439220457 
-0.04355902739053421 -0.06243372796332996 0.01178323177744502 -0.02783939672988249 -0.06281482420613513 
0 0 0 0 0 
0 0 0 0 0 
-0.04511355152277127 -0.04445787356577451 0.04654777836660569 -0.04533433482532981 -0.04488268439220457 
0 0 0 0 0 
-0.04511355152277127 -0.04445787356577451 0.04654777836660569 -0.04533433482532981 -0.04488268439220457 
-0.04511355152277127 -0.04445787356577451 0.04654777836660569 -0.04533433482532981 -0.04488268439220457 
0 0 0 0 0 
-0.1375864604701585 -0.1355867861757073 0.1419605385086580 -0.1382598012315173 -0.1368823662399018 
-0.04511355152277127 -0.04445787356577451 0.04654777836660569 -0.04533433482532981 -0.04488268439220457 
-0.05612655337118947 -0.05539130774356750 0.02599583718841212 -0.05627143789643402 -0.02386750380199434 
-0.07776725528265810 -0.09367083516481003 -0.03343765865297497 -0.09407941916865027 0.02283934850279483 
-0.04511355152277127 -0.04445787356577451 0.04654777836660569 -0.04533433482532981 -0.04488268439220457 
-0.04511355152277127 -0.04445787356577451 0.04654777836660569 -0.04533433482532981 -0.04488268439220457 
-0.06321217533209894 -0.06139419260681337 0.06762402697098320 -0.06264677172867368 -0.06133873969487425 
-0.04511355152277127 -0.04445787356577451 0.04654777836660569 -0.04533433482532981 -0.04488268439220457 
-0.06321217533209894 -0.06139419260681337 0.06762402697098320 -0.06264677172867368 -0.06133873969487425 
0 0 0 0 0 
0 0 0 0 0 
-0.06321217533209894 -0.06139419260681337 0.06762402697098320 -0.06264677172867368 -0.06133873969487425 
-0.04511355152277127 -0.04445787356577451 0.04654777836660569 -0.04533433482532981 -0.04488268439220457 
-0.02854682935495747 -0.04991028910397281 0.03121777809348391 -0.05081390457725592 -0.05030958668527588 
-0.1389200925082006 -0.1343664143552620 0.06445702818717866 -0.1350725531148625 -0.05033010695231032 
-0.04511355152277127 -0.04445787356577451 0.04654777836660569 -0.04533433482532981 -0.04488268439220457 
-0.05293875339787631 -0.05211294099131875 0.05498294481884752 -0.05288108077471990 -0.05248089155360813 
0 0 0 0 0 
-0.04511355152277127 -0.04445787356577451 0.04654777836660569 -0.04533433482532981 -0.04488268439220457 
-0.04511355152277127 -0.04445787356577451 0.04654777836660569 -0.04533433482532981 -0.04488268439220457 
0 0 0 0 0 
0 0 0 0 0 
-0.1396778992428970 -0.1354996460246719 0.0008661341534321086 0.01697285047332598 -0.1335074194104668 
0 0 0 0 0 
0 0 0 0 0 
-0.1136390066351582 -0.1126185594119191 0.1223278266597150 -0.1141079823776189 -0.1126364100594278 
0 0 0 0 0 
-0.04511355152277127 -0.04445787356577451 0.04654777836660569 -0.04533433482532981 -0.04488268439220457 
-0.03181276487406882 -0.08658793621949650 0.03970045234547551 -0.08928227615582966 -0.08656078974458903 
-0.04511355152277127 -0.04445787356577451 0.04654777836660569 -0.04533433482532981 -0.04488268439220457 
-0.04511355152277127 -0.04445787356577451 0.04654777836660569 -0.04533433482532981 -0.04488268439220457 
-0.04511355152277127 -0.04445787356577451 0.04654777836660569 -0.04533433482532981 -0.04488268439220457 
-0.04511355152277127 -0.04445787356577451 0.04654777836660569 -0.04533433482532981 -0.04488268439220457 
-0.04511355152277127 -0.04445787356577451 0.04654777836660569 -0.04533433482532981 -0.04488268439220457 
-0.06213314623626352 -0.1014721011810732 0.07287116685358211 -0.1035163694772999 -0.1019363246706787 
-0.04511355152277127 -0.04445787356577451 0.04654777836660569 -0.04533433482532981 -0.04488268439220457 
-0.04511355152277127 -0.04445787356577451 0.04654777836660569 -0.04533433482532981 -0.04488268439220457 
0 0 0 0 0 
0 0 0 0 0 
0 0 0 0 0 
-0.04511355152277127 -0.04445787356577451 0.04654777836660569 -0.04533433482532981 -0.04488268439220457 
-0.1407184791149724 -0.1353357315762080 0.1532112601507921 -0.1388870705551954 -0.1349558600504632 
-0.04511355152277127 -0.04445787356577451 0.04654777836660569 -0.04533433482532981 -0.04488268439220457 
0 0 0 0 0 
-0.04511355152277127 -0.04445787356577451 0.04654777836660569 -0.04533433482532981 -0.04488268439220457 
-0.04511355152277127 -0.04445787356577451 0.04654777836660569 -0.04533433482532981 -0.04488268439220457 
-0.04511355152277127 -0.04445787356577451 0.04654777836660569 -0.04533433482532981 -0.04488268439220457 
-0.07225444487566500 -0.07034149030399528 0.07830438540273733 -0.07258377393472462 -0.07053471162622028 
-0.1866735527308431 -0.1813194670621562 0.1097145897321434 -0.1514638015668061 -0.1200032429748917 
0 0 0 0 0 
-0.04511355152277127 -0.04445787356577451 0.04654777836660569 -0.04533433482532981 -0.04488268439220457 
-0.05538238199549842 -0.05388231432422597 0.02726441394943673 -0.02361555220061757 -0.05426924264998245 
-0.05498314480670553 -0.05394914677555477 0.05746228861004723 -0.05473232578294306 -0.05429871257334182 
-0.04511355152277127 -0.04445787356577451 0.04654777836660569 -0.04533433482532981 -0.04488268439220457 
-0.04511355152277127 -0.04445787356577451 0.04654777836660569 -0.04533433482532981 -0.04488268439220457 
-0.04739557927402315 -0.04650734759935064 0.04933742592156717 -0.04737807631363802 -0.04690103176105787 
-0.04511355152277127 -0.04445787356577451 0.04654777836660569 -0.04533433482532981 -0.04488268439220457 
-0.05232215245529941 -0.05148761005289890 0.05532719462982142 -0.05289225337330428 -0.05179835336022293 
-0.04511355152277127 -0.04445787356577451 0.04654777836660569 -0.04533433482532981 -0.04488268439220457 
-0.09882529474178900 -0.09596897174833158 0.1034550595467999 -0.09736645922641896 -0.09598148881774295 
-0.04511355152277127 -0.04445787356577451 0.04654777836660569 -0.04533433482532981 -0.04488268439220457 
0 0 0 0 0 
-0.07324408144482063 -0.07069157546359223 0.07887954957881070 -0.07341753865832988 -0.07124941931578736 
-0.09917936123407439 -0.09263278461652222 0.08822212072786820 -0.09469414088845235 -0.07334924504584561 
-0.06165860161273427 -0.05912090626715352 0.06392984441711258 -0.05925172628741850 -0.05878963415082657 
-0.06165860161273427 -0.05912090626715352 0.06392984441711258 -0.05925172628741850 -0.05878963415082657 
-0.06165860161273427 -0.05912090626715352 0.06392984441711258 -0.05925172628741850 -0.05878963415082657 
0 0 0 0 0 
-0.06165860161273427 -0.05912090626715352 0.06392984441711258 -0.05925172628741850 -0.05878963415082657 
0 0 0 0 0 
-0.07418750842500768 -0.07110547203304714 0.03894650761926101 -0.03264252033876901 -0.07082410264997498 
-0.05301649252788563 -0.09557848261510790 -0.002235535055007293 -0.08176794176495718 -0.04800156325010063 
-0.08752370301000159 -0.008048262426043715 0.01721514338241694 -0.08478949417574955 -0.08438960764029083 
-0.06304432567571850 -0.06059783535357098 0.04973439447523149 -0.06082805091858872 -0.04410381250469016 
-0.06716402352353543 -0.06464156719590461 0.07091984848180888 -0.06537756427558693 -0.06427426293938264 
-0.1157395532461467 -0.1233235192948988 -0.09387244579422450 -0.1295228835004298 -0.07382145267329021 
-0.04099382158581465 -0.06621118267396302 0.04430291683725551 -0.06608452279729997 -0.06562269176651435 
-0.06716402352353543 -0.06464156719590461 0.07091984848180888 -0.06537756427558693 -0.06427426293938264 
-0.07480434650942946 -0.1382925132146079 -0.1022980477017507 -0.1099845859664241 -0.1444291292621069 
-0.06165860161273427 -0.05912090626715352 0.06392984441711258 -0.05925172628741850 -0.05878963415082657 
-0.1102722449475515 -0.1057337482020732 0.1143342093176296 -0.1059677109735501 -0.1051412903940720 
0 0 0 0 0 
0 0 0 0 0 
-0.06165860161273427 -0.05912090626715352 0.06392984441711258 -0.05925172628741850 -0.05878963415082657 
-0.06165860161273427 -0.05912090626715352 0.06392984441711258 -0.05925172628741850 -0.05878963415082657 
-0.06165860161273427 -0.05912090626715352 0.06392984441711258 -0.05925172628741850 -0.05878963415082657 
0 0 0 0 0 
-0.06165860161273427 -0.05912090626715352 0.06392984441711258 -0.05925172628741850 -0.05878963415082657 
-0.1102722449475515 -0.1057337482020732 0.1143342093176296 -0.1059677109735501 -0.1051412903940720 
-0.06165860161273427 -0.05912090626715352 0.06392984441711258 -0.05925172628741850 -0.05878963415082657 
-0.06165860161273427 -0.05912090626715352 0.06392984441711258 -0.05925172628741850 -0.05878963415082657 
-0.06165860161273427 -0.05912090626715352 0.06392984441711258 -0.05925172628741850 -0.05878963415082657 
-0.05041435678830222 -0.1442421144092104 0.06516608340473515 -0.1467570972248499 -0.1442147214430187 
0 0 0 0 0 
-0.06165860161273427 -0.05912090626715352 0.06392984441711258 -0.05925172628741850 -0.05878963415082657 
-0.06165860161273427 -0.05912090626715352 0.06392984441711258 -0.05925172628741850 -0.05878963415082657 
-0.06165860161273427 -0.05912090626715352 0.06392984441711258 -0.05925172628741850 -0.05878963415082657 
-0.06165860161273427 -0.05912090626715352 0.06392984441711258 -0.05925172628741850 -0.05878963415082657 
-0.04099382158581465 -0.06621118267396302 0.04430291683725551 -0.06608452279729997 -0.06562269176651435 
-0.06165860161273427 -0.05912090626715352 0.06392984441711258 -0.05925172628741850 -0.05878963415082657 
0 0 0 0 0 
-0.09396995995600171 -0.03057765804400198 -0.02147539211344548 -0.1326278078956215 -0.1066887701357017 
-0.09783384190013104 -0.09146530008929654 0.1062675371103718 -0.09367011955253621 -0.09184995801207742 
-0.02630862478743611 -0.1250018167741159 -0.05898628087158996 -0.05428484688351138 -0.09872277383417581 
0 0 0 0 0 
-0.06165860161273427 -0.05912090626715352 0.06392984441711258 -0.05925172628741850 -0.05878963415082657 
0 0 0 0 0 
-0.07240314109920180 -0.1007117859714046 0.0003811058290545915 -0.02288546198071112 -0.09965445099049994 
-0.06165860161273427 -0.05912090626715352 0.06392984441711258 -0.05925172628741850 -0.05878963415082657 
0 0 0 0 0 
-0.08190762790433169 -0.07860721748606511 0.08648017852289017 -0.07905245255372396 -0.07854386712432476 
-0.08463289595990318 -0.01128745201765070 0.02081500632676756 -0.08159184961091862 -0.08008267474579012 
-0.06165860161273427 -0.05912090626715352 0.06392984441711258 -0.05925172628741850 -0.05878963415082657 
-0.06165860161273427 -0.05912090626715352 0.06392984441711258 -0.05925172628741850 -0.05878963415082657 
-0.07745111119988143 -0.04942799863475354 0.02650613760955628 -0.04633181695065461 -0.07441136801391020 
-0.06642324584740454 -0.06375793717033948 0.04663641608394977 -0.06394137190739128 -0.04058280827210381 
-0.05099242707423119 -0.09419362510230186 -0.01009230175471081 -0.08683881267329860 -0.07863629686585334 
-0.1069458840357769 -0.1278367741082066 0.001105746691208708 -0.009944263587999103 -0.1267708766446080 
0 0 0 0 0 
-0.09159228751385337 -0.07413836319437624 0.009864643562450155 -0.08958605514197143 -0.01311365081503197 
-0.1767914050256229 -0.1704099293034839 0.1927322091204330 -0.1720487271782260 -0.1717176148295217 
-0.02967675862577270 -0.02853417006316629 0.03250460445114617 -0.02889987239630295 -0.02879485534706454 
-0.004672875939132555 -0.04546063591822722 0.009736333704293965 -0.04561006967970684 -0.04514791930151366 
-0.02414861715082233 -0.02935228952972979 -0.004981451065808797 -0.03907146456283352 -0.05090358144557195 
0 0 0 0 0 
-0.07318822693085668 -0.07037039793331863 0.08016220359059775 -0.07127228569283649 -0.07101329475220879 
0 0 0 0 0 
0 0 0 0 0 
0 0 0 0 0 
0 0 0 0 0 
-0.1374193685468376 -0.1321898234124148 0.1507417111194403 -0.1338145880128692 -0.1330701565307745 
-0.02967675862577270 -0.02853417006316629 0.03250460445114617 -0.02889987239630295 -0.02879485534706454 
-0.08960661944810222 -0.08942008732185082 -0.1024156844110309 -0.1033459167181358 -0.004836746866919727 
-0.07318822693085668 -0.07037039793331863 0.08016220359059775 -0.07127228569283649 -0.07101329475220879 
-0.02967675862577270 -0.02853417006316629 0.03250460445114617 -0.02889987239630295 -0.02879485534706454 
-0.02967675862577270 -0.02853417006316629 0.03250460445114617 -0.02889987239630295 -0.02879485534706454 
-0.02967675862577270 -0.02853417006316629 0.03250460445114617 -0.02889987239630295 -0.02879485534706454 
-0.05318174556825986 -0.05113418858968312 0.05824934001439561 -0.05178953942094618 -0.05160134535085403 
0 0 0 0 0 
-0.06045161211356900 -0.03204626203999447 -0.007363376395759774 -0.01065529496467832 -0.05858684788547024 
0 0 0 0 0 
-0.02967675862577270 -0.02853417006316629 0.03250460445114617 -0.02889987239630295 -0.02879485534706454 
-0.05293617899057636 -0.1255885653102269 -0.04612489183975642 -0.1820246167558206 -0.1174212804079495 
-0.02967675862577270 -0.02853417006316629 0.03250460445114617 -0.02889987239630295 -0.02879485534706454 
0 0 0 0 0 
-0.03909297716370047 -0.03783063217983187 0.04238663854471252 -0.03814071265081222 -0.03805137816369527 
-0.02967675862577270 -0.02853417006316629 0.03250460445114617 -0.02889987239630295 -0.02879485534706454 
0 0 0 0 0 
0 0 0 0 0 
-0.05318174556825986 -0.05113418858968312 0.05824934001439561 -0.05178953942094618 -0.05160134535085403 
-0.02967675862577270 -0.02853417006316629 0.03250460445114617 -0.02889987239630295 -0.02879485534706454 
0 0 0 0 0 
0 0 0 0 0 
-0.02967675862577270 -0.02853417006316629 0.03250460445114617 -0.02889987239630295 -0.02879485534706454 
0 0 0 0 0 
-0.06911994485754212 -0.08948292899608677 -0.0007628320197503948 -0.007880531486674190 -0.08855033301528141 
-0.02967675862577270 -0.02853417006316629 0.03250460445114617 -0.02889987239630295 -0.02879485534706454 
0 0 0 0 0 
0 0 0 0 0 
-0.02967675862577270 -0.02853417006316629 0.03250460445114617 -0.02889987239630295 -0.02879485534706454 
0 0 0 0 0 
-0.02967675862577270 -0.02853417006316629 0.03250460445114617 -0.02889987239630295 -0.02879485534706454 
-0.02967675862577270 -0.02853417006316629 0.03250460445114617 -0.02889987239630295 -0.02879485534706454 
-0.05318174556825986 -0.05113418858968312 0.05824934001439561 -0.05178953942094618 -0.05160134535085403 
0 0 0 0 0 
0 0 0 0 0 
-0.05521133497277184 -0.05305528012623787 0.06046719721446815 -0.05373494352544973 -0.05349598077361365 
-0.09446732523104673 0.05368351759038028 -0.04133608297588227 -0.09255729420295500 -0.09110423421874994 
-0.05807213702468014 -0.05712539254033863 0.04574286558196326 -0.05659422612647071 -0.03948374447270463 
0 0 0 0 0 
-0.02967675862577270 -0.02853417006316629 0.03250460445114617 -0.02889987239630295 -0.02879485534706454 
-0.02967675862577270 -0.02853417006316629 0.03250460445114617 -0.02889987239630295 -0.02879485534706454 
-0.05733197144405574 -0.05506810898418551 0.06278548598096717 -0.05577330335147555 -0.05548927399160285 
0 0 0 0 0 
0 0 0 0 0 
-0.03918539460696863 -0.1044053114690196 0.04894126330221488 -0.1062854819070459 -0.1049816805341352 
-0.02967675862577270 -0.02853417006316629 0.03250460445114617 -0.02889987239630295 -0.02879485534706454 
-0.003770057342288496 -0.04666653055446830 0.007903378142114257 -0.04686614061890849 -0.04652629091688175 
0 0 0 0 0 
0 0 0 0 0 
-0.02967675862577270 -0.02853417006316629 0.03250460445114617 -0.02889987239630295 -0.02879485534706454 
-0.04288866820013446 -0.04541434035711298 0.02713121241160579 -0.06753331862570856 -0.06723013081523349 
0 0 0 0 0 
0 0 0 0 0 
-0.05318174556825986 -0.05113418858968312 0.05824934001439561 -0.05178953942094618 -0.05160134535085403 
-0.05318174556825986 -0.05113418858968312 0.05824934001439561 -0.05178953942094618 -0.05160134535085403 
0 0 0 0 0 
-0.02967675862577270 -0.02853417006316629 0.03250460445114617 -0.02889987239630295 -0.02879485534706454 
0 0 0 0 0 
-0.1067083451465777 -0.1024238854825997 0.1193387996585143 -0.1053809420954848 -0.1019635287716365 
-0.07154903805461088 -0.06845717391551995 0.02410184738320434 -0.01432924098406103 -0.06899255262141953 
-0.02967675862577270 -0.02853417006316629 0.03250460445114617 -0.02889987239630295 -0.02879485534706454 
0 0 0 0 0 
0.03540233786237323 -0.08305550848987220 -0.1290347769143083 -0.1622930657139188 -0.1260591015541544 
-0.06879020833146424 0.02161611548558924 -0.01028027045114211 -0.06593706123847570 -0.06557420262081773 
-0.04665844340672412 -0.06771937194915345 -0.02364635471683322 -0.02541080789437733 -0.03247133001505433 
0 0 0 0 0 
0 0 0 0 0 
0 0 0 0 0 
-0.01911555478790861 -0.01828852383942603 0.02092165906975077 -0.01852198891610454 -0.01832359734313943 
-0.04186535822798867 -0.04026321257951476 0.03440580893068429 -0.02932612777841374 -0.04023185630128404 
-0.01911555478790861 -0.01828852383942603 0.02092165906975077 -0.01852198891610454 -0.01832359734313943 
0.03488066077393715 -0.07014340442675109 -0.02857235394895581 -0.07018174072105447 -0.06961671261157519 
-0.007739521240331981 -0.007404672282861928 0.008470778198692082 -0.007499197811410647 -0.007418872871334224 
-0.02658124553216364 0.002259427439674719 0.0006764778671248012 -0.02552282144739588 -0.02545889278640620 
-0.007739521240331981 -0.007404672282861928 0.008470778198692082 -0.007499197811410647 -0.007418872871334224 
0 0 0 0 0 
-0.007739521240331981 -0.007404672282861928 0.008470778198692082 -0.007499197811410647 -0.007418872871334224 
0 0 0 0 0 
0.03059092483913205 -0.07757029398659551 -0.08362963209579131 -0.04571707607598644 -0.09205995327517266 
-0.007739521240331981 -0.007404672282861928 0.008470778198692082 -0.007499197811410647 -0.007418872871334224 
-0.007739521240331981 -0.007404672282861928 0.008470778198692082 -0.007499197811410647 -0.007418872871334224 
-0.007739521240331981 -0.007404672282861928 0.008470778198692082 -0.007499197811410647 -0.007418872871334224 
-0.007739521240331981 -0.007404672282861928 0.008470778198692082 -0.007499197811410647 -0.007418872871334224 
-0.05438293721181256 -0.1103767493652119 -0.05320643278159377 -0.08527380702107645 -0.01697867590656580 
-0.01751522371222340 -0.01673158349133104 -0.002578146871832306 -0.01709777818395216 0.005234002987300718 
0 0 0 0 0 
-0.02186642819925005 -0.02065409276903032 -0.006881991074033834 0.01031388126109341 -0.02067280347596240 
-0.01387962547777478 -0.01327912604415500 0.01519102089809662 -0.01344864285192703 -0.01330459258703783 
-0.007739521240331981 -0.007404672282861928 0.008470778198692082 -0.007499197811410647 -0.007418872871334224 
-0.007739521240331981 -0.007404672282861928 0.008470778198692082 -0.007499197811410647 -0.007418872871334224 
0 0 0 0 0 
-0.007739521240331981 -0.007404672282861928 0.008470778198692082 -0.007499197811410647 -0.007418872871334224 
-0.07484607455116032 0.06345494857102915 -0.05940394502524066 -0.07484177422722957 -0.07430232211047187 
-0.03137014416614666 0.0007975480316843277 -0.03284572812846312 -0.05548366213418322 -0.04079931768405985 
0 0 0 0 0 
-0.08880401265413790 -0.07424339270522484 -0.1150731374597335 -0.04087090629054861 -0.03779213090046178 
-0.007739521240331981 -0.007404672282861928 0.008470778198692082 -0.007499197811410647 -0.007418872871334224 
0 0 0 0 0 
0 0 0 0 0 
-0.007739521240331981 -0.007404672282861928 0.008470778198692082 -0.007499197811410647 -0.007418872871334224 
-0.05769708366068147 -0.05747201627445650 0.03994965262761231 -0.03486876902688526 -0.05651044853155537 
-0.007739521240331981 -0.007404672282861928 0.008470778198692082 -0.007499197811410647 -0.007418872871334224 
-0.007739521240331981 -0.007404672282861928 0.008470778198692082 -0.007499197811410647 -0.007418872871334224 
-0.03761364602448229 -0.05987150422311756 0.04383163811153711 -0.05987248554325029 -0.05924834460836845 
0 0 0 0 0 
0 0 0 0 0 
-0.1400746525721321 0.07377985279475789 -0.1284177001104434 -0.09692729823307938 -0.1126032158690263 
-0.01568199662721142 -0.01574728180396226 -0.0007888692879853971 -0.01547286312535552 0.003526869715081454 
0.01691375903554722 -0.02859047991803489 -0.01368493791051906 -0.02880533737584989 -0.02782750917060943 
-0.01010743515741262 -0.04854906096347102 -0.03263080360672638 -0.08313370151351838 -0.06499358775045154 
-0.03719686409562147 -0.004401018664029818 -0.04557315382073018 -0.05710784091075036 -0.02080367335536083 
-0.02992341429520908 -0.009262343091054727 -0.01570692503816882 -0.0004506558059058330 -0.02874228672216105 
0 0 0 0 0 
-0.007739521240331981 -0.007404672282861928 0.008470778198692082 -0.007499197811410647 -0.007418872871334224 
-0.007739521240331981 -0.007404672282861928 0.008470778198692082 -0.007499197811410647 -0.007418872871334224 
-0.1733798026578404 -0.1622671958359576 0.1955063657944820 -0.1693519208380039 -0.1630216013616551 
0 0 0 0 0 
-0.007739521240331981 -0.007404672282861928 0.008470778198692082 -0.007499197811410647 -0.007418872871334224 
0 0 0 0 0 
0 0 0 0 0 
0 0 0 0 0 
-0.09234788785031832 -0.08381219329089493 0.07193265877049292 -0.08797082077198706 -0.05329053770781182 
-0.02785471165504633 -0.02664958269826849 0.03048652195549757 -0.02698978220932410 -0.02670069093674279 
0.08812143267478374 -0.1269160502477731 -0.1971168173773032 -0.1756480375240544 -0.1872382965290795 
-0.007739521240331981 -0.007404672282861928 0.008470778198692082 -0.007499197811410647 -0.007418872871334224 
-0.007739521240331981 -0.007404672282861928 0.008470778198692082 -0.007499197811410647 -0.007418872871334224 
-0.03886321025934438 -0.03032083317338486 -0.01234811614673640 -0.05494599393919301 -0.02278390359016338 
-0.03483194208691218 -0.03415960739752350 0.03665114475243220 -0.03369715754644464 -0.03401251051178361 
-0.06756461560278765 -0.06599395290652726 0.03423378384062624 -0.06598884916845216 -0.02990741475937683 
-0.03096515831561188 -0.03007994999938248 -0.01699040630933584 -0.03013041774438893 0.02005280899935234 
-0.03275119387609567 -0.03207661046487996 -0.01884838833412040 -0.03209161394192031 0.02191847974609320 
-0.007739521240331981 -0.007404672282861928 0.008470778198692082 -0.007499197811410647 -0.007418872871334224 
0 0 0 0 0 
-0.007739521240331981 -0.007404672282861928 0.008470778198692082 -0.007499197811410647 -0.007418872871334224 
0 0 0 0 0 
0 0 0 0 0 
-0.007739521240331981 -0.007404672282861928 0.008470778198692082 -0.007499197811410647 -0.007418872871334224 
0.04355961565541233 -0.05185794373970731 -0.03950306364832927 -0.05209155718115163 -0.05150752605279582 
0.04550381488123777 -0.07699887454623566 -0.09072001891828975 -0.09818730527361194 -0.06550971007301667 
-0.007739521240331981 -0.007404672282861928 0.008470778198692082 -0.007499197811410647 -0.007418872871334224 
-0.01387962547777478 -0.01327912604415500 0.01519102089809662 -0.01344864285192703 -0.01330459258703783 
-0.02259823349570458 -0.02202358388064990 -0.007806675771162563 -0.02201243067730058 0.009698197900948240 
0 0 0 0 0 
0 0 0 0 0 
-0.007739521240331981 -0.007404672282861928 0.008470778198692082 -0.007499197811410647 -0.007418872871334224 
-0.007739521240331981 -0.007404672282861928 0.008470778198692082 -0.007499197811410647 -0.007418872871334224 
-0.007739521240331981 -0.007404672282861928 0.008470778198692082 -0.007499197811410647 -0.007418872871334224 
-0.007739521240331981 -0.007404672282861928 0.008470778198692082 -0.007499197811410647 -0.007418872871334224 
-0.01880619865905104 -0.01825938849770326 0.02118078960635086 -0.01896281991159330 -0.01820191418620289 
-0.007739521240331981 -0.007404672282861928 0.008470778198692082 -0.007499197811410647 -0.007418872871334224 
-0.007739521240331981 -0.007404672282861928 0.008470778198692082 -0.007499197811410647 -0.007418872871334224 
0 0 0 0 0 
0 0 0 0 0 
-0.01387962547777478 -0.01327912604415500 0.01519102089809662 -0.01344864285192703 -0.01330459258703783 
-0.03835605160366663 -0.03746298933491876 0.04062858962567457 -0.03711618910205317 -0.03733961441703128 
0 0 0 0 0 
-0.007739521240331981 -0.007404672282861928 0.008470778198692082 -0.007499197811410647 -0.007418872871334224 
-0.01687279039295083 -0.04075598582431735 -0.02714336493050327 0.008852355925142740 -0.04031194873495977 
0 0 0 0 0 
0 0 0 0 0 
-0.007739521240331981 -0.007404672282861928 0.008470778198692082 -0.007499197811410647 -0.007418872871334224 
-0.007739521240331981 -0.007404672282861928 0.008470778198692082 -0.007499197811410647 -0.007418872871334224 
0 0 0 0 0 
-0.007739521240331981 -0.007404672282861928 0.008470778198692082 -0.007499197811410647 -0.007418872871334224 
-0.04376159282100192 -0.1030595445029733 0.05270554583764213 -0.1036466940537480 -0.1016160241362428 
0 0 0 0 0 
0.06469649493061101 -0.07516297620550363 -0.06146660177598316 -0.07458112924193076 -0.07518555612289105 
-0.03173473515456948 -0.03070839178118631 0.002911836508271668 -0.03164669620080410 0.001970550946427466 
0 0 0 0 0 
0 0 0 0 0 
-0.005063163695274981 -0.05334175806269511 0.01047768628035533 -0.05428622026246154 -0.05329922709158218 
-0.03330615748271869 -0.03175715562829951 0.03754559741601759 -0.03287925983432524 -0.03166955695915846 
0.006485288652155390 -0.01386631343968042 -0.03339415094704121 -0.04608287028066740 -0.04546608843673890 
0 0 0 0 0 
-0.03783483552420204 -0.06057376069525583 0.04559766108667935 -0.06266262447386761 -0.06043253940776272 
0 0 0 0 0 
-0.04105890765524968 -0.03928250159649070 0.04493829644342209 -0.03978396865462348 -0.03935783708981499 
-0.007739521240331981 -0.007404672282861928 0.008470778198692082 -0.007499197811410647 -0.007418872871334224 
-0.01558403562938412 0.006731450718323237 -0.02593816129175123 -0.03975005299023439 -0.03874728636244195 
-0.007739521240331981 -0.007404672282861928 0.008470778198692082 -0.007499197811410647 -0.007418872871334224 
-0.03461942450540732 -0.03269325661487869 0.03783812664000863 -0.03369476589217917 -0.03282881848998432 
-0.01911555478790861 -0.01828852383942603 0.02092165906975077 -0.01852198891610454 -0.01832359734313943 
0 0 0 0 0 
0 0 0 0 0 
0 0 0 0 0 
-0.01387962547777478 -0.01327912604415500 0.01519102089809662 -0.01344864285192703 -0.01330459258703783 
-0.007739521240331981 -0.007404672282861928 0.008470778198692082 -0.007499197811410647 -0.007418872871334224 
-0.03864974444967543 -0.03788473113049523 -0.01392918431086524 -0.03819057670654500 0.01662732989911760 
0 0 0 0 0 
-0.01751522371222340 -0.01673158349133104 -0.002578146871832306 -0.01709777818395216 0.005234002987300718 
-0.01947068672705663 0.006936122361688893 -0.004262786574834309 -0.01881497399998818 -0.01848649466769840 
-0.01387962547777478 -0.01327912604415500 0.01519102089809662 -0.01344864285192703 -0.01330459258703783 
0 0 0 0 0 
-0.02823600329575981 -6.673128658598954e-06 -0.01399673398045451 -0.02738129098571268 -0.01000378233710508 
-0.007739521240331981 -0.007404672282861928 0.008470778198692082 -0.007499197811410647 -0.007418872871334224 
0.01132010109793631 -0.02329258956947595 -0.009035686669730690 -0.02366750620573551 -0.02328818089282167 
0.02017538543785680 -0.05068000793655601 -0.02939331874437315 -0.05143799471932658 -0.03870663926835660 
-0.02616778071725009 -0.02467160877871705 -0.01127802130871031 -0.02477726183225270 0.01466102095468200 
-0.01911555478790861 -0.01828852383942603 0.02092165906975077 -0.01852198891610454 -0.01832359734313943 
-0.007739521240331981 -0.007404672282861928 0.008470778198692082 -0.007499197811410647 -0.007418872871334224 
-0.01387962547777478 -0.01327912604415500 0.01519102089809662 -0.01344864285192703 -0.01330459258703783 
-0.04933701178258441 -0.04800935721540877 -0.03416424058748581 0.03925849757197696 -0.04810486110858031 
-0.01387962547777478 -0.01327912604415500 0.01519102089809662 -0.01344864285192703 -0.01330459258703783 
-0.007739521240331981 -0.007404672282861928 0.008470778198692082 -0.007499197811410647 -0.007418872871334224 
-0.007739521240331981 -0.007404672282861928 0.008470778198692082 -0.007499197811410647 -0.007418872871334224 
-0.007739521240331981 -0.007404672282861928 0.008470778198692082 -0.007499197811410647 -0.007418872871334224 
0 0 0 0 0 
0 0 0 0 0 
-0.007739521240331981 -0.007404672282861928 0.008470778198692082 -0.007499197811410647 -0.007418872871334224 
0 0 0 0 0 
0 0 0 0 0 
-0.01829239815160804 -0.04160625681799769 -0.03032723970073625 0.01115386168472934 -0.04164670217817316 
-0.03856980945892959 -0.03779007089249796 0.02721333715285609 -0.03741441140514905 -0.02415479323818465 
0 0 0 0 0 
0 0 0 0 0 
-0.007739521240331981 -0.007404672282861928 0.008470778198692082 -0.007499197811410647 -0.007418872871334224 
0 0 0 0 0 
-0.01510261738451391 -0.01476731188804984 -0.0008321586599364925 0.002460555522721606 -0.01463050019456666 
-0.007739521240331981 -0.007404672282861928 0.008470778198692082 -0.007499197811410647 -0.007418872871334224 
-0.007739521240331981 -0.007404672282861928 0.008470778198692082 -0.007499197811410647 -0.007418872871334224 
-0.007739521240331981 -0.007404672282861928 0.008470778198692082 -0.007499197811410647 -0.007418872871334224 
-0.007739521240331981 -0.007404672282861928 0.008470778198692082 -0.007499197811410647 -0.007418872871334224 
-0.007739521240331981 -0.007404672282861928 0.008470778198692082 -0.007499197811410647 -0.007418872871334224 
-0.05497013611311572 -0.05237992172372002 0.06156764920259608 -0.05457971678803313 -0.05249958813415705 
0.03694254665592977 -0.09025421576292780 -0.08022600640459343 -0.04925848397382847 -0.07641479596442471 
0 0 0 0 0 
-0.09492876257717686 -0.09241437260683118 0.1036644952540937 -0.09295899127054696 -0.09187478368292663 
0 0 0 0 0 
-0.007739521240331981 -0.007404672282861928 0.008470778198692082 -0.007499197811410647 -0.007418872871334224 
-0.007739521240331981 -0.007404672282861928 0.008470778198692082 -0.007499197811410647 -0.007418872871334224 
0 0 0 0 0 
0 0 0 0 0 
0 0 0 0 0 
0 0 0 0 0 
-0.01911555478790861 -0.01828852383942603 0.02092165906975077 -0.01852198891610454 -0.01832359734313943 
0 0 0 0 0 
0.01251005784973221 -0.03551468511019918 -0.01016461047311254 -0.03589168717736966 -0.03535383513106615 
0 0 0 0 0 
0 0 0 0 0 
-0.04612912601954442 -0.007043583691969646 -0.03232389181010562 0.0009035044028557280 -0.04485098483459887 
-0.007739521240331981 -0.007404672282861928 0.008470778198692082 -0.007499197811410647 -0.007418872871334224 
-0.007739521240331981 -0.007404672282861928 0.008470778198692082 -0.007499197811410647 -0.007418872871334224 
0 0 0 0 0 
-0.05481209033721026 -0.05382083465141562 0.05999245620485677 -0.05481322570354578 -0.05323112768515171 
-0.007739521240331981 -0.007404672282861928 0.008470778198692082 -0.007499197811410647 -0.007418872871334224 
-0.01387962547777478 -0.01327912604415500 0.01519102089809662 -0.01344864285192703 -0.01330459258703783 
-0.02866142418395258 -0.02807552939074676 -0.01381477198363223 -0.02792902382383944 0.01714982763599611 
0 0 0 0 0 
0 0 0 0 0 
-0.1028564839355657 -0.1301782574485737 -0.1209977817451678 0.1082036168078681 -0.1290812736720172 
-0.007739521240331981 -0.007404672282861928 0.008470778198692082 -0.007499197811410647 -0.007418872871334224 
-0.007739521240331981 -0.007404672282861928 0.008470778198692082 -0.007499197811410647 -0.007418872871334224 
-0.01510261738451391 -0.01476731188804984 -0.0008321586599364925 0.002460555522721606 -0.01463050019456666 
0 0 0 0 0 
-0.007739521240331981 -0.007404672282861928 0.008470778198692082 -0.007499197811410647 -0.007418872871334224 
-0.03555287165658743 -0.03532924636312543 0.03842963613532656 -0.03510780781391847 -0.03532798821961454 
-0.01568199662721142 -0.01574728180396226 -0.0007888692879853971 -0.01547286312535552 0.003526869715081454 
-0.007739521240331981 -0.007404672282861928 0.008470778198692082 -0.007499197811410647 -0.007418872871334224 
-0.02616778071725009 -0.02467160877871705 -0.01127802130871031 -0.02477726183225270 0.01466102095468200 
0.01691375903554722 -0.02859047991803489 -0.01368493791051906 -0.02880533737584989 -0.02782750917060943 
-0.007739521240331981 -0.007404672282861928 0.008470778198692082 -0.007499197811410647 -0.007418872871334224 
-0.007739521240331981 -0.007404672282861928 0.008470778198692082 -0.007499197811410647 -0.007418872871334224 
-0.06587525968725602 -0.01206279459635458 0.02453684233158596 -0.06428727606100800 -0.06191146188646222 
-0.09253208133657048 -0.05384572354324626 -0.09089366823244681 -0.02653997077272217 -0.08323709423718310 
-0.004147311089303754 -0.01282486412476446 -0.03575545272695081 -0.03297365965404884 -0.04509573690928143 
-0.007739521240331981 -0.007404672282861928 0.008470778198692082 -0.007499197811410647 -0.007418872871334224 
-0.007739521240331981 -0.007404672282861928 0.008470778198692082 -0.007499197811410647 -0.007418872871334224 
-0.01806542098292016 -0.01737575847213813 -0.003102642791508238 -0.01752662754339765 0.005489540481075937 
-0.01387962547777478 -0.01327912604415500 0.01519102089809662 -0.01344864285192703 -0.01330459258703783 
-0.004754097252946325 -0.004656282769768041 -0.01165368340465588 -0.02478894425825281 -0.02439548187238510 
0 0 0 0 0 
-0.01387962547777478 -0.01327912604415500 0.01519102089809662 -0.01344864285192703 -0.01330459258703783 
0.04083599731625219 -0.1038194030552970 -0.1455909282895254 -0.08397156147272279 -0.1395387747499447 
-0.007739521240331981 -0.007404672282861928 0.008470778198692082 -0.007499197811410647 -0.007418872871334224 
-0.01940504028757195 0.01594930111820838 -0.05096459084802803 -0.06506794538382818 -0.06366096393531057 
-0.01387962547777478 -0.01327912604415500 0.01519102089809662 -0.01344864285192703 -0.01330459258703783 
-0.1286276816377202 0.07379226939088530 -0.1142407706058503 -0.1246876364601853 -0.06679579119093147 
-0.03353665217055422 0.003694700059870897 -0.01931937757251243 -0.03284226896563941 -0.01203915699768629 
-0.0007102036676857011 -0.04630755960051262 -0.05429252943335839 -0.04215585074599906 -0.04774016706548530 
0 0 0 0 0 
-0.007739521240331981 -0.007404672282861928 0.008470778198692082 -0.007499197811410647 -0.007418872871334224 
-0.01911555478790861 -0.01828852383942603 0.02092165906975077 -0.01852198891610454 -0.01832359734313943 
-0.007739521240331981 -0.007404672282861928 0.008470778198692082 -0.007499197811410647 -0.007418872871334224 
-0.007739521240331981 -0.007404672282861928 0.008470778198692082 -0.007499197811410647 -0.007418872871334224 
-0.01871778425540451 -0.009810428934391184 -0.06352533194579674 -0.07455134397676919 -0.04816720904673919 
-0.01314062035402208 0.006209183382777619 -0.04513913430470903 -0.05764556096645113 -0.05753001331521736 
-0.01387962547777478 -0.01327912604415500 0.01519102089809662 -0.01344864285192703 -0.01330459258703783 
-0.007739521240331981 -0.007404672282861928 0.008470778198692082 -0.007499197811410647 -0.007418872871334224 
0 0 0 0 0 
0 0 0 0 0 
-0.08807697003844395 0.05247703590867661 -0.04734882138787286 -0.08415814582194607 -0.07363370149543110 
0 0 0 0 0 
0 0 0 0 0 
0 0 0 0 0 
0 0 0 0 0 
-0.03355241165730754 -0.02956433676672407 0.03803005634952340 -0.03171718801548418 -0.03009389437815626 
-0.007739521240331981 -0.007404672282861928 0.008470778198692082 -0.007499197811410647 -0.007418872871334224 
-0.07593445370857765 -0.02632879946978325 -0.01593521378964992 -0.03218130419756330 -0.06131804233665330 
0 0 0 0 0 
-0.007739521240331981 -0.007404672282861928 0.008470778198692082 -0.007499197811410647 -0.007418872871334224 
-0.007739521240331981 -0.007404672282861928 0.008470778198692082 -0.007499197811410647 -0.007418872871334224 
-0.007739521240331981 -0.007404672282861928 0.008470778198692082 -0.007499197811410647 -0.007418872871334224 
-0.02685921308354374 -0.02651272499655546 -0.01511553995537612 0.01780146125438534 -0.02614019976226326 
-0.007739521240331981 -0.007404672282861928 0.008470778198692082 -0.007499197811410647 -0.007418872871334224 
0 0 0 0 0 
0.008446955163333844 -0.02065256885239848 -0.006529558624399000 -0.02102253471169059 -0.02068793558117153 
-0.03330615748271869 -0.03175715562829951 0.03754559741601759 -0.03287925983432524 -0.03166955695915846 
-0.007739521240331981 -0.007404672282861928 0.008470778198692082 -0.007499197811410647 -0.007418872871334224 
0 0 0 0 0 
-0.007739521240331981 -0.007404672282861928 0.008470778198692082 -0.007499197811410647 -0.007418872871334224 
-0.02660252967800719 -0.02577595859349410 -0.01085158814919860 -0.02527292298230448 0.01436606505149594 
0 0 0 0 0 
-0.01387962547777478 -0.01327912604415500 0.01519102089809662 -0.01344864285192703 -0.01330459258703783 
-0.04137288696446972 0.03168117278066342 -0.02634710008967586 -0.03952029737726907 -0.04010165869201567 
-0.003769132887061064 -0.06938923575451585 -0.002295623123837635 -0.07039352285087760 -0.05777334750549640 
-0.1155146585584411 -0.1146837852374483 0.09858664173835699 -0.1151369809256604 -0.08929542335101799 
-0.007739521240331981 -0.007404672282861928 0.008470778198692082 -0.007499197811410647 -0.007418872871334224 
-0.007739521240331981 -0.007404672282861928 0.008470778198692082 -0.007499197811410647 -0.007418872871334224 
-0.007739521240331981 -0.007404672282861928 0.008470778198692082 -0.007499197811410647 -0.007418872871334224 
0 0 0 0 0 
-0.02938255480080005 0.01883191253029695 -0.01480052458611199 -0.02837631426718645 -0.02783925764510161 
0.03771143640482343 -0.04565156025107650 -0.03496510889147588 -0.04640017761734232 -0.04633283734987582 
-0.08735338605686939 -0.08651748178064579 -0.07362024183069743 0.09006711200988246 -0.08463437348745580 
-0.007739521240331981 -0.007404672282861928 0.008470778198692082 -0.007499197811410647 -0.007418872871334224 
-0.007739521240331981 -0.007404672282861928 0.008470778198692082 -0.007499197811410647 -0.007418872871334224 
0 0 0 0 0 
-0.007739521240331981 -0.007404672282861928 0.008470778198692082 -0.007499197811410647 -0.007418872871334224 
-0.1000356010204737 -0.1320973891259839 -0.1023947516126130 -0.04324134830294156 -0.1135093478855043 
-0.02719373744066452 -0.02634720823708022 -0.01318218875201215 0.002362325333682176 -0.01261627966067681 
-0.007739521240331981 -0.007404672282861928 0.008470778198692082 -0.007499197811410647 -0.007418872871334224 
0 0 0 0 0 
0 0 0 0 0 
0 0 0 0 0 
0 0 0 0 0 
-0.03441715236674362 -0.03023999700041498 -0.08671459036970985 -0.03465482066508241 -0.09679536793501768 
-0.01204694563869964 -0.02221831832382296 -0.03639310165703350 -0.02135481447919858 -0.04769361725965238 
-0.01911555478790861 -0.01828852383942603 0.02092165906975077 -0.01852198891610454 -0.01832359734313943 
-0.007739521240331981 -0.007404672282861928 0.008470778198692082 -0.007499197811410647 -0.007418872871334224 
-0.007739521240331981 -0.007404672282861928 0.008470778198692082 -0.007499197811410647 -0.007418872871334224 
0.008226307215689010 -0.03154973925405050 -0.005555143404476409 -0.03158759371942267 -0.03122973669401938 
-0.007739521240331981 -0.007404672282861928 0.008470778198692082 -0.007499197811410647 -0.007418872871334224 
0 0 0 0 0 
0 0 0 0 0 
-0.007739521240331981 -0.007404672282861928 0.008470778198692082 -0.007499197811410647 -0.007418872871334224 
-0.03433770542768784 -0.03303634409434520 -0.008839014485205755 -0.03328044717791490 0.01290755091792403 
-0.007739521240331981 -0.007404672282861928 0.008470778198692082 -0.007499197811410647 -0.007418872871334224 
-0.03804402718208807 0.01884457141717864 -0.05322220628423879 -0.05247609742145860 -0.06638678091132678 
0 0 0 0 0 
-0.007739521240331981 -0.007404672282861928 0.008470778198692082 -0.007499197811410647 -0.007418872871334224 
0 0 0 0 0 
-0.01387962547777478 -0.01327912604415500 0.01519102089809662 -0.01344864285192703 -0.01330459258703783 
-0.007739521240331981 -0.007404672282861928 0.008470778198692082 -0.007499197811410647 -0.007418872871334224 
-0.007739521240331981 -0.007404672282861928 0.008470778198692082 -0.007499197811410647 -0.007418872871334224 
-0.03231529573066273 -0.03161543360929438 -0.01679036992647654 0.02059634278657300 -0.03161747577741386 
0.03493472440040738 -0.08445237402085254 -0.03807820998972460 -0.08459806305677975 -0.06866853455791593 
-0.007739521240331981 -0.007404672282861928 0.008470778198692082 -0.007499197811410647 -0.007418872871334224 
-0.007739521240331981 -0.007404672282861928 0.008470778198692082 -0.007499197811410647 -0.007418872871334224 
-0.05040972484580246 -0.002016817121639844 0.007874158751656915 -0.04922813918562642 -0.04836176856416893 
-0.007739521240331981 -0.007404672282861928 0.008470778198692082 -0.007499197811410647 -0.007418872871334224 
-0.007739521240331981 -0.007404672282861928 0.008470778198692082 -0.007499197811410647 -0.007418872871334224 
-0.007739521240331981 -0.007404672282861928 0.008470778198692082 -0.007499197811410647 -0.007418872871334224 
-0.007739521240331981 -0.007404672282861928 0.008470778198692082 -0.007499197811410647 -0.007418872871334224 
0 0 0 0 0 
0 0 0 0 0 
0 0 0 0 0 
0 0 0 0 0 
0 0 0 0 0 
0 0 0 0 0 
0 0 0 0 0 
0 0 0 0 0 
0 0 0 0 0 
-0.007739521240331981 -0.007404672282861928 0.008470778198692082 -0.007499197811410647 -0.007418872871334224 
0 0 0 0 0 
-0.007739521240331981 -0.007404672282861928 0.008470778198692082 -0.007499197811410647 -0.007418872871334224 
-0.007739521240331981 -0.007404672282861928 0.008470778198692082 -0.007499197811410647 -0.007418872871334224 
0 0 0 0 0 
-0.01387962547777478 -0.01327912604415500 0.01519102089809662 -0.01344864285192703 -0.01330459258703783 
-0.004182896921027311 -0.04165667736424331 0.008229814440220818 -0.04195312089782913 -0.04087572284102529 
0 0 0 0 0 
-0.007739521240331981 -0.007404672282861928 0.008470778198692082 -0.007499197811410647 -0.007418872871334224 
-0.007739521240331981 -0.007404672282861928 0.008470778198692082 -0.007499197811410647 -0.007418872871334224 
0 0 0 0 0 
-0.05844925207599124 0.02328347876251901 -0.04468237319073335 -0.03105298877326386 -0.05682923341214445 
-0.01387962547777478 -0.01327912604415500 0.01519102089809662 -0.01344864285192703 -0.01330459258703783 
-0.007739521240331981 -0.007404672282861928 0.008470778198692082 -0.007499197811410647 -0.007418872871334224 
-0.007739521240331981 -0.007404672282861928 0.008470778198692082 -0.007499197811410647 -0.007418872871334224 
0.06914914469553615 -0.07185194871711831 -0.06156498224082398 -0.07129396418570022 -0.07122339758920994 
-0.007739521240331981 -0.007404672282861928 0.008470778198692082 -0.007499197811410647 -0.007418872871334224 
-0.007739521240331981 -0.007404672282861928 0.008470778198692082 -0.007499197811410647 -0.007418872871334224 
-0.007739521240331981 -0.007404672282861928 0.008470778198692082 -0.007499197811410647 -0.007418872871334224 
-0.01387962547777478 -0.01327912604415500 0.01519102089809662 -0.01344864285192703 -0.01330459258703783 
0 0 0 0 0 
-0.1398278484770102 -0.1233227059587883 -0.02068048622477424 -0.05370586858143703 -0.05557867237641783 
0 0 0 0 0 
-0.04816442844315520 -0.04726166969544604 0.05283633314150067 -0.04768861978419188 -0.04751868392701338 
-0.007739521240331981 -0.007404672282861928 0.008470778198692082 -0.007499197811410647 -0.007418872871334224 
-0.007739521240331981 -0.007404672282861928 0.008470778198692082 -0.007499197811410647 -0.007418872871334224 
-0.08161656067417390 -0.07779135981671714 -0.06490464534419778 0.06943279735868807 -0.06487706652504154 
-0.007739521240331981 -0.007404672282861928 0.008470778198692082 -0.007499197811410647 -0.007418872871334224 
-0.04608441075359684 -0.01724577407509160 -0.03161690210367757 -0.04492510890639542 0.008293898047922679 
-0.01510261738451391 -0.01476731188804984 -0.0008321586599364925 0.002460555522721606 -0.01463050019456666 
-0.007739521240331981 -0.007404672282861928 0.008470778198692082 -0.007499197811410647 -0.007418872871334224 
-0.07032189446055566 -0.06828224128352162 -0.04566032378563869 0.03508442105622685 -0.04326860296367973 
0 0 0 0 0 
-0.01387962547777478 -0.01327912604415500 0.01519102089809662 -0.01344864285192703 -0.01330459258703783 
0 0 0 0 0 
0 0 0 0 0 
-0.007739521240331981 -0.007404672282861928 0.008470778198692082 -0.007499197811410647 -0.007418872871334224 
0 0 0 0 0 
-0.007739521240331981 -0.007404672282861928 0.008470778198692082 -0.007499197811410647 -0.007418872871334224 
0 0 0 0 0 
-0.007739521240331981 -0.007404672282861928 0.008470778198692082 -0.007499197811410647 -0.007418872871334224 
-0.05711978844736522 -0.05660973879010374 -0.04354046142170734 0.01860734821541564 -0.02372141072704863 
0 0 0 0 0 
0.02637534587426749 -0.1064377151136252 -0.1287719540555943 -0.1207249030980029 -0.1087288678807395 
-0.005843394230936626 -0.1219257311972658 -0.1041123745073922 -0.1230800457110383 -0.04832811509910414 
-0.007284680931811775 -0.06697899728004875 -0.02523700878622867 -0.06746471680446317 -0.02613392873049347 
-0.007739521240331981 -0.007404672282861928 0.008470778198692082 -0.007499197811410647 -0.007418872871334224 
-0.007739521240331981 -0.007404672282861928 0.008470778198692082 -0.007499197811410647 -0.007418872871334224 
-0.007739521240331981 -0.007404672282861928 0.008470778198692082 -0.007499197811410647 -0.007418872871334224 
-0.007739521240331981 -0.007404672282861928 0.008470778198692082 -0.007499197811410647 -0.007418872871334224 
-0.04390752239300509 -0.04285644477167031 -0.02913281258136570 0.03392120321081987 -0.04261590999578387 
0 0 0 0 0 
0 0 0 0 0 
-0.007739521240331981 -0.007404672282861928 0.008470778198692082 -0.007499197811410647 -0.007418872871334224 
-0.007739521240331981 -0.007404672282861928 0.008470778198692082 -0.007499197811410647 -0.007418872871334224 
-0.007739521240331981 -0.007404672282861928 0.008470778198692082 -0.007499197811410647 -0.007418872871334224 
0 0 0 0 0 
-0.007739521240331981 -0.007404672282861928 0.008470778198692082 -0.007499197811410647 -0.007418872871334224 
-0.1237692242046380 -0.1205955415694125 0.07609687767427799 -0.1216011123955702 -0.06226787751458373 
0.06903596555401396 -0.09359051242425108 -0.07424429012444074 -0.1090697418694826 -0.1068837024571565 
0 0 0 0 0 
0 0 0 0 0 
-0.007739521240331981 -0.007404672282861928 0.008470778198692082 -0.007499197811410647 -0.007418872871334224 
0 0 0 0 0 
0 0 0 0 0 
-0.007739521240331981 -0.007404672282861928 0.008470778198692082 -0.007499197811410647 -0.007418872871334224 
-0.1143859341697502 -0.05052978038266071 -0.1266788076663108 0.03459454295614598 -0.1344420531879107 
0 0 0 0 0 
0 0 0 0 0 
0 0 0 0 0 
-0.04702710915470814 -0.01046725226909075 -0.06108501680178008 -0.1186111831202083 -0.1060024536485253 
-0.007739521240331981 -0.007404672282861928 0.008470778198692082 -0.007499197811410647 -0.007418872871334224 
-0.06428611227627933 -0.06356163440556620 0.03742210168979056 -0.06344928067845244 -0.03446530379388535 
-0.007739521240331981 -0.007404672282861928 0.008470778198692082 -0.007499197811410647 -0.007418872871334224 
0.07986632658785563 -0.07639580366803689 -0.07699639176350256 -0.07565261458257600 -0.07640678155713393 
0.2083164042370580 -0.2343202861211817 -0.1976424822577366 -0.2323384857312894 -0.2344301337683009 
0.1604802842941288 -0.1527204188739007 -0.1527889394978889 -0.1513276753476669 -0.1519387790053347 
0 0 0 0 0 
0.08328905350662374 -0.1304005640486273 -0.1329494420878180 -0.1660035166775793 -0.1436989629698897 
0 0 0 0 0 
0.09309324762529413 -0.08846217902714223 -0.08857028303735205 -0.08767469432182198 -0.08784317606255382 
0.07986632658785563 -0.07639580366803689 -0.07699639176350256 -0.07565261458257600 -0.07640678155713393 
0.07986632658785563 -0.07639580366803689 -0.07699639176350256 -0.07565261458257600 -0.07640678155713393 
0.02507145762260801 -0.07541094215695952 -0.09410244098798769 -0.09348575184572312 -0.03722080157263322 
0.07986632658785563 -0.07639580366803689 -0.07699639176350256 -0.07565261458257600 -0.07640678155713393 
0.05197359073037859 -0.08765980875484272 -0.08750921082327838 -0.08640540937230821 -0.04751489848435728 
0.03965947296406308 -0.1056923629242275 -0.1063506566131268 -0.06198513509954496 -0.07275049042645006 
0.03284035084989332 -0.1200527162205580 -0.1547891328151311 -0.1032742061127326 -0.1080603539516896 
0 0 0 0 0 
0.07986632658785563 -0.07639580366803689 -0.07699639176350256 -0.07565261458257600 -0.07640678155713393 
0.04865418100429412 -0.09020049583478938 -0.04293505251519119 -0.08969378287861272 -0.09030833116633720 
0.07986632658785563 -0.07639580366803689 -0.07699639176350256 -0.07565261458257600 -0.07640678155713393 
0 0 0 0 0 
0.07986632658785563 -0.07639580366803689 -0.07699639176350256 -0.07565261458257600 -0.07640678155713393 
0.07986632658785563 -0.07639580366803689 -0.07699639176350256 -0.07565261458257600 -0.07640678155713393 
0.02910010337273911 -0.1069669715524438 -0.02012914443916602 -0.1083878615785463 -0.1076585727947509 
0.07986632658785563 -0.07639580366803689 -0.07699639176350256 -0.07565261458257600 -0.07640678155713393 
0.07986632658785563 -0.07639580366803689 -0.07699639176350256 -0.07565261458257600 -0.07640678155713393 
0.02543458850498975 -0.1123723188712407 -0.04910448963412045 -0.08256347318273459 -0.1125724081942096 
0.07986632658785563 -0.07639580366803689 -0.07699639176350256 -0.07565261458257600 -0.07640678155713393 
0.02128446809620450 -0.1039852080808850 -0.1292092717323057 -0.08208965360344380 -0.08310907586125198 
-0.01438376203024895 -0.1285063780266492 0.02742828315474662 -0.1299942989789526 -0.1292651163077908 
0 0 0 0 0 
0.1466831196679472 -0.1391036448095200 -0.1397486729323054 -0.1378834084860934 -0.1386204766310972 
0.01509267360959935 -0.06062428516731165 -0.1210181352233094 -0.1208529706151485 -0.06686174028740123 
0.04712818831745359 -0.1147669965879240 -0.1504156800276013 -0.1115325930263516 -0.1079891328345258 
0.1525959882083812 -0.1383018941690649 -0.1387615797252063 -0.1393698970471228 -0.1369956337007564 
0.07986632658785563 -0.07639580366803689 -0.07699639176350256 -0.07565261458257600 -0.07640678155713393 
0.07986632658785563 -0.07639580366803689 -0.07699639176350256 -0.07565261458257600 -0.07640678155713393 
0.07986632658785563 -0.07639580366803689 -0.07699639176350256 -0.07565261458257600 -0.07640678155713393 
0.07986632658785563 -0.07639580366803689 -0.07699639176350256 -0.07565261458257600 -0.07640678155713393 
0 0 0 0 0 
0.02681503497686307 -0.05462327743567657 -0.09261032078232773 -0.07695451576825121 -0.07284847019412184 
0.04730185342388889 -0.04136449815825177 -0.09187577510036690 -0.09147845752089583 -0.09118226473912515 
0.07986632658785563 -0.07639580366803689 -0.07699639176350256 -0.07565261458257600 -0.07640678155713393 
0 0 0 0 0 
0 0 0 0 0 
-0.02563013604864535 -0.02417472436671176 0.02913742947593031 -0.02435303964249144 -0.02428400334597198 
-0.03652411526483968 -0.007420825049184655 0.01258978681069996 -0.03549633625212058 -0.03528872004104098 
-0.02563013604864535 -0.02417472436671176 0.02913742947593031 -0.02435303964249144 -0.02428400334597198 
0 0 0 0 0 
-0.02563013604864535 -0.02417472436671176 0.02913742947593031 -0.02435303964249144 -0.02428400334597198 
-0.02563013604864535 -0.02417472436671176 0.02913742947593031 -0.02435303964249144 -0.02428400334597198 
-0.02563013604864535 -0.02417472436671176 0.02913742947593031 -0.02435303964249144 -0.02428400334597198 
-0.09762601740212776 -0.09187216863609116 -0.01451205888168602 -0.02428233541713981 -0.03015028380014472 
-0.06323952057690287 -0.05964845352861192 0.07189337845900905 -0.06008842671215033 -0.05991808730052921 
-0.06323952057690287 -0.05964845352861192 0.07189337845900905 -0.06008842671215033 -0.05991808730052921 
0 0 0 0 0 
-0.04986851318456657 -0.04828303641888768 -0.004609501581033472 -0.04842824487802006 0.01005947530627752 
-0.02563013604864535 -0.02417472436671176 0.02913742947593031 -0.02435303964249144 -0.02428400334597198 
-0.02563013604864535 -0.02417472436671176 0.02913742947593031 -0.02435303964249144 -0.02428400334597198 
-0.009708884606569537 -0.06455172673723955 -0.04954616721481353 -0.08711389688078244 -0.04029323357817106 
-0.03864054742202146 -0.03706110350993567 0.01072487348962942 -0.03712508431398254 -0.005424577142497916 
-0.08776877073601534 0.03362088508779176 -0.04115198087247673 -0.08637936228236757 -0.06356903199226697 
-0.02563013604864535 -0.02417472436671176 0.02913742947593031 -0.02435303964249144 -0.02428400334597198 
-0.02563013604864535 -0.02417472436671176 0.02913742947593031 -0.02435303964249144 -0.02428400334597198 
-0.04640801614023762 -0.04397797586236515 0.004264424377199394 0.002497079525807957 -0.04394727875515976 
-0.04872136794306148 -0.04623625101892840 0.001999680643374093 0.007473966392421172 -0.04612927727006512 
-0.1123160907959888 -0.08713004920782065 -0.002224208132076332 -0.02718397112853632 -0.08359592282642495 
-0.02563013604864535 -0.02417472436671176 0.02913742947593031 -0.02435303964249144 -0.02428400334597198 
0.0008714451092303355 -0.04362799954732065 0.004846611350272927 -0.04391799101253185 -0.04295028421405559 
-0.04524549383704630 -0.04320058198584159 0.0005450585550039061 -0.04345396897884173 0.006089485384345762 
-0.02563013604864535 -0.02417472436671176 0.02913742947593031 -0.02435303964249144 -0.02428400334597198 
0 0 0 0 0 
0 0 0 0 0 
-0.02563013604864535 -0.02417472436671176 0.02913742947593031 -0.02435303964249144 -0.02428400334597198 
0 0 0 0 0 
0 0 0 0 0 
0 0 0 0 0 
-0.02563013604864535 -0.02417472436671176 0.02913742947593031 -0.02435303964249144 -0.02428400334597198 
-0.02563013604864535 -0.02417472436671176 0.02913742947593031 -0.02435303964249144 -0.02428400334597198 
-0.04594263013820710 -0.04333376998721173 0.05222953725450523 -0.04365340437181232 -0.04352965516380634 
-0.02563013604864535 -0.02417472436671176 0.02913742947593031 -0.02435303964249144 -0.02428400334597198 
0 0 0 0 0 
0 0 0 0 0 
0.02239995294994182 -0.06821222570110765 -0.02705649567165508 -0.06750915516752619 -0.05459181979852359 
-0.03864054742202146 -0.03706110350993567 0.01072487348962942 -0.03712508431398254 -0.005424577142497916 
-0.03410773490923705 -0.03241327810142389 0.01542890646928375 -0.03263928118007961 -0.009633234562370219 
0 0 0 0 0 
-0.02563013604864535 -0.02417472436671176 0.02913742947593031 -0.02435303964249144 -0.02428400334597198 
0 0 0 0 0 
0 0 0 0 0 
-0.1064221046131687 -0.1220092464158454 0.04120555591860999 -0.06854449376690776 -0.09517379877830895 
-0.02563013604864535 -0.02417472436671176 0.02913742947593031 -0.02435303964249144 -0.02428400334597198 
-0.02563013604864535 -0.02417472436671176 0.02913742947593031 -0.02435303964249144 -0.02428400334597198 
-0.08458308379701585 -0.1352130430610959 -0.1136570004214900 -0.01125416580717811 -0.1796483406979049 
-0.02897958058053314 -0.05178026118182594 0.03612095315435936 -0.05202859272356480 -0.05169159600092827 
0 0 0 0 0 
0 0 0 0 0 
0 0 0 0 0 
-0.05425618174368919 -0.07323374448914652 0.01363834232172579 -0.07490638407859201 -0.02393953544512902 
0 0 0 0 0 
-0.02563013604864535 -0.02417472436671176 0.02913742947593031 -0.02435303964249144 -0.02428400334597198 
-0.03410773490923705 -0.03241327810142389 0.01542890646928375 -0.03263928118007961 -0.009633234562370219 
-0.04594263013820710 -0.04333376998721173 0.05222953725450523 -0.04365340437181232 -0.04352965516380634 
0 0 0 0 0 
-0.02563013604864535 -0.02417472436671176 0.02913742947593031 -0.02435303964249144 -0.02428400334597198 
-0.06274313518160766 -0.03488955900028219 -0.01958882742645324 -0.06076379653476153 0.001385062332171401 
0 0 0 0 0 
-0.005613313102241066 -0.03748700993447652 0.01063930326952571 -0.03785869796215991 -0.03714747149572661 
0 0 0 0 0 
-0.07747353130003772 -0.1705115796324455 -0.1680513520164459 0.007335516836520007 -0.1757469096042487 
-0.02473921984465684 -0.06689715248568270 -0.07089212521469958 -0.1259197233365452 -0.1236431938546253 
-0.07570227267550494 -0.1059676958143007 -0.06852287973229827 0.02316501787490020 -0.08045904542102762 
-0.009971223005066981 -0.05833865312130318 -0.01446596802231703 -0.05848601992205561 -0.02917196465565350 
-0.02563013604864535 -0.02417472436671176 0.02913742947593031 -0.02435303964249144 -0.02428400334597198 
0 0 0 0 0 
-0.05577044157488913 -0.05250087353768235 0.06326469381613212 -0.05460075883330086 -0.05277575518521350 
-0.02563013604864535 -0.02417472436671176 0.02913742947593031 -0.02435303964249144 -0.02428400334597198 
0 0 0 0 0 
-0.02563013604864535 -0.02417472436671176 0.02913742947593031 -0.02435303964249144 -0.02428400334597198 
0 0 0 0 0 
0 0 0 0 0 
0 0 0 0 0 
-0.1387841224620473 -0.001055931524832801 -0.05049931505374353 -0.1166334567630652 -0.1426139323427255 
0 0 0 0 0 
-0.1306264068041917 -0.1255581273548485 0.1211481238185914 -0.1022880808462297 -0.1247820267579307 
-0.02563013604864535 -0.02417472436671176 0.02913742947593031 -0.02435303964249144 -0.02428400334597198 
-0.02563013604864535 -0.02417472436671176 0.02913742947593031 -0.02435303964249144 -0.02428400334597198 
-0.02563013604864535 -0.02417472436671176 0.02913742947593031 -0.02435303964249144 -0.02428400334597198 
0 0 0 0 0 
-0.1074037421680044 -0.1021756112443380 0.1198478103612987 -0.1051641960507794 -0.1025437849243216 
0 0 0 0 0 
-0.04594263013820710 -0.04333376998721173 0.05222953725450523 -0.04365340437181232 -0.04352965516380634 
-0.02563013604864535 -0.02417472436671176 0.02913742947593031 -0.02435303964249144 -0.02428400334597198 
0 0 0 0 0 
-0.03011252962270583 -0.02870316902612509 0.01923701702008759 -0.01402682160232572 -0.02866476654873602 
-0.04199050012023375 -0.0009216108601872278 0.007664730396073438 -0.04050656802931560 -0.04012020017325082 
-0.04264484360432408 -0.04081347822277985 0.007679961111593383 -0.04038557661898645 -0.0007567099919502206 
-0.03848464527571631 -0.03673478753417141 0.01118980819288803 -0.005490858091238831 -0.03656878244067562 
-0.02563013604864535 -0.02417472436671176 0.02913742947593031 -0.02435303964249144 -0.02428400334597198 
0 0 0 0 0 
-0.02563013604864535 -0.02417472436671176 0.02913742947593031 -0.02435303964249144 -0.02428400334597198 
0 0 0 0 0 
-0.02563013604864535 -0.02417472436671176 0.02913742947593031 -0.02435303964249144 -0.02428400334597198 
-0.02563013604864535 -0.02417472436671176 0.02913742947593031 -0.02435303964249144 -0.02428400334597198 
-0.03484851258536793 -0.03329690812698902 0.03971233886714284 -0.03407547354827525 -0.03332468922964905 
-0.02563013604864535 -0.02417472436671176 0.02913742947593031 -0.02435303964249144 -0.02428400334597198 
0 0 0 0 0 
-0.02563013604864535 -0.02417472436671176 0.02913742947593031 -0.02435303964249144 -0.02428400334597198 
0 0 0 0 0 
0 0 0 0 0 
-0.05505699876158018 -0.006016146624591722 0.01354978350044130 -0.05444949424448119 -0.05375728697702164 
-0.03569719650426883 -0.03503977379739909 0.03946279204267254 -0.03622458885522051 -0.03474916718586341 
-0.03569719650426883 -0.03503977379739909 0.03946279204267254 -0.03622458885522051 -0.03474916718586341 
-0.1355361434694515 -0.1306287389772246 0.1503573022743066 -0.1340289330176496 -0.1295538865996570 
0.07147589779177459 -0.1989490910490587 -0.1080114542627668 -0.1731820762115566 -0.1770456891251050 
-0.08354978410823737 -0.1152771823777022 -0.03629838217550064 0.005693296957629134 -0.1041634720718568 
-0.04693460661486164 -0.04543304099134915 0.02090692141003659 -0.01544267629498317 -0.04517844519525955 
-0.07975458102151987 -0.08799227016030688 -0.05899024375789488 -0.03250475642600997 -0.04564425619107632 
-0.03569719650426883 -0.03503977379739909 0.03946279204267254 -0.03622458885522051 -0.03474916718586341 
-0.05089786197613489 -0.04950224155716462 0.01699636122787341 -0.01198433353085196 -0.04925739561609237 
-0.04453886514266822 -0.01784282586062994 0.02352612590923611 -0.04457153155606477 -0.04299213638699555 
0 0 0 0 0 
-0.04215327601950656 -0.01980831929107027 0.02562077943842497 -0.04259337836513108 -0.04101325814043205 
0 0 0 0 0 
0.05107906983251691 -0.09064627951365295 -0.04184135489608289 -0.09214712239075432 -0.08927361341864479 
-0.05774723243235618 -0.05597767961196146 0.01125704386665253 -0.003169937526973451 -0.05551214394591610 
-0.03569719650426883 -0.03503977379739909 0.03946279204267254 -0.03622458885522051 -0.03474916718586341 
-0.07262274302391913 -0.09371409843459990 -0.003509166985928566 -0.05123532226500938 -0.04941480903067096 
-0.03569719650426883 -0.03503977379739909 0.03946279204267254 -0.03622458885522051 -0.03474916718586341 
-0.1479184421546710 0.1183346603348768 -0.1065782684193071 -0.1480374568216369 -0.1458281253324292 
-0.06844910568451740 -0.06692348358515905 0.05559335933338264 -0.06913147881668091 -0.04626466835620653 
-0.03569719650426883 -0.03503977379739909 0.03946279204267254 -0.03622458885522051 -0.03474916718586341 
0 0 0 0 0 
0 0 0 0 0 
-0.004164221845732171 -0.05536424464030481 -0.06089975291751482 -0.1239760353322156 -0.1089569039977332 
-0.09160340556505553 -0.1348906991396175 0.1082706409861725 -0.1387855677106752 -0.1340210124821040 
-0.1590297469078677 -0.1052471899782812 0.0004866930415553611 -0.05069220523089799 -0.1276866518464007 
0 0 0 0 0 
-0.08416100797883325 -0.08245763028048661 0.03266466824046371 -0.03791869132279596 -0.06535036402023214 
-0.06396028982201610 -0.06278235567074640 0.07070727853750221 -0.06490524267322248 -0.06226166259346810 
0 0 0 0 0 
-0.1056186734110922 -0.1046828092907099 -0.04215683991375339 0.05038591555766873 -0.1034174555696673 
0 0 0 0 0 
-0.06396028982201610 -0.06278235567074640 0.07070727853750221 -0.06490524267322248 -0.06226166259346810 
-0.03569719650426883 -0.03503977379739909 0.03946279204267254 -0.03622458885522051 -0.03474916718586341 
-0.03569719650426883 -0.03503977379739909 0.03946279204267254 -0.03622458885522051 -0.03474916718586341 
-0.03569719650426883 -0.03503977379739909 0.03946279204267254 -0.03622458885522051 -0.03474916718586341 
-0.03569719650426883 -0.03503977379739909 0.03946279204267254 -0.03622458885522051 -0.03474916718586341 
-0.02290167363939279 -0.08298305278518713 -0.02273695325045064 -0.02840478246653050 -0.08120711180448274 
-0.05269982128149831 -0.05687420542478416 -0.03968833665882116 -0.09182339117985458 -0.02126105192904647 
-0.03569719650426883 -0.03503977379739909 0.03946279204267254 -0.03622458885522051 -0.03474916718586341 
0 0 0 0 0 
-0.1043900939843006 -0.03991585775263012 -0.03199665609744302 -0.1222978466049444 -0.1055148893639051 
-0.04449097801723953 -0.04366366765844192 0.04862545227944740 -0.04470820486908550 -0.04339009409888522 
-0.03569719650426883 -0.03503977379739909 0.03946279204267254 -0.03622458885522051 -0.03474916718586341 
-0.03569719650426883 -0.03503977379739909 0.03946279204267254 -0.03622458885522051 -0.03474916718586341 
0 0 0 0 0 
-0.05916729049778035 -0.05741536117733705 -0.0006631887340774512 -0.02568322379998963 -0.02457625398970247 
-0.03569719650426883 -0.03503977379739909 0.03946279204267254 -0.03622458885522051 -0.03474916718586341 
0 0 0 0 0 
0 0 0 0 0 
-0.04391479302097336 -0.04323985700254639 0.02359618193395916 -0.01978793195781381 -0.04303519868762604 
0 0 0 0 0 
-0.03569719650426883 -0.03503977379739909 0.03946279204267254 -0.03622458885522051 -0.03474916718586341 
0 0 0 0 0 
-0.03569719650426883 -0.03503977379739909 0.03946279204267254 -0.03622458885522051 -0.03474916718586341 
0 0 0 0 0 
-0.03569719650426883 -0.03503977379739909 0.03946279204267254 -0.03622458885522051 -0.03474916718586341 
